{"fc1.weight": [[0.014601137489080429, -0.0028419652953743935, -0.08235131204128265, 0.03513062745332718, -0.016202766448259354, 0.032345373183488846, -0.04356173053383827, 0.011644222773611546, 0.0199241004884243, 0.02789905108511448, 0.04589361697435379, -3.2056443160399795e-05, 0.2307930588722229, -0.1676073521375656], [0.037170831114053726, 0.002979852957651019, -0.027626629918813705, 0.08674179762601852, 0.061128467321395874, 0.03599457070231438, -0.19905789196491241, 0.015956800431013107, 0.022484594956040382, 0.04423457756638527, -0.01098658051341772, -0.08443814516067505, -0.07270435243844986, 0.12121464312076569], [-0.0047283475287258625, 0.02641686610877514, 0.035822805017232895, 0.13538895547389984, 0.03647707402706146, -0.0040191588923335075, -0.06239314377307892, 0.3068368136882782, 0.06283941119909286, 0.11956615746021271, 0.008639906533062458, -0.052071332931518555, -0.05420719087123871, -0.031580742448568344], [-0.026667607948184013, 0.03654342144727707, 0.023547325283288956, -0.07089900225400925, 0.08158529549837112, 0.007959106005728245, 0.038175467401742935, 0.23747305572032928, -0.018752317875623703, 0.09117207676172256, -0.02446054294705391, -0.1757000982761383, -0.058271486312150955, -0.008322213776409626], [0.011798045597970486, 0.14680102467536926, -0.07669515162706375, 0.06535687297582626, -0.07171140611171722, 0.016140108928084373, -0.05302499979734421, -0.020502455532550812, 0.02132245898246765, 0.013304569758474827, 0.10538710653781891, -0.11416517943143845, 0.09674122184515, -0.26299676299095154], [-0.005300224758684635, 0.18903480470180511, 0.04051985964179039, 0.029662925750017166, 0.007424820680171251, 0.021359959617257118, -0.03682954981923103, 0.32107675075531006, 0.00930014904588461, -0.0030825515277683735, -0.011562451720237732, -0.06544308364391327, 0.07052930444478989, 0.11168886721134186], [0.0007316821138374507, -0.0708969309926033, 0.05640311911702156, -0.1137276291847229, 0.05104030296206474, 0.037841975688934326, -0.1557358205318451, 0.1910356879234314, 0.052497707307338715, 0.02121376246213913, 0.0427059680223465, -0.09269286692142487, -0.09614241123199463, 3.641610965132713e-05], [0.04527803137898445, 0.18198378384113312, 0.035908546298742294, 0.17305518686771393, 0.10727287828922272, 0.08645074814558029, -0.13843561708927155, 0.032464537769556046, 0.02368246205151081, 0.03592999652028084, -0.030964450910687447, -0.17489977180957794, 0.15897704660892487, 0.11294728517532349], [0.021391350775957108, 0.10683806985616684, -0.026926055550575256, -0.1862010359764099, -0.04229830205440521, 0.05486423149704933, -0.005154711194336414, 0.058960117399692535, -0.025008106604218483, 0.014558923430740833, -0.01657983474433422, -0.0783795565366745, -0.08369243890047073, 0.09059886634349823], [0.020740164443850517, -0.008375348523259163, 0.05152371898293495, -0.09728100150823593, 0.018605943769216537, 0.031806208193302155, 0.02244134247303009, 0.2971135973930359, 0.016378197818994522, -0.0470103994011879, 0.005708564072847366, -0.013609785586595535, -0.07451359927654266, -0.12086501717567444], [0.029748016968369484, 0.13988342881202698, 0.003963956609368324, 0.21472075581550598, 0.08846883475780487, 0.02418910712003708, 0.002194305183365941, 0.13008198142051697, 0.02821402996778488, -0.0073440480045974255, -0.00812937505543232, -0.26768967509269714, -0.18167650699615479, -0.1709190011024475], [-0.0029983753338456154, -0.003889968153089285, 0.12717518210411072, -0.06805593520402908, -0.12864817678928375, 0.019136790186166763, 0.0026597159449011087, 0.22308725118637085, 0.046363282948732376, 0.059015221893787384, 0.048805054277181625, -0.007035886403173208, -0.03988140448927879, 0.0178991686552763], [0.04439486563205719, 0.14776653051376343, -0.12729910016059875, -0.031107891350984573, -0.04275340586900711, 0.047116782516241074, 0.1767471581697464, 0.23668959736824036, 0.050904251635074615, -0.0276755690574646, 0.021901696920394897, -0.1349075436592102, -0.03450930491089821, 0.0034595762845128775], [0.005434359423816204, 0.08499889075756073, 0.10254087299108505, -0.16134904325008392, 0.060929734259843826, 0.040416307747364044, 0.011241747997701168, 0.1537252515554428, 0.053458698093891144, 0.04142678529024124, -0.0010388195514678955, -0.2689429521560669, -0.17746633291244507, -0.09898888319730759], [-0.009450769983232021, 0.11566921323537827, -0.004830942954868078, -0.09517385810613632, -0.016250142827630043, 0.05523653328418732, -0.05996181443333626, 0.2011643350124359, -0.0050443015061318874, 0.014363324269652367, 0.1023617684841156, -0.19379869103431702, -0.11179307848215103, -0.06116936355829239], [-0.07447415590286255, -0.019182702526450157, -0.07402755320072174, 0.06753917783498764, 0.0026027204003185034, 0.01989016868174076, -0.02180466614663601, 0.309670090675354, 0.003935763146728277, -0.012168219313025475, 0.0033035932574421167, 0.028058258816599846, 0.003041137009859085, 0.055135007947683334], [0.021862132474780083, 0.19324278831481934, 0.14634938538074493, 0.06849223375320435, 0.09899045526981354, -0.027856532484292984, 0.10784295946359634, 0.14986516535282135, 0.06216840818524361, 0.00830150954425335, -0.09202781319618225, -0.270127534866333, 0.10559891164302826, 0.13088957965373993], [0.05199036747217178, -0.06272445619106293, -0.008985810913145542, -0.027536870911717415, -0.07586678117513657, 0.07271941751241684, 0.08458610624074936, 0.276327908039093, 0.011258953250944614, -0.01746746525168419, 0.056898437440395355, -0.07845016568899155, -0.026892028748989105, -0.038984835147857666], [0.046923089772462845, 0.29402148723602295, -0.007044113241136074, -0.055381789803504944, 0.004820569884032011, 0.020671404898166656, -0.11198754608631134, -0.0080352071672678, 0.05051391199231148, 0.0011761387577280402, 0.07002494484186172, -0.012842088006436825, -0.16437314450740814, -0.043166760355234146], [0.003990353550761938, 0.016557373106479645, -0.05845940113067627, -0.043477632105350494, -0.00598138477653265, 0.03665146976709366, -0.0687241330742836, -0.186140239238739, 0.03596319630742073, 0.029055185616016388, 0.02586524374783039, 0.10817518830299377, 0.04672027379274368, 0.00549852242693305], [0.0631311684846878, 0.025239022448658943, 0.06509354710578918, 0.07493724673986435, -0.016537442803382874, 0.021188396960496902, 0.1405111402273178, 0.30724450945854187, 0.0030916002579033375, 0.028866758570075035, -0.07416598498821259, -0.006428210064768791, -0.062375474721193314, -0.014106929302215576], [-0.01962616667151451, -0.046501584351062775, 0.047808121889829636, 0.13203535974025726, 0.025923479348421097, 0.023424936458468437, 0.014413529075682163, 0.26826953887939453, -0.00579351931810379, 0.07427278906106949, 0.04291880130767822, -0.12064307183027267, -0.07157471030950546, -0.047091953456401825], [-0.03785305097699165, 0.12149231880903244, -0.06559332460165024, 0.10113668441772461, 0.01532638818025589, 0.03219376504421234, 0.0320870578289032, 0.3255283534526825, -0.03348992392420769, 0.0005229024682193995, 0.005110477562993765, -0.08224332332611084, -0.11430162191390991, -0.10994213819503784], [-0.06094439700245857, -0.005050170235335827, 0.020719796419143677, 0.15435265004634857, 0.04980113357305527, 0.0460190586745739, 0.046930428594350815, 0.26170799136161804, 0.039672158658504486, 0.0638241171836853, -0.004496019333600998, -0.14124058187007904, 0.013823352754116058, 0.015295381657779217], [-0.0167312640696764, -0.085208460688591, -0.0721268579363823, 0.03855272755026817, 0.028433512896299362, -0.016968412324786186, 0.031184151768684387, 0.29307639598846436, -0.026629777625203133, 0.007182834204286337, 0.0748925432562828, -0.06645844131708145, 0.07998110353946686, 0.12570451200008392], [0.04215862229466438, 0.08802560716867447, 0.051685698330402374, 0.2510102391242981, 0.07560569047927856, 0.014225187711417675, 0.022033797577023506, 0.22868439555168152, 0.008102210238575935, 0.028456099331378937, 0.012700788676738739, -0.17866498231887817, -0.02102034166455269, -0.005310719832777977], [0.020563336089253426, 0.1893419623374939, -0.0595114603638649, 0.18961986899375916, -0.013334151357412338, 0.021874750033020973, 0.040812477469444275, 0.1479657143354416, 0.020104320719838142, 0.01862833835184574, 0.12233850359916687, -0.06737398356199265, -0.00987659115344286, -0.05041051283478737], [0.030408112332224846, 0.29589322209358215, 0.12433947622776031, -0.022773411124944687, -0.0033833282068371773, -0.013728819787502289, 0.01787572167813778, 0.10638562589883804, 0.007668077480047941, 0.04963063448667526, -0.016019875183701515, -0.044896844774484634, 0.026802286505699158, 0.08392896503210068], [-0.0660780817270279, 0.2717868387699127, -0.09634155035018921, -0.005345731973648071, -0.08700590580701828, 0.007387974299490452, 0.05827288702130318, 0.040452126413583755, -0.02452707849442959, -0.0030411039479076862, -0.021500740200281143, 0.04279886931180954, -0.10803376883268356, 0.011683356016874313], [0.009777579456567764, 0.2652319371700287, -0.03166886046528816, -0.02260359562933445, 0.027180928736925125, 0.0035029477439820766, -0.006133713759481907, 0.14336282014846802, 0.01996210590004921, -0.03358548879623413, -0.046865057200193405, 0.04208563640713692, 0.0033215044531971216, 0.12792932987213135], [0.014485145919024944, -0.19089257717132568, -0.011193226091563702, 0.05702970549464226, -0.0011524014407768846, 0.04140547290444374, -0.020816631615161896, 0.22433118522167206, 0.00374256307259202, 0.03596913814544678, 0.03704456984996796, -0.15150603652000427, -0.015582424588501453, 0.09790775924921036], [0.0704859048128128, 0.07564214617013931, 0.15077751874923706, 0.024588484317064285, 0.0418228954076767, 0.05730992183089256, 0.09471869468688965, 0.23984330892562866, -0.030596205964684486, -0.018043605610728264, 0.009666859172284603, -0.2414163053035736, -0.12874546647071838, -0.11041098088026047], [0.015914665535092354, -0.00509744742885232, 0.0053390138782560825, -0.1468093991279602, -0.02227291651070118, 0.06007976830005646, 0.04074384644627571, 0.2684147357940674, 0.038316283375024796, 0.05444316565990448, 0.016422156244516373, -0.12773630023002625, -0.07547586411237717, -0.03344103693962097], [0.025175804272294044, 0.079973004758358, 0.034810375422239304, 0.04425165429711342, 0.04332613945007324, -0.028206108137965202, -0.10221836715936661, 0.30575278401374817, -0.048942554742097855, 0.05470093712210655, 0.03984924033284187, -0.1521361917257309, -0.1117573082447052, -0.11651359498500824], [0.013883768580853939, 0.2736305594444275, -0.04174290969967842, -0.00702359015122056, 0.034710805863142014, 0.05867692455649376, -0.04164239391684532, 0.049499623477458954, 0.04470536485314369, 0.0365697406232357, 0.030628684908151627, -0.07896492630243301, -0.07237181812524796, 0.029878804460167885], [0.03990669548511505, -0.022288132458925247, 0.07072091102600098, 0.1233878955245018, -0.05091797932982445, 0.06202736124396324, 0.03455280140042305, 0.2790352702140808, 0.057191312313079834, 0.03793247416615486, 0.032480765134096146, -0.22069993615150452, -0.03529789298772812, 0.035671912133693695], [0.011410661973059177, 0.023736996576189995, 0.027435505762696266, 0.005420495290309191, 0.011873952113091946, 0.026925889775156975, 0.009987957775592804, 0.01164450217038393, 0.03080236352980137, -0.013713506981730461, -0.006463549565523863, 0.008765766397118568, 0.17796766757965088, -0.1965922713279724], [-0.001902052666991949, 0.08081139624118805, 0.024550611153244972, -0.12942267954349518, 0.015050610527396202, 0.00374109810218215, -0.0010871193371713161, 0.2547570765018463, 0.06320485472679138, 0.043350160121917725, 0.014923508279025555, -0.16942763328552246, 0.029120052233338356, 0.0550561249256134], [-0.06950019299983978, 0.14437232911586761, 0.10645044595003128, 0.09199182689189911, -0.038390759378671646, 0.0797252357006073, -0.1442561149597168, 0.09828514605760574, -0.02955113723874092, 0.0739525631070137, -0.01734871231019497, -0.10625507682561874, 0.025884337723255157, 0.1774580478668213], [0.0054804435931146145, 0.06740634888410568, -0.039110392332077026, -0.054091017693281174, 0.06849328428506851, 0.041205503046512604, -0.033222366124391556, 0.28949177265167236, 0.0852387398481369, -0.026077983900904655, 0.023129945620894432, -0.2167843133211136, -0.13879446685314178, -0.07722766697406769], [0.022560834884643555, 0.3023759722709656, -0.061979517340660095, 0.022457139566540718, 0.022359676659107208, -0.01990683563053608, 0.026254264637827873, 0.1715559959411621, 0.03591495007276535, 0.014560951851308346, 0.043102651834487915, -0.09238231927156448, -0.10573229938745499, 0.011500547640025616], [0.02527155913412571, 0.2746725082397461, -0.02559809200465679, -0.010052701458334923, -0.004262184724211693, 0.006995787378400564, 0.017320290207862854, 0.15383780002593994, -0.002218191511929035, 0.022367479279637337, -0.0277443528175354, -0.0643041655421257, -0.13365960121154785, -0.039692118763923645], [0.09201810508966446, 0.07381604611873627, -0.02506967820227146, -0.13315828144550323, 0.06706471741199493, 0.012676437385380268, -0.0860997885465622, -0.008345430716872215, 0.04247978702187538, 0.04326163977384567, 0.030982431024312973, -0.22870424389839172, -0.04298879951238632, 0.15445257723331451], [-0.014085697010159492, 0.1714756190776825, -0.03691186010837555, 0.009629156440496445, 0.033581461757421494, 0.006651895120739937, 0.04342622309923172, 0.28634214401245117, -0.010623013600707054, 0.004771986044943333, 0.04942717403173447, -0.042805206030607224, 0.022126050665974617, 0.07323651760816574], [0.06438857316970825, 0.04776173084974289, 0.0062851253896951675, 0.133427232503891, 0.058612432330846786, 0.054087381809949875, -0.1130724623799324, 0.27652183175086975, -0.004655861761420965, 0.008643028326332569, 0.10108338296413422, -0.12795579433441162, -0.13444440066814423, -0.08728926628828049], [0.05168857052922249, 0.08075904101133347, 0.0732887014746666, 0.15630586445331573, 0.08070896565914154, 0.03568943589925766, 0.027778172865509987, 0.2371765673160553, 0.06004491448402405, -0.08199583739042282, -0.01654917746782303, -0.14141221344470978, -0.04641694203019142, -0.023611249402165413], [-0.017817422747612, 0.18040865659713745, -0.06945871561765671, 0.07565873116254807, -0.0013436463195830584, -0.006299258209764957, -0.048004329204559326, 0.33319610357284546, 0.08957163989543915, -0.013117222115397453, 0.11821378022432327, -0.10472586750984192, -0.15918265283107758, -0.13754524290561676], [0.004901423119008541, 0.09952827543020248, 0.06694934517145157, 0.05613413825631142, 0.03931807354092598, 0.03374522551894188, 0.05512285605072975, -0.08728624880313873, 0.020799264311790466, 0.027286836877465248, -0.03943745046854019, -0.17414698004722595, 0.18745094537734985, -0.18642286956310272], [0.0015613283030688763, -0.10399135202169418, 0.03271360695362091, 0.07517159730195999, -0.013099389150738716, 0.04096590355038643, 0.05269414931535721, 0.3489384055137634, -0.03825563192367554, -0.01599946990609169, 0.027002720162272453, -0.002374271396547556, -0.020366013050079346, -0.014550390653312206], [0.042734045535326004, -0.0468345507979393, 0.109078548848629, 0.10128140449523926, 0.08566710352897644, 0.037325937300920486, 0.06374290585517883, 0.2869592607021332, -0.019860872998833656, 0.017532311379909515, -0.094770148396492, -0.07405416667461395, 0.12155801057815552, 0.1312602013349533], [0.01380122359842062, -0.012421972118318081, -0.029935546219348907, 0.0918232649564743, 0.008624663576483727, 0.0229799821972847, -0.02062905952334404, -0.054602429270744324, -0.0115286810323596, -0.007130882237106562, 0.020725708454847336, -0.0316120982170105, 0.1790878176689148, -0.2128731608390808], [0.1126873716711998, 0.04869503900408745, 0.08110364526510239, 0.06735823303461075, -0.01886752061545849, -0.018747391179203987, 0.06695237755775452, 0.29019632935523987, -0.05923919379711151, 0.061892490833997726, -0.022727929055690765, -0.055528849363327026, -0.09437210857868195, -0.10158078372478485], [-0.0059928311966359615, -0.025475574657320976, 0.09298509359359741, 0.06266874819993973, -0.034389298409223557, 0.06456640362739563, 0.035912394523620605, 0.2995864152908325, -0.0016450951807200909, 0.1046224981546402, -0.031043902039527893, -0.14230802655220032, -0.04097650572657585, -0.020831061527132988], [0.018131785094738007, 0.16157661378383636, 0.02198195457458496, -0.09078368544578552, 0.034453168511390686, 0.0012428169138729572, -0.008174046874046326, 0.2418852597475052, 0.04842842370271683, 0.02149253524839878, 0.06424786150455475, -0.24674668908119202, -0.1319020837545395, -0.082802414894104], [-0.003023002529516816, 0.020637040957808495, -0.06436963379383087, 0.012936225160956383, 0.021235447376966476, -0.0127449631690979, -0.009570067748427391, 0.010546558536589146, -0.01971816085278988, 0.011967754922807217, 0.043015070259571075, -0.0029422270599752665, 0.18022441864013672, -0.22679738700389862], [-0.021614709869027138, -0.03254629671573639, -0.10123985260725021, -0.04959295317530632, 0.05587846785783768, -0.015554852783679962, -0.04188426211476326, 0.3626343905925751, -0.014784767292439938, 0.007675813511013985, 0.0885353833436966, -0.12696073949337006, -0.0008486229926347733, 0.017020730301737785], [0.11855147033929825, 0.002829232718795538, 0.08054812252521515, 0.07644832879304886, 0.061253055930137634, -0.013668324798345566, -0.02829088270664215, 0.2361077517271042, 0.0022308952175080776, 0.11168627440929413, 0.02787245251238346, -0.15312699973583221, 0.027828654274344444, 0.07111762464046478], [0.054582882672548294, -0.005435209721326828, 0.011840992607176304, 0.17291899025440216, 0.020045584067702293, -0.017645755782723427, 0.08001074939966202, 0.26823094487190247, 0.025926483795046806, 0.07129799574613571, 0.013627282343804836, -0.16660979390144348, -0.08813802152872086, -0.051946207880973816], [0.030584095045924187, 0.2206353098154068, 0.03721507638692856, -0.12505219876766205, 0.03476984426379204, 0.0694333091378212, 0.028822720050811768, 0.07082980871200562, -0.027595141902565956, 0.041758228093385696, -0.0360451303422451, -0.23017872869968414, -0.03287283331155777, -0.13774356245994568], [0.005470257718116045, 0.30167505145072937, -0.021107925102114677, -0.005696273408830166, -0.001632641302421689, 0.02649207040667534, 0.017420606687664986, -0.03116687946021557, -0.013247638940811157, 0.02979218028485775, -0.07928247004747391, 0.10253963619470596, -0.09179266542196274, 0.03494783118367195], [0.013850894756615162, 0.11371104419231415, 0.04948841407895088, 0.03192542865872383, -0.0034106664825230837, 0.045091453939676285, 0.05705217644572258, -0.025275658816099167, 0.0017452416941523552, 0.013533400371670723, -0.04505930468440056, -0.10304725915193558, 0.23646579682826996, -0.1925012618303299], [0.032923921942710876, 0.15587857365608215, -0.023462550714612007, 0.020330319181084633, -0.041766583919525146, -0.002985006431117654, 0.047576725482940674, 0.32704833149909973, 0.026259396225214005, 0.052763111889362335, 0.08924777805805206, -0.042046528309583664, 0.10379255563020706, 0.08959215879440308], [0.10781306028366089, 0.12214597314596176, -0.045750945806503296, 0.03147479146718979, 0.08838675916194916, 0.008081978186964989, -0.006875237915664911, 0.2782736122608185, 0.025867832824587822, 0.01827394776046276, 0.027027307078242302, -0.15164992213249207, 0.10815534740686417, 0.11665336787700653], [0.013959504663944244, 0.021813493221998215, 0.19271869957447052, 0.05371733754873276, 0.052327774465084076, 0.04267134144902229, 0.038683678954839706, 0.2162906378507614, 0.018919840455055237, 0.02618592418730259, -0.009347289800643921, -0.14172238111495972, 0.15743395686149597, 0.2161499261856079], [-0.04767230898141861, 0.06627427041530609, 0.04016854614019394, 0.07326807081699371, 0.043430112302303314, 0.0011699862079694867, -0.051582325249910355, 0.2568286955356598, -0.00916251540184021, 0.10345983505249023, 0.022945811972022057, -0.2517354190349579, -0.03935766592621803, -0.01327664963901043], [0.028775379061698914, 0.018013041466474533, -0.014076072722673416, 0.017721563577651978, -0.022266311571002007, 0.00634735869243741, -0.010894948616623878, -0.0357595756649971, 0.024327322840690613, 0.030311426147818565, 0.0068935309536755085, -0.0602942556142807, 0.1905217468738556, -0.2179725021123886], [-0.03704710304737091, -0.019689133390784264, -0.03468308225274086, 0.1911390721797943, 0.06554215401411057, 0.011256472207605839, -0.0198622178286314, 0.16444507241249084, 0.07759680598974228, 0.04468623548746109, 0.051617030054330826, -0.16198140382766724, -0.03208184242248535, 0.038816023617982864], [-0.05657261982560158, 0.14218173921108246, -0.016983989626169205, -0.05759303271770477, -0.004466179758310318, -0.031888123601675034, -0.03625507652759552, 0.35610413551330566, -0.01562660187482834, -0.03698396682739258, -0.001793387345969677, 0.07753971964120865, -0.12214163690805435, -0.08766458928585052], [-0.003494737669825554, 0.00016220530960708857, 0.07472459971904755, -0.043016813695430756, 0.08113114535808563, -0.002923353109508753, -0.03544183447957039, 0.2734425663948059, 0.09587779641151428, -0.027211956679821014, -0.014208959415555, -0.09074007719755173, 0.11252961307764053, 0.11414193361997604], [-0.028600361198186874, 0.2863313853740692, 0.05672573670744896, 0.03866931051015854, 0.04590266942977905, -0.0345488078892231, 0.08998343348503113, 0.17519238591194153, 0.01540807168930769, 0.002859999192878604, -0.06282248347997665, -0.12533257901668549, 0.04954947531223297, 0.11096867173910141], [-0.01782258041203022, -0.021929247304797173, -0.021670274436473846, 0.006255578249692917, 0.002487578894942999, -0.005877845920622349, -0.028167560696601868, 0.04636656865477562, -0.00011325208470225334, 0.008272197097539902, 0.0304279625415802, 0.0025833589024841785, 0.222471684217453, -0.1835012286901474], [0.14944201707839966, 0.033877722918987274, -0.10942268371582031, 0.03389091417193413, 0.04190893471240997, 0.04481012746691704, -0.0419260673224926, 0.08604590594768524, -0.03473549336194992, 0.08446218818426132, 0.08930502831935883, -0.18270038068294525, 0.015731340274214745, 0.1480562388896942], [0.023264218121767044, -0.005990316160023212, 0.008653647266328335, 0.17647965252399445, -0.00016279093688353896, 0.046043045818805695, -0.016173597425222397, 0.22196057438850403, 0.04298388585448265, -0.007911443710327148, 0.05849607661366463, -0.15087184309959412, 0.02647450380027294, 0.05104798823595047], [0.026812417432665825, 0.10090712457895279, -0.024627909064292908, 0.1700216680765152, -0.034601159393787384, 0.05426745489239693, -0.05190100148320198, 0.22038187086582184, 0.07273213565349579, -0.0172022245824337, 0.0002135958638973534, -0.21532288193702698, 0.1999160796403885, 0.20618687570095062], [0.014271372929215431, -0.03012288361787796, -0.02675493434071541, -0.013152634724974632, -0.022457141429185867, 0.018364552408456802, -0.026362676173448563, -0.2208685278892517, 0.01710192672908306, -0.0051955049857497215, 0.021085994318127632, 0.06610037386417389, 0.1110764890909195, 0.048451993614435196], [0.014448357746005058, -0.005601586773991585, -0.000931735266931355, -0.022942259907722473, -0.05934467539191246, 0.02756643295288086, -0.01581285148859024, -0.18463969230651855, -0.0073454249650239944, 0.003481730353087187, -0.04854142293334007, 0.1125466451048851, 0.04602282494306564, -0.030051155015826225], [0.04075532406568527, -0.08937738090753555, -0.03595433011651039, -0.050088606774806976, 0.05778190866112709, -0.04902004078030586, -0.19316942989826202, 0.19949467480182648, 0.07594948261976242, 0.12751317024230957, 0.0035278606228530407, -0.010692205280065536, -0.1388154923915863, 0.0006658716592937708], [0.001971934689208865, -0.023341672495007515, -0.02714144065976143, -0.016168558970093727, -0.010175034403800964, 0.026761364191770554, -0.02783065289258957, -0.2169756293296814, 0.014364671893417835, 0.005286132916808128, 0.001718353945761919, 0.08026430755853653, -0.00406235596165061, -0.08958516269922256], [-0.014032289385795593, 0.15667207539081573, -0.03277968242764473, -0.005964977201074362, 0.0031485166400671005, 0.040225449949502945, 0.004493842367082834, 0.1833852231502533, 0.07881203293800354, 0.030627800151705742, 0.05658337101340294, -0.3138924539089203, 0.041161973029375076, 0.02785426564514637], [0.029590189456939697, 0.16507788002490997, -0.08982599526643753, -0.1509014368057251, 0.055792223662137985, 0.057828888297080994, -0.02442670240998268, 0.004346256144344807, 0.06681913137435913, 0.0340595506131649, 0.10838337242603302, -0.2508237659931183, -0.06788741797208786, 0.08574029803276062], [0.042914241552352905, -0.2175290286540985, 0.09319254755973816, 0.0994696244597435, 0.0048961397260427475, 0.04784322902560234, 0.0066140941344201565, 0.2368517965078354, 0.039604995399713516, 0.018868044018745422, -0.050043828785419464, -0.1128050833940506, -0.08809544146060944, 0.02943016029894352], [0.06909581273794174, 0.05022219568490982, -0.03317594900727272, 0.061480917036533356, -0.07928472012281418, 0.03708510473370552, 0.14347077906131744, -0.018446674570441246, 0.1418326497077942, 0.15957872569561005, -0.03394612669944763, -0.10327896475791931, -0.12083218991756439, 0.0351824052631855], [0.034620001912117004, 0.06369777023792267, -0.022032110020518303, -0.12492500990629196, 0.009909295476973057, 0.043286316096782684, -0.0618528388440609, 0.3007412850856781, 0.04073892906308174, -0.023184657096862793, 0.06756560504436493, -0.08084451407194138, -0.10888350009918213, -0.1001591831445694], [0.00419464148581028, 0.0065179564990103245, 0.0026448597200214863, 0.20076346397399902, 0.00203158101066947, 0.004649115726351738, -0.04219236969947815, 0.2648314833641052, 0.022088278084993362, 0.01664625108242035, 0.0253100898116827, -0.01688104309141636, -0.01388666220009327, 0.03843812271952629], [0.03227674961090088, 0.013100195676088333, -0.0148765929043293, -0.0820070430636406, 0.09801580011844635, -0.005163024179637432, 0.019515538588166237, 0.26831310987472534, 0.01295943558216095, 0.03261445835232735, 0.01476395595818758, -0.1856193095445633, -0.009313822723925114, 0.009189797565340996], [-0.0006985057843849063, -0.016007233411073685, -0.0720440074801445, -0.018392086029052734, -0.07992911338806152, 0.0013270893832668662, 0.12367591261863708, 0.2902010679244995, -0.011630303226411343, -0.06165214255452156, 0.047098495066165924, 0.06723292917013168, -0.09717186540365219, -0.05035509169101715], [0.019044294953346252, 0.14135757088661194, -0.025841286405920982, 0.17212143540382385, 0.015107208862900734, 0.0910424068570137, 0.10704958438873291, 0.21526959538459778, 0.026178935542702675, 0.04937911033630371, 0.0674503818154335, -0.19822774827480316, -0.08263333141803741, -0.06842171400785446], [0.005288058891892433, -0.013071570545434952, -0.026141054928302765, -0.01961716264486313, -0.03434048220515251, 0.026109162718057632, -0.033320922404527664, -0.1884090155363083, 0.03919048234820366, -0.03034432791173458, 0.006837810389697552, 0.10750912129878998, 0.045760609209537506, -0.07500944286584854], [0.010423175990581512, 0.20804399251937866, 0.024828502908349037, 0.07676923274993896, -0.029106682166457176, 0.09067586064338684, 0.08474307507276535, 0.08633008599281311, -0.023930318653583527, 0.17615947127342224, 0.03283793106675148, 0.04382527992129326, -0.11096566915512085, 0.0704948753118515], [0.001833771588280797, -0.04810670390725136, -0.15684640407562256, -0.03504664823412895, -0.02061464451253414, 0.0038025022950023413, 0.029771538451313972, 0.07700479030609131, 0.017706813290715218, 0.07741689682006836, 0.009273477829992771, -0.2108689248561859, -0.045795466750860214, 0.060850344598293304], [-0.015716321766376495, -0.096076101064682, 0.08017658442258835, 0.05776219442486763, 0.08254282921552658, 0.03208041563630104, 0.03295065462589264, 0.20536406338214874, 0.05404941737651825, 0.029047410935163498, -0.019745541736483574, -0.19596096873283386, 0.020490290597081184, 0.06882578134536743], [-0.011397470720112324, -0.022099418565630913, -0.020634260028600693, -0.044083353132009506, -0.01919001340866089, -0.0008319494081661105, -0.006294247694313526, 0.09375220537185669, -0.0032961955294013023, 0.0021283249370753765, 0.003946258220821619, 0.08257410675287247, 0.21048729121685028, -0.21566016972064972], [0.045290857553482056, 0.06960558891296387, 0.01746411621570587, -0.046557359397411346, 0.02931980788707733, 0.06254449486732483, 0.10722267627716064, 0.18816599249839783, 0.09304848313331604, 0.09091904014348984, 0.0570775642991066, -0.2781209647655487, -0.077022984623909, -0.09709395468235016], [0.008748847991228104, 0.043766845017671585, -0.05121902376413345, 0.2233290821313858, -0.06383351981639862, 0.02552221715450287, 0.008321604691445827, 0.16141225397586823, 0.036802202463150024, -0.006032625678926706, 0.056607045233249664, -0.003276495961472392, 0.011269706301391125, 0.13534994423389435], [0.05142931267619133, -0.04968876764178276, -0.020645681768655777, -0.045928798615932465, 0.027204478159546852, 0.04768864065408707, 0.036998193711042404, 0.347025066614151, -0.0354786217212677, 0.028202803805470467, -0.0757594034075737, 0.023673055693507195, -0.050782863050699234, -0.02819450944662094], [-0.0010704706655815244, -0.07490663230419159, 0.024019181728363037, 0.09763966500759125, 0.07492749392986298, 0.040739912539720535, 0.08707436919212341, 0.2604580819606781, -0.027889393270015717, 0.03928110748529434, -0.038552913814783096, -0.27178919315338135, 0.019679972901940346, 0.029746299609541893], [-0.022303951904177666, -0.07501882314682007, 0.12403158098459244, 0.0388360358774662, 0.039462652057409286, -0.008144333027303219, -0.03930186107754707, 0.2724803388118744, 0.05416424199938774, 0.02471005916595459, -0.037335556000471115, -0.10133754462003708, -0.07367882877588272, -0.09362555295228958], [0.00800201203674078, -0.037950724363327026, -0.01898454688489437, -0.04517222195863724, -0.05053666979074478, 0.003710813820362091, -0.043984346091747284, -0.19037285447120667, 0.007897460833191872, -0.002215856220573187, -0.03953805938363075, 0.14440925419330597, 0.03776564821600914, -0.0514860637485981], [0.03550945222377777, 0.02455514296889305, -0.05884294956922531, 0.06925017386674881, 0.07714582234621048, 0.06105929613113403, 0.1678168922662735, 0.2536472678184509, 0.040984515100717545, -0.008590164594352245, 0.022397281602025032, -0.11405281722545624, 0.009341494180262089, 0.040488652884960175], [-0.030973628163337708, -0.004566114395856857, -0.03121255151927471, -0.04037048667669296, 0.00017466348072048277, -0.006152474787086248, -0.033618539571762085, 0.0709746778011322, -0.01937190070748329, 0.008031887002289295, 0.011614463292062283, 0.07645733654499054, 0.2123633176088333, -0.18553465604782104], [0.01959899812936783, 0.00646378006786108, -0.038327090442180634, 0.19434641301631927, 0.02355361357331276, 0.008440399542450905, -0.016982872039079666, 0.3521774113178253, 0.007610610220581293, -0.0003109196259174496, 0.013611461967229843, 0.014250058680772781, -0.041213929653167725, -0.0032064742408692837], [-0.040919192135334015, 0.029721662402153015, 0.028217623010277748, 0.0814037024974823, 0.03999926894903183, -0.0009529583039693534, -0.021412240341305733, 0.356906533241272, -0.03485424071550369, 0.013996394351124763, -0.09860052168369293, 0.01438108365982771, -0.011548995971679688, -0.00419131712988019], [0.023079194128513336, 0.1146143227815628, 0.1124880462884903, -0.06568888574838638, 0.1628769487142563, 0.05216166377067566, 0.012793980538845062, 0.29332777857780457, 0.0035221450962126255, 0.06903073191642761, -0.05140431225299835, -0.18688036501407623, 0.09372471272945404, 0.13262327015399933], [0.07530149817466736, 0.15406961739063263, -0.0894433856010437, 0.0451747290790081, -0.08219637721776962, 0.0524144172668457, -0.0035221560392528772, -0.12552183866500854, -0.012294714339077473, 0.07123338431119919, 0.037127599120140076, 0.0836205929517746, -0.11547978967428207, -0.04519794508814812], [-0.08652069419622421, 0.10204283148050308, 0.08548586070537567, 0.02311861887574196, -0.005712883081287146, 0.04038342460989952, -0.01465477142482996, 0.3508301377296448, -0.027346577495336533, -0.030539847910404205, -0.015717489644885063, -0.020750388503074646, -0.17591136693954468, -0.16035917401313782], [0.06505412608385086, 0.13601116836071014, 0.04569355770945549, -0.058640915900468826, 0.006781390868127346, 0.03511892631649971, 0.06289589405059814, 0.24599264562129974, -0.028801556676626205, 0.0411839485168457, -0.005715816747397184, -0.09336268156766891, -0.08341731876134872, -0.058971285820007324], [-0.02762562222778797, 0.30438753962516785, 0.10946888476610184, -0.02956012822687626, -0.07003306597471237, 0.027262361720204353, -0.08300655335187912, 0.10987475514411926, 0.08328466862440109, -0.02429933287203312, -0.03320169448852539, -0.07923367619514465, -0.10948865115642548, 0.01709945686161518], [0.04883943125605583, 0.15867231786251068, 0.047010283917188644, -0.14214354753494263, 0.07550385594367981, 0.025117401033639908, -0.04946522414684296, -0.04986867308616638, 0.08948802202939987, 0.04416029900312424, -0.023360753431916237, 0.06552429497241974, -0.0688767358660698, -0.034016940742731094], [0.07668615132570267, 0.11473727971315384, 0.04780041426420212, -0.049797218292951584, 0.018708111718297005, 0.04115897789597511, 0.03059869259595871, 0.1805228739976883, 0.04662360996007919, 0.05598519369959831, 0.05343802273273468, -0.27674591541290283, 0.027980562299489975, 0.04872554540634155], [0.014600813388824463, -0.0824555829167366, -0.14674320816993713, 0.1459507793188095, -0.07151395082473755, 0.10227617621421814, -0.04410815238952637, 0.15864069759845734, 0.0714162066578865, 0.035615306347608566, 0.07958725094795227, -0.14297997951507568, 0.017591994255781174, 0.15251046419143677], [-0.019405238330364227, -0.04505348205566406, -0.07165873795747757, -0.05868808925151825, -0.05713371932506561, -0.01517978124320507, -0.06752278655767441, 0.05609270930290222, -0.005224812775850296, 0.03220542147755623, 0.017581749707460403, 0.15201573073863983, 0.13862088322639465, -0.24526020884513855], [0.03202696889638901, 0.06360864639282227, 0.00239788880571723, 0.15563265979290009, 0.06302584707736969, -0.009604271501302719, -0.03272313252091408, 0.2883555293083191, 0.023523667827248573, 0.03204532340168953, -0.03674597665667534, -0.12486173957586288, -0.011003315448760986, 0.019801482558250427], [0.053104884922504425, 0.17393292486667633, 0.08273960649967194, 0.07324407994747162, 0.027323788031935692, 0.032363977283239365, -0.014920794405043125, 0.23162826895713806, 0.0021884492598474026, -0.019447259604930878, 0.05307476595044136, -0.1513315886259079, -0.19983191788196564, -0.18002501130104065], [-0.021866638213396072, 0.07676874101161957, -0.04759093001484871, 0.21498367190361023, 0.030231744050979614, 0.026656998321413994, -0.05945518612861633, 0.23695601522922516, 0.022766059264540672, -0.020682519301772118, -0.020662657916545868, -0.027319006621837616, -0.18339844048023224, -0.06969831138849258], [0.20747287571430206, 0.06842628121376038, 0.09825005382299423, 0.10712907463312149, 0.06246013194322586, 0.06688560545444489, -0.1294088512659073, 0.13435401022434235, 0.07341586798429489, 0.016757311299443245, -0.07094108313322067, -0.08416929095983505, -0.15483587980270386, 0.017409536987543106], [-0.007859662175178528, -0.011021625250577927, 0.01636468805372715, 0.18626825511455536, 0.012473243288695812, -0.006294486578553915, -0.028678568080067635, 0.26491615176200867, 0.004614818375557661, -0.012008736841380596, -0.0054386574774980545, -0.008306518197059631, 0.07678159326314926, 0.14827784895896912], [-0.041212450712919235, -0.05152272433042526, -0.0020287407096475363, 0.13517525792121887, -0.04818735644221306, -0.029337363317608833, 0.18213368952274323, 0.26930496096611023, 0.11216823011636734, 0.07394993305206299, -0.0402618870139122, -0.025925956666469574, -0.041520144790410995, 0.07513496279716492], [0.0019219021778553724, 0.03341120481491089, -0.06495223939418793, 0.2953900396823883, -0.02742263674736023, -0.016251014545559883, -0.0390612855553627, 0.16449609398841858, 0.01346879918128252, 0.05353608354926109, 0.0944938138127327, -0.038977883756160736, 0.07640255987644196, 0.19484305381774902], [0.011269793845713139, -0.014284512028098106, -0.001365186762996018, -0.007902318611741066, -0.0016584141412749887, 0.03299291804432869, -0.01830245926976204, -0.23880280554294586, 0.02760111540555954, 0.015277817845344543, -0.04151781275868416, 0.03145194053649902, 0.07903443276882172, -0.01522247213870287], [0.0020199015270918608, 0.05484689772129059, 0.07541059702634811, 0.07339625805616379, 0.026588795706629753, 0.023595238104462624, 0.033495016396045685, -0.07343488931655884, 0.04947707802057266, 0.030633464455604553, -0.03283104673027992, -0.14074456691741943, 0.2008693963289261, -0.18196313083171844], [-0.004590880125761032, -0.004878233652561903, -0.012844812124967575, -0.016955865547060966, -0.009621976874768734, 0.0039495788514614105, -0.01755446009337902, 0.07756131142377853, -0.029348881915211678, -0.01497677806764841, -0.010957488790154457, 0.1045260950922966, 0.1859092116355896, -0.19907434284687042], [-0.006569163408130407, -0.05038897693157196, 0.08469010144472122, -0.05819615721702576, 0.04023852199316025, 0.01881326735019684, -0.01377151533961296, 0.31300535798072815, 0.08441445976495743, 0.0036317799240350723, 0.009239635430276394, -0.11349069327116013, -0.053870026022195816, -0.10009230673313141], [0.007045060861855745, -0.0029478762298822403, 0.005755665712058544, 0.024974947795271873, -0.03356074541807175, -0.0009128223173320293, 0.01722109131515026, -0.060098253190517426, -0.010048347525298595, 0.011477780528366566, -0.0004841567133553326, -0.04334656894207001, 0.23099443316459656, -0.18218405544757843], [-0.0030776828061789274, 0.04256635159254074, 0.055892422795295715, 0.024674437940120697, -0.0003607630787882954, 0.020260201767086983, 0.01175815798342228, 0.0036044842563569546, 0.023550324141979218, 0.028641996905207634, -0.0053068106062710285, -0.02706819213926792, 0.1898064911365509, -0.2055889517068863], [-0.05772971734404564, 0.15869320929050446, 0.0682496502995491, -0.012989050708711147, 0.0052986061200499535, 0.023188820108771324, 0.059521570801734924, 0.27342844009399414, -0.0518888384103775, -0.014969853684306145, -0.043529000133275986, -0.07447735965251923, -0.01124368142336607, -0.0024167150259017944], [-0.004527444951236248, -0.042062412947416306, -0.0017102367710322142, 0.04654323309659958, 0.05223575979471207, 0.07527360320091248, -0.10252499580383301, 0.01061839796602726, 0.17850185930728912, 0.05643951892852783, -0.0735248252749443, -0.046119511127471924, -0.0025459835305809975, 0.1805579662322998], [0.003584233345463872, 0.0757591724395752, 0.10776276886463165, 0.11296093463897705, 0.0027230768464505672, -0.006852025631815195, 0.07902531325817108, 0.21970710158348083, 0.032558031380176544, -0.025559356436133385, -0.03816765174269676, -0.23434095084667206, 0.05651480704545975, 0.08346447348594666], [0.01918181963264942, 0.14710325002670288, 0.06904354691505432, 0.07615924626588821, -0.023353442549705505, -0.0395338274538517, -0.03991292417049408, 0.3617294728755951, 0.0629415214061737, 0.014685075730085373, -0.01094893179833889, -0.06841804832220078, 0.004794843029230833, -0.0013689014595001936]], "fc1.bias": [8.488616458635079e-07, -5.634322519654233e-07, 1.8736435549726593e-06, -4.1238519088437897e-07, 8.007123142306227e-08, 1.0747785381681751e-06, 8.182992132788058e-07, 1.3029352885496337e-06, -1.5675659881253523e-07, -6.660410690528806e-06, -8.522036296199076e-06, -1.4482361621048767e-07, 1.0976971225318266e-06, -3.356608431204222e-07, -2.5450822249695193e-06, -1.817179622776166e-06, -1.5407454156957101e-06, 2.3182501251994836e-07, -8.666684720992635e-07, -1.5099590200406965e-07, 1.908249487314606e-06, -1.5244525002344744e-06, 1.2203200867588748e-06, 5.85675707043265e-06, 5.581894129136344e-07, -7.980755981407128e-06, 2.895103989430936e-06, 3.4685047012317227e-07, 2.4492289867339423e-06, 2.447185920573247e-07, 4.3345119138393784e-07, -2.073957148240879e-06, -5.942788448010106e-07, 1.1772181096603163e-05, -3.3879555303428788e-06, -1.6131194797708304e-06, -1.7203935840370832e-06, 1.6845106642904284e-07, 7.402734354400309e-07, -1.6182418676180532e-06, -2.0311888420110336e-06, -6.445295639423421e-07, 1.4799159089307068e-06, -4.9028199100575875e-06, -1.9345434338902123e-06, 8.292171514767688e-06, 4.441530563781271e-06, 2.066650949927862e-06, 4.31116404797649e-07, -5.343836164684035e-07, 4.0857059957488673e-07, -3.2440293580293655e-05, 3.581831606425112e-06, 5.977042860649817e-08, 3.998375461833348e-07, 3.847461016448506e-09, -1.9357530618435703e-06, 1.5682962839491665e-06, -8.512958515893843e-08, 1.4905737089065951e-06, -6.812623496443848e-07, 9.499217412667349e-09, -7.944859135022853e-07, 2.3862789021222852e-05, 2.5335928512504324e-05, -1.7537308849568944e-07, -2.2446710090662236e-07, 1.8396638097328832e-06, -6.349362706714601e-07, 5.01277554576518e-06, 1.6426912452516262e-07, -1.5007639149189345e-06, -3.302430968687986e-06, -2.0434169982763706e-06, -3.7560371879408194e-07, -3.1805523121875012e-06, -3.069754370699229e-07, 7.024142178124748e-06, 1.265681021322962e-06, -4.719954631582368e-06, 7.50973811136646e-07, 3.375029677954444e-07, 1.1333384009049041e-08, 2.2901879219716648e-06, 1.554542166104511e-07, 3.022321379830828e-06, 1.2374398465908598e-06, 4.89902504341444e-07, 9.73352143773809e-07, -2.7444502848084085e-07, 6.2772851379122585e-06, -8.197740726245684e-07, -3.731449169208645e-06, -3.172711558363517e-06, 1.4752133665751899e-06, 4.510005965130404e-06, 3.6403234844328836e-06, 5.903959390707314e-06, 1.4667734831164125e-06, 3.282282705185935e-06, -8.556883130950155e-07, -2.4226828827522695e-06, -3.58047100235126e-06, -1.8147807168134023e-07, 3.2708697972338996e-08, -2.2562621779798064e-06, -2.529465348288795e-07, 1.839954677507194e-07, 3.347778942952573e-08, -1.519794636806182e-06, -7.660513290375093e-08, 3.3849931924123666e-07, 4.4554129999596626e-05, 5.448437718769128e-07, -1.0050659966509556e-06, -1.6708645489416085e-06, 7.853763236198574e-06, 7.152366379159503e-07, 6.946008852537489e-07, 1.2300315574975684e-06, -9.797385018828209e-07, -1.9458461792964954e-06, -9.343488613922091e-07, 8.569278406866943e-07, -3.916392870451091e-06, 4.037216058350168e-06, -1.1265754551459395e-07, 1.3691683307115454e-06], "bn1.weight": [0.5864784121513367, 0.5002871155738831, 0.702919602394104, 0.6340416669845581, 0.5420929789543152, 0.689264178276062, 0.6034589409828186, 0.5113063454627991, 0.4842793345451355, 0.6042363047599792, 0.8160770535469055, 0.5500549077987671, 0.7086146473884583, 0.7064094543457031, 0.7433426380157471, 0.6797491312026978, 0.81831955909729, 0.6007680892944336, 0.4711760878562927, 0.36392873525619507, 0.6336545944213867, 0.6543927788734436, 0.7187269330024719, 0.8252646923065186, 0.7866176962852478, 0.8146412372589111, 0.6118998527526855, 0.6026291251182556, 0.4090750217437744, 0.6091228127479553, 0.6492026448249817, 0.8196694850921631, 0.6600371599197388, 0.6982156038284302, 0.4910397231578827, 0.7054543495178223, 0.5279695987701416, 0.6884240508079529, 0.597352147102356, 0.8036084175109863, 0.6921114921569824, 0.5728441476821899, 0.5025997161865234, 0.810431718826294, 0.8153605461120605, 0.7800249457359314, 0.8025545477867126, 0.5925174355506897, 0.8133206367492676, 0.7687172293663025, 0.40692442655563354, 0.7112835645675659, 0.7034989595413208, 0.8211153745651245, 0.5241577625274658, 0.7832520008087158, 0.6897627711296082, 0.6286404132843018, 0.6128490567207336, 0.4485926330089569, 0.58195960521698, 0.7788223028182983, 0.805720865726471, 0.7776948809623718, 0.7742036581039429, 0.5236487984657288, 0.6028309464454651, 0.6648514270782471, 0.8016177415847778, 0.6440045237541199, 0.6401861310005188, 0.4901438057422638, 0.766069769859314, 0.8159242868423462, 0.2445182502269745, 0.29300400614738464, 0.5499153137207031, 0.27072688937187195, 0.725630521774292, 0.5558679699897766, 0.6801642179489136, 0.43099910020828247, 0.7125791311264038, 0.6429843306541443, 0.7205536961555481, 0.566356360912323, 0.8065579533576965, 0.2239086776971817, 0.5039821267127991, 0.5439662337303162, 0.7569133043289185, 0.6667509078979492, 0.7137017846107483, 0.5503575801849365, 0.8294523358345032, 0.7880028486251831, 0.6590890884399414, 0.24759875237941742, 0.7787858843803406, 0.5302319526672363, 0.7957802414894104, 0.8104143738746643, 0.8018204569816589, 0.3623749613761902, 0.8085145354270935, 0.8169108033180237, 0.5034487247467041, 0.21857383847236633, 0.7566150426864624, 0.4916447401046753, 0.2895119786262512, 0.6978915333747864, 0.8227011561393738, 0.6181951761245728, 0.6075493693351746, 0.5930137038230896, 0.6599674820899963, 0.6717621088027954, 0.2374895066022873, 0.6374711394309998, 0.5429183840751648, 0.6598416566848755, 0.4211777448654175, 0.5846874713897705, 0.639008641242981, 0.10220173001289368, 0.6793151497840881, 0.7437695264816284], "bn1.bias": [0.20388898253440857, 0.10424038767814636, 0.18581214547157288, 0.11548707634210587, 0.14644668996334076, 0.15227782726287842, 0.13575682044029236, 0.2400597780942917, 0.11021696031093597, 0.19622275233268738, 0.1429610252380371, 0.1298418492078781, 0.11323326081037521, 0.1523735523223877, 0.13709671795368195, 0.05132264643907547, 0.05972636863589287, 0.13560381531715393, 0.1602361798286438, 0.12608863413333893, 0.10445521026849747, 0.20205315947532654, 0.10278183221817017, 0.07515052706003189, 0.11638922989368439, 0.14571252465248108, 0.20847783982753754, 0.18856199085712433, 0.2571457028388977, 0.21605153381824493, 0.17894133925437927, 0.09851400554180145, 0.07697943598031998, 0.12108679860830307, 0.20009511709213257, 0.05477532744407654, 0.1926182359457016, 0.1750892996788025, 0.08909369260072708, 0.06819257140159607, 0.14336317777633667, 0.19709159433841705, 0.1487753987312317, 0.05304708331823349, 0.10861752927303314, 0.1288325935602188, 0.0680379793047905, 0.23286548256874084, 0.11125154048204422, 0.12964990735054016, 0.22149558365345, 0.16530673205852509, 0.03729690983891487, 0.134530171751976, 0.14526133239269257, 0.0912533551454544, 0.08176577836275101, 0.19037078320980072, 0.18445371091365814, 0.22501355409622192, 0.1946573108434677, 0.17431606352329254, 0.1378965973854065, 0.07529912143945694, 0.0996580719947815, 0.17542099952697754, 0.08392919600009918, 0.14691995084285736, 0.08133167773485184, 0.22134865820407867, 0.19518570601940155, 0.1852346807718277, 0.06870035827159882, 0.07409166544675827, 0.21213306486606598, 0.20143018662929535, 0.2273760586977005, 0.21606071293354034, 0.20530879497528076, 0.23560740053653717, 0.1847689002752304, 0.1833563894033432, 0.169584721326828, 0.1307438462972641, 0.16215279698371887, 0.10506582260131836, 0.09087168425321579, 0.24714137613773346, 0.22065302729606628, 0.09906892478466034, 0.11453302949666977, 0.1950942575931549, 0.15066592395305634, 0.12911775708198547, 0.10883279889822006, 0.11747239530086517, 0.12967011332511902, 0.21195079386234283, 0.14673112332820892, 0.15934649109840393, 0.15040923655033112, 0.10422011464834213, 0.14862652122974396, 0.15008622407913208, 0.11164000630378723, 0.1393183171749115, 0.2986413836479187, 0.2278577834367752, 0.15599851310253143, 0.3034660220146179, 0.26145559549331665, 0.041519783437252045, 0.0303088016808033, 0.20486757159233093, 0.1996464729309082, 0.14253120124340057, 0.16985273361206055, 0.14257226884365082, 0.20090307295322418, 0.16434484720230103, 0.12864962220191956, 0.16938461363315582, 0.1761074960231781, 0.19717618823051453, 0.14625445008277893, 0.38686320185661316, 0.08926987648010254, 0.19256776571273804], "bn1.running_mean": [-0.013620572164654732, 0.011531837284564972, 0.019662827253341675, 0.02067849598824978, -0.01752878539264202, 0.010164277628064156, 0.010393571108579636, 0.00014515710063278675, 0.009470785036683083, 0.009345498867332935, 0.015366649255156517, 0.008121099323034286, 0.025235231965780258, 0.01267407089471817, 0.009915633127093315, 0.019622230902314186, 0.011338166892528534, 0.02126779966056347, -0.009157681837677956, -0.013353563845157623, 0.023726534098386765, 0.021919090300798416, 0.019487367942929268, 0.023685133084654808, 0.02453416772186756, 0.019008299335837364, 0.007639601826667786, -0.004976053722202778, 0.0009793872013688087, 0.002697420073673129, 0.030396122485399246, 0.015447082929313183, 0.021635212004184723, 0.012206893414258957, 0.003139853710308671, 0.02776925265789032, -0.017975162714719772, 0.014484303072094917, 0.003944328520447016, 0.02212739735841751, 0.010157622396945953, 0.007306067273020744, 0.013480341993272305, 0.01389547809958458, 0.016797296702861786, 0.01464639138430357, 0.014566656202077866, -0.01712026074528694, 0.021624566987156868, 0.021565455943346024, -0.017015274614095688, 0.016770511865615845, 0.024127241224050522, 0.0136539526283741, -0.017292000353336334, 0.023840878158807755, 0.02042314037680626, 0.028738735243678093, -0.0008636540733277798, -0.00547570176422596, -0.019434437155723572, 0.0150730200111866, 0.01988232508301735, 0.012788070365786552, 0.01899009384214878, -0.017087740823626518, 0.02275705710053444, 0.0060274722054600716, 0.011529210954904556, 0.006378571968525648, -0.0170842744410038, 0.024132024496793747, 0.019437598064541817, 0.018010539934039116, -0.01418362744152546, -0.015100669115781784, 0.01898467354476452, -0.014893533661961555, 0.01591888628900051, 0.012616928666830063, 0.029956892132759094, 0.02568994089961052, 0.01211512740701437, 0.017745496705174446, 0.0213211290538311, 0.018569067120552063, 0.023816203698515892, -0.01788412779569626, 0.01432865485548973, 0.027923118323087692, 0.023089442402124405, -0.017663810402154922, 0.022829938679933548, 0.018113717436790466, 0.02468138560652733, 0.030931107699871063, 0.013242642395198345, -0.017230240628123283, 0.0288709606975317, -0.01880454644560814, 0.02314688079059124, 0.01631474494934082, 0.017611388117074966, -0.0024153960403054953, 0.008128408342599869, 0.013478532433509827, -0.005656243767589331, -0.010047800838947296, 0.01663614809513092, 0.03245801851153374, -0.018618926405906677, 0.021277228370308876, 0.007605224382132292, 0.01866011880338192, 0.015900762751698494, 0.017364051192998886, 0.03329905867576599, 0.01994256302714348, -0.014184471219778061, -0.016999434679746628, -0.018622905015945435, 0.014363469555974007, -0.019682880491018295, -0.01911430060863495, 0.007853485643863678, 0.016740035265684128, 0.016187965869903564, 0.011407551355659962], "bn1.running_var": [0.1782916933298111, 0.10842346400022507, 0.14361661672592163, 0.16062094271183014, 0.15717408061027527, 0.14635924994945526, 0.1493990421295166, 0.08432023972272873, 0.1071821078658104, 0.11230871826410294, 0.10405728220939636, 0.10983973741531372, 0.16609548032283783, 0.19635063409805298, 0.1451691836118698, 0.10232263058423996, 0.10668908804655075, 0.14759834110736847, 0.1192295178771019, 0.07880609482526779, 0.11949559301137924, 0.14394667744636536, 0.1512225866317749, 0.14368091523647308, 0.14049963653087616, 0.14113937318325043, 0.0877513438463211, 0.1048632338643074, 0.11502621322870255, 0.11019464582204819, 0.20516128838062286, 0.17768163979053497, 0.1857939064502716, 0.1728304624557495, 0.08472694456577301, 0.21314376592636108, 0.15591910481452942, 0.1768014132976532, 0.11531238257884979, 0.2287176102399826, 0.12479672580957413, 0.10178710520267487, 0.1427617371082306, 0.11596851795911789, 0.15530730783939362, 0.1264716386795044, 0.17259855568408966, 0.15448135137557983, 0.15126639604568481, 0.13002988696098328, 0.17260172963142395, 0.1251923143863678, 0.18176621198654175, 0.1973661184310913, 0.1845298409461975, 0.23366501927375793, 0.14341700077056885, 0.16441424190998077, 0.12434742599725723, 0.15969529747962952, 0.21420066058635712, 0.14166872203350067, 0.15553094446659088, 0.12370041757822037, 0.191728875041008, 0.18288414180278778, 0.11352651566267014, 0.11678968369960785, 0.13446465134620667, 0.10978485643863678, 0.18248076736927032, 0.10435894876718521, 0.12281622737646103, 0.15289221704006195, 0.0725649744272232, 0.08037211745977402, 0.15387561917304993, 0.08083638548851013, 0.17479760944843292, 0.13327424228191376, 0.20640192925930023, 0.10013113915920258, 0.15703891217708588, 0.11230429261922836, 0.19160176813602448, 0.08598838746547699, 0.134475976228714, 0.08814749121665955, 0.15465408563613892, 0.15621396899223328, 0.15896424651145935, 0.19883711636066437, 0.1866319626569748, 0.09222711622714996, 0.13136285543441772, 0.24850550293922424, 0.14362941682338715, 0.09296096116304398, 0.14417019486427307, 0.17192374169826508, 0.15352863073349, 0.12998229265213013, 0.20544523000717163, 0.10229548811912537, 0.14675335586071014, 0.11403131484985352, 0.1469910591840744, 0.09032942354679108, 0.15972140431404114, 0.15180031955242157, 0.1657923310995102, 0.14928163588047028, 0.11824733763933182, 0.13067305088043213, 0.14905108511447906, 0.10873162746429443, 0.16332952678203583, 0.12546642124652863, 0.07818685472011566, 0.15863072872161865, 0.16647270321846008, 0.18632380664348602, 0.18726834654808044, 0.17459982633590698, 0.11668451875448227, 0.10420884191989899, 0.1397070288658142, 0.1729540377855301], "bn1.num_batches_tracked": 7500, "fc2.weight": [[0.055375657975673676, 0.07551243156194687, 0.06535842269659042, 0.06999509036540985, 0.06432031095027924, 0.06408914923667908, 0.07168310880661011, 0.06034101918339729, 0.06834958493709564, 0.07308275252580643, 0.058682117611169815, 0.07261081039905548, 0.06519797444343567, 0.06229105219244957, 0.06245217099785805, 0.07298139482736588, 0.058813512325286865, 0.06986574083566666, 0.07069053500890732, 0.07991298288106918, 0.07619922608137131, 0.06515388190746307, 0.06834345310926437, 0.06010842323303223, 0.049415234476327896, 0.062490064650774, 0.0560029000043869, 0.06935267150402069, 0.07338489592075348, 0.06413442641496658, 0.06805146485567093, 0.06069649010896683, 0.06356409192085266, 0.06980536133050919, 0.0809902623295784, 0.06311847269535065, 0.07026559859514236, 0.05364839360117912, 0.06520793586969376, 0.06442181766033173, 0.06026909127831459, 0.06683605164289474, 0.07093546539545059, 0.07011395692825317, 0.058312173932790756, 0.059846989810466766, 0.06738373637199402, 0.06563400477170944, 0.05679071694612503, 0.06660201400518417, 0.05616655945777893, 0.054761581122875214, 0.07195165753364563, 0.06134257838129997, 0.07037056982517242, 0.06799968332052231, 0.0818452313542366, 0.06914994865655899, 0.056635159999132156, 0.06257572025060654, 0.06705887615680695, 0.06131099909543991, 0.05465063080191612, 0.0689944475889206, 0.06331824511289597, 0.07608596235513687, 0.06461041420698166, 0.07221165299415588, 0.05817164480686188, 0.06458953022956848, 0.06618981063365936, 0.07067154347896576, 0.05922222509980202, 0.06511099636554718, 0.09599500894546509, 0.07688775658607483, 0.0590372197329998, 0.09902070462703705, 0.06787237524986267, 0.05870957672595978, 0.06637730449438095, 0.06248806044459343, 0.06296081840991974, 0.07377905398607254, 0.06725304573774338, 0.07866742461919785, 0.06177491322159767, 0.08953152596950531, 0.060667484998703, 0.06956104934215546, 0.06819475442171097, 0.06275603920221329, 0.06556323915719986, 0.07884379476308823, 0.06357627362012863, 0.07030820101499557, 0.07289139926433563, 0.08804818242788315, 0.05910685285925865, 0.06815648823976517, 0.05789938569068909, 0.07456695288419724, 0.06956399977207184, 0.06931435316801071, 0.06565660983324051, 0.06067929044365883, 0.0714479312300682, 0.0856422707438469, 0.059188615530729294, 0.07420030981302261, 0.07821042835712433, 0.06498639285564423, 0.0662006363272667, 0.06535301357507706, 0.05861969664692879, 0.07252757251262665, 0.06383512914180756, 0.061194922775030136, 0.09181828796863556, 0.0622677318751812, 0.06611846387386322, 0.07230422645807266, 0.06750857084989548, 0.06415512412786484, 0.06677793711423874, 0.09599371999502182, 0.07470347732305527, 0.06561973690986633]], "fc2.bias": [0.6576566696166992]}