{"learner":{"attributes":{"scikit_learn":"{\"_estimator_type\": \"regressor\"}"},"feature_names":[],"feature_types":[],"gradient_booster":{"model":{"gbtree_model_param":{"num_parallel_tree":"1","num_trees":"500"},"iteration_indptr":[0,1,2,3,4,5,6,7,8,9,10,11,12,13,14,15,16,17,18,19,20,21,22,23,24,25,26,27,28,29,30,31,32,33,34,35,36,37,38,39,40,41,42,43,44,45,46,47,48,49,50,51,52,53,54,55,56,57,58,59,60,61,62,63,64,65,66,67,68,69,70,71,72,73,74,75,76,77,78,79,80,81,82,83,84,85,86,87,88,89,90,91,92,93,94,95,96,97,98,99,100,101,102,103,104,105,106,107,108,109,110,111,112,113,114,115,116,117,118,119,120,121,122,123,124,125,126,127,128,129,130,131,132,133,134,135,136,137,138,139,140,141,142,143,144,145,146,147,148,149,150,151,152,153,154,155,156,157,158,159,160,161,162,163,164,165,166,167,168,169,170,171,172,173,174,175,176,177,178,179,180,181,182,183,184,185,186,187,188,189,190,191,192,193,194,195,196,197,198,199,200,201,202,203,204,205,206,207,208,209,210,211,212,213,214,215,216,217,218,219,220,221,222,223,224,225,226,227,228,229,230,231,232,233,234,235,236,237,238,239,240,241,242,243,244,245,246,247,248,249,250,251,252,253,254,255,256,257,258,259,260,261,262,263,264,265,266,267,268,269,270,271,272,273,274,275,276,277,278,279,280,281,282,283,284,285,286,287,288,289,290,291,292,293,294,295,296,297,298,299,300,301,302,303,304,305,306,307,308,309,310,311,312,313,314,315,316,317,318,319,320,321,322,323,324,325,326,327,328,329,330,331,332,333,334,335,336,337,338,339,340,341,342,343,344,345,346,347,348,349,350,351,352,353,354,355,356,357,358,359,360,361,362,363,364,365,366,367,368,369,370,371,372,373,374,375,376,377,378,379,380,381,382,383,384,385,386,387,388,389,390,391,392,393,394,395,396,397,398,399,400,401,402,403,404,405,406,407,408,409,410,411,412,413,414,415,416,417,418,419,420,421,422,423,424,425,426,427,428,429,430,431,432,433,434,435,436,437,438,439,440,441,442,443,444,445,446,447,448,449,450,451,452,453,454,455,456,457,458,459,460,461,462,463,464,465,466,467,468,469,470,471,472,473,474,475,476,477,478,479,480,481,482,483,484,485,486,487,488,489,490,491,492,493,494,495,496,497,498,499,500],"tree_info":[0,0,0,0,0,0,0,0,0,0,0,0,0,0,0,0,0,0,0,0,0,0,0,0,0,0,0,0,0,0,0,0,0,0,0,0,0,0,0,0,0,0,0,0,0,0,0,0,0,0,0,0,0,0,0,0,0,0,0,0,0,0,0,0,0,0,0,0,0,0,0,0,0,0,0,0,0,0,0,0,0,0,0,0,0,0,0,0,0,0,0,0,0,0,0,0,0,0,0,0,0,0,0,0,0,0,0,0,0,0,0,0,0,0,0,0,0,0,0,0,0,0,0,0,0,0,0,0,0,0,0,0,0,0,0,0,0,0,0,0,0,0,0,0,0,0,0,0,0,0,0,0,0,0,0,0,0,0,0,0,0,0,0,0,0,0,0,0,0,0,0,0,0,0,0,0,0,0,0,0,0,0,0,0,0,0,0,0,0,0,0,0,0,0,0,0,0,0,0,0,0,0,0,0,0,0,0,0,0,0,0,0,0,0,0,0,0,0,0,0,0,0,0,0,0,0,0,0,0,0,0,0,0,0,0,0,0,0,0,0,0,0,0,0,0,0,0,0,0,0,0,0,0,0,0,0,0,0,0,0,0,0,0,0,0,0,0,0,0,0,0,0,0,0,0,0,0,0,0,0,0,0,0,0,0,0,0,0,0,0,0,0,0,0,0,0,0,0,0,0,0,0,0,0,0,0,0,0,0,0,0,0,0,0,0,0,0,0,0,0,0,0,0,0,0,0,0,0,0,0,0,0,0,0,0,0,0,0,0,0,0,0,0,0,0,0,0,0,0,0,0,0,0,0,0,0,0,0,0,0,0,0,0,0,0,0,0,0,0,0,0,0,0,0,0,0,0,0,0,0,0,0,0,0,0,0,0,0,0,0,0,0,0,0,0,0,0,0,0,0,0,0,0,0,0,0,0,0,0,0,0,0,0,0,0,0,0,0,0,0,0,0,0,0,0,0,0,0,0,0,0,0,0,0,0,0,0,0,0,0,0,0,0,0,0,0,0,0,0,0,0,0,0,0,0,0,0,0,0,0,0,0,0,0,0,0,0,0,0,0,0,0,0,0,0,0,0,0,0,0,0,0,0,0,0,0,0,0,0,0,0,0,0,0,0,0,0,0,0,0],"trees":[{"base_weights":[7.4126734E-3,-1.1557568E0,2.7132437E0,-1.627929E0,-2.39284E-3,2.0530736E0,4.058086E0,-1.7719209E0,-1.0616467E0,-4.2976102E-1,4.2919934E-1,1.4379696E0,2.6714706E0,3.8301272E0,5.021132E0,-1.9776036E0,-1.5680671E0,-1.2758892E0,-8.6366075E-1,-6.4651626E-1,-2.1659242E-1,3.171929E-1,8.8154906E-1,1.2944001E0,2.0363343E0,2.4730453E0,3.4423137E0,1.8129493E-1,2.0138228E-1,2.375586E-1,2.6309416E-1,-2.0612273E0,-1.7385899E0,-1.6460602E0,-1.3301637E0,-1.3200543E0,-1.0957345E0,-9.262107E-1,-6.342332E-1,-7.09162E-1,-3.563499E-1,-3.001773E-1,1.2971935E-1,1.14902444E-1,5.126559E-1,6.1041015E-1,1.127808E0,1.0974116E0,1.498728E0,8.9901365E-2,1.132283E-1,2.2690415E0,1.3301997E-1,1.5921685E-1,1.8420374E-1,-1.0643182E-1,-9.9747784E-2,-7.9520695E-2,-8.851942E-2,-7.566658E-2,-8.3840504E-2,-6.8437144E-2,-5.8540583E-2,-6.958147E-2,-6.266922E-2,-4.1774273E-2,-5.695027E-2,-3.99327E-2,-4.803899E-2,-1.5302307E-2,-3.2658007E-2,-3.8006347E-2,-3.1396817E-2,-2.1278337E-2,-1.3195221E-2,-9.067717E-3,-1.6587913E-2,1.7689314E-3,1.1389176E-2,1.2740152E-2,4.180079E-3,2.2251135E-2,2.9089523E-2,3.832823E-2,2.7971108E-2,4.9263965E-2,6.0097087E-2,5.1544406E-2,5.919785E-2,8.217217E-2,7.352456E-2,1.0793996E-1,1.15756646E-1],"categories":[],"categories_nodes":[],"categories_segments":[],"categories_sizes":[],"default_left":[0,0,0,0,0,0,0,0,0,0,0,0,0,0,0,0,0,0,0,0,0,0,0,0,0,0,0,0,0,0,0,0,0,0,0,0,0,0,0,0,0,0,0,0,0,0,0,0,0,0,0,0,0,0,0,0,0,0,0,0,0,0,0,0,0,0,0,0,0,0,0,0,0,0,0,0,0,0,0,0,0,0,0,0,0,0,0,0,0,0,0,0,0],"id":0,"left_children":[1,3,5,7,9,11,13,15,17,19,21,23,25,27,29,31,33,35,37,39,41,43,45,47,49,51,53,-1,-1,-1,-1,55,57,59,61,63,65,67,69,71,73,75,77,79,81,83,85,87,89,-1,-1,91,-1,-1,-1,-1,-1,-1,-1,-1,-1,-1,-1,-1,-1,-1,-1,-1,-1,-1,-1,-1,-1,-1,-1,-1,-1,-1,-1,-1,-1,-1,-1,-1,-1,-1,-1,-1,-1,-1,-1,-1,-1],"loss_changes":[9.061837E4,1.0965625E4,7.676074E3,1.1628008E3,1.0792097E3,2.2049883E3,6.0533984E2,4.7407422E2,1.2165088E2,1.3561755E2,1.4708942E2,2.4736328E2,4.3370117E2,7.773047E1,9.225586E0,1.0926367E2,1.03740234E2,9.371582E0,2.0926025E1,2.612561E1,4.301248E1,9.2204956E1,3.7664307E1,9.280444E1,2.6088623E1,8.160742E1,2.4379883E1,0E0,0E0,0E0,0E0,1.4064453E1,3.7978516E0,1.472168E1,6.8669434E0,3.2927246E0,2.0040588E0,4.277649E0,1.7353821E0,4.3390503E0,1.4888268E0,4.376564E0,2.6392918E0,4.9763403E0,5.188568E0,1.6440506E0,1.7774353E0,5.4782715E0,1.979248E0,0E0,0E0,1.9970703E-1,0E0,0E0,0E0,0E0,0E0,0E0,0E0,0E0,0E0,0E0,0E0,0E0,0E0,0E0,0E0,0E0,0E0,0E0,0E0,0E0,0E0,0E0,0E0,0E0,0E0,0E0,0E0,0E0,0E0,0E0,0E0,0E0,0E0,0E0,0E0,0E0,0E0,0E0,0E0,0E0,0E0],"parents":[2147483647,0,0,1,1,2,2,3,3,4,4,5,5,6,6,7,7,8,8,9,9,10,10,11,11,12,12,13,13,14,14,15,15,16,16,17,17,18,18,19,19,20,20,21,21,22,22,23,23,24,24,25,25,26,26,31,31,32,32,33,33,34,34,35,35,36,36,37,37,38,38,39,39,40,40,41,41,42,42,43,43,44,44,45,45,46,46,47,47,48,48,51,51],"right_children":[2,4,6,8,10,12,14,16,18,20,22,24,26,28,30,32,34,36,38,40,42,44,46,48,50,52,54,-1,-1,-1,-1,56,58,60,62,64,66,68,70,72,74,76,78,80,82,84,86,88,90,-1,-1,92,-1,-1,-1,-1,-1,-1,-1,-1,-1,-1,-1,-1,-1,-1,-1,-1,-1,-1,-1,-1,-1,-1,-1,-1,-1,-1,-1,-1,-1,-1,-1,-1,-1,-1,-1,-1,-1,-1,-1,-1,-1],"split_conditions":[8.728605E-1,1.7418084E-1,1.5715401E0,-1.7515899E-1,5.2352065E-1,1.2222003E0,2.0148072E0,9.951617E-1,9.951617E-1,9.951617E-1,2.0148072E0,2.0148072E0,2.0148072E0,9.951617E-1,9.951617E-1,-5.244988E-1,-5.244988E-1,2.0148072E0,2.0148072E0,2.0148072E0,2.0148072E0,9.951617E-1,9.951617E-1,9.951617E-1,9.951617E-1,9.951617E-1,9.951617E-1,1.8129493E-1,2.0138228E-1,2.375586E-1,2.6309416E-1,-7.4085346E-3,-1.1228713E0,-1.053308E0,2.0148072E0,-7.4085346E-3,-1.2331787E0,-9.509507E-1,-1.4915565E0,3.2681108E-1,3.1574547E-1,-9.509507E-1,2.1540454E-1,-1.1228713E0,1.03998005E-1,-1.0413829E0,-2.3022161E-1,3.2681108E-1,-1.2182723E0,8.9901365E-2,1.132283E-1,-5.644412E-1,1.3301997E-1,1.5921685E-1,1.8420374E-1,-1.0643182E-1,-9.9747784E-2,-7.9520695E-2,-8.851942E-2,-7.566658E-2,-8.3840504E-2,-6.8437144E-2,-5.8540583E-2,-6.958147E-2,-6.266922E-2,-4.1774273E-2,-5.695027E-2,-3.99327E-2,-4.803899E-2,-1.5302307E-2,-3.2658007E-2,-3.8006347E-2,-3.1396817E-2,-2.1278337E-2,-1.3195221E-2,-9.067717E-3,-1.6587913E-2,1.7689314E-3,1.1389176E-2,1.2740152E-2,4.180079E-3,2.2251135E-2,2.9089523E-2,3.832823E-2,2.7971108E-2,4.9263965E-2,6.0097087E-2,5.1544406E-2,5.919785E-2,8.217217E-2,7.352456E-2,1.0793996E-1,1.15756646E-1],"split_indices":[7,7,7,7,7,7,13,1,1,1,13,13,13,1,1,7,7,13,13,13,13,1,1,1,1,1,1,0,0,0,0,9,6,6,13,9,6,6,6,9,8,6,9,6,9,6,9,9,6,0,0,9,0,0,0,0,0,0,0,0,0,0,0,0,0,0,0,0,0,0,0,0,0,0,0,0,0,0,0,0,0,0,0,0,0,0,0,0,0,0,0,0,0],"split_type":[0,0,0,0,0,0,0,0,0,0,0,0,0,0,0,0,0,0,0,0,0,0,0,0,0,0,0,0,0,0,0,0,0,0,0,0,0,0,0,0,0,0,0,0,0,0,0,0,0,0,0,0,0,0,0,0,0,0,0,0,0,0,0,0,0,0,0,0,0,0,0,0,0,0,0,0,0,0,0,0,0,0,0,0,0,0,0,0,0,0,0,0,0],"sum_hessian":[2.879E4,2.0135E4,8.655E3,1.4286E4,5.849E3,5.807E3,2.848E3,1.1388E4,2.898E3,2.939E3,2.91E3,2.913E3,2.894E3,2.307E3,5.41E2,5.664E3,5.724E3,1.389E3,1.509E3,1.456E3,1.483E3,2.334E3,5.76E2,2.352E3,5.61E2,2.305E3,5.89E2,1.144E3,1.163E3,2.65E2,2.76E2,4.19E3,1.474E3,4.306E3,1.418E3,1.11E3,2.79E2,1.183E3,3.26E2,1.196E3,2.6E2,1.195E3,2.88E2,1.148E3,1.186E3,2.76E2,3E2,1.201E3,1.151E3,2.79E2,2.82E2,1.11E3,1.195E3,2.92E2,2.97E2,2.061E3,2.129E3,2.7E2,1.204E3,8.2E2,3.486E3,1.135E3,2.83E2,5.25E2,5.85E2,4.3E1,2.36E2,2.58E2,9.25E2,1.9E1,3.07E2,7.29E2,4.67E2,1.46E2,1.14E2,2.53E2,9.42E2,1.48E2,1.4E2,2.08E2,9.4E2,6.04E2,5.82E2,6.4E1,2.12E2,1.08E2,1.92E2,6.87E2,5.14E2,1.78E2,9.73E2,3.42E2,7.68E2],"tree_param":{"num_deleted":"0","num_feature":"14","num_nodes":"93","size_leaf_vector":"1"}},{"base_weights":[2.099946E-3,-1.1028436E0,2.575759E0,-1.5487243E0,-3.1145844E-3,1.9478232E0,3.8511548E0,-1.6858243E0,-1.0113645E0,-4.0700936E-1,4.067624E-1,1.3686548E0,2.5391974E0,3.6306205E0,4.7682104E0,-1.8807086E0,-1.4898064E0,-1.2158442E0,-8.221722E-1,-6.087041E-1,-2.0702435E-1,3.0258632E-1,8.267639E-1,1.2302675E0,1.9326285E0,2.3466525E0,3.277219E0,1.7183171E-1,1.9133924E-1,2.2545533E-1,2.494794E-1,-1.9587666E0,-1.6537797E0,-1.5637038E0,-1.2596401E0,-1.2562664E0,-1.0478228E0,-8.799362E-1,-6.060986E-1,-6.717846E-1,-3.2829157E-1,-2.8507158E-1,1.2325696E-1,1.076757E-1,4.8924115E-1,5.6837356E-1,1.0679984E0,1.0460395E0,1.420835E0,8.5279696E-2,1.0759222E-1,1.0781995E-1,1.2628448E-1,1.5130956E-1,1.7527513E-1,-9.0369545E-2,-9.937691E-2,-8.64585E-2,-7.9469435E-2,-7.4006364E-2,-8.049782E-2,-6.482166E-2,-5.5499714E-2,-6.606322E-2,-5.962602E-2,-3.80009E-2,-5.4088242E-2,-4.796597E-2,-4.104943E-2,-3.30969E-2,-2.5039678E-2,-2.5769034E-2,-3.4757823E-2,-1.9794224E-2,-1.1851016E-2,-8.758183E-3,-1.5660776E-2,1.3073216E-3,1.1042687E-2,1.1263146E-2,3.6336277E-3,1.9284667E-2,2.6489621E-2,3.3944767E-2,2.5162965E-2,4.7277916E-2,5.6317676E-2,4.9311634E-2,5.6138355E-2,7.793682E-2,6.9710426E-2],"categories":[],"categories_nodes":[],"categories_segments":[],"categories_sizes":[],"default_left":[0,0,0,0,0,0,0,0,0,0,0,0,0,0,0,0,0,0,0,0,0,0,0,0,0,0,0,0,0,0,0,0,0,0,0,0,0,0,0,0,0,0,0,0,0,0,0,0,0,0,0,0,0,0,0,0,0,0,0,0,0,0,0,0,0,0,0,0,0,0,0,0,0,0,0,0,0,0,0,0,0,0,0,0,0,0,0,0,0,0,0],"id":1,"left_children":[1,3,5,7,9,11,13,15,17,19,21,23,25,27,29,31,33,35,37,39,41,43,45,47,49,51,53,-1,-1,-1,-1,55,57,59,61,63,65,67,69,71,73,75,77,79,81,83,85,87,89,-1,-1,-1,-1,-1,-1,-1,-1,-1,-1,-1,-1,-1,-1,-1,-1,-1,-1,-1,-1,-1,-1,-1,-1,-1,-1,-1,-1,-1,-1,-1,-1,-1,-1,-1,-1,-1,-1,-1,-1,-1,-1],"loss_changes":[8.193137E4,9.883781E3,6.922621E3,1.0546328E3,9.629879E2,1.9830078E3,5.590469E2,4.3330664E2,1.1168237E2,1.1797662E2,1.2595508E2,2.2621729E2,3.994375E2,7.383594E1,8.099609E0,9.780859E1,9.471484E1,7.96167E0,1.82771E1,2.5469421E1,3.802164E1,8.410968E1,3.4945953E1,8.105151E1,2.4611572E1,7.171289E1,2.2605957E1,0E0,0E0,0E0,0E0,1.4555664E1,4.065674E0,1.3972656E1,5.979004E0,2.8259277E0,1.7093201E0,4.6309814E0,1.4574051E0,3.8670044E0,1.508585E0,3.583435E0,2.642229E0,4.621293E0,4.667328E0,1.5479584E0,8.3551025E-1,4.2021484E0,1.776123E0,0E0,0E0,0E0,0E0,0E0,0E0,0E0,0E0,0E0,0E0,0E0,0E0,0E0,0E0,0E0,0E0,0E0,0E0,0E0,0E0,0E0,0E0,0E0,0E0,0E0,0E0,0E0,0E0,0E0,0E0,0E0,0E0,0E0,0E0,0E0,0E0,0E0,0E0,0E0,0E0,0E0,0E0],"parents":[2147483647,0,0,1,1,2,2,3,3,4,4,5,5,6,6,7,7,8,8,9,9,10,10,11,11,12,12,13,13,14,14,15,15,16,16,17,17,18,18,19,19,20,20,21,21,22,22,23,23,24,24,25,25,26,26,31,31,32,32,33,33,34,34,35,35,36,36,37,37,38,38,39,39,40,40,41,41,42,42,43,43,44,44,45,45,46,46,47,47,48,48],"right_children":[2,4,6,8,10,12,14,16,18,20,22,24,26,28,30,32,34,36,38,40,42,44,46,48,50,52,54,-1,-1,-1,-1,56,58,60,62,64,66,68,70,72,74,76,78,80,82,84,86,88,90,-1,-1,-1,-1,-1,-1,-1,-1,-1,-1,-1,-1,-1,-1,-1,-1,-1,-1,-1,-1,-1,-1,-1,-1,-1,-1,-1,-1,-1,-1,-1,-1,-1,-1,-1,-1,-1,-1,-1,-1,-1,-1],"split_conditions":[8.728605E-1,1.7418084E-1,1.5715401E0,-1.7515899E-1,5.2352065E-1,1.2222003E0,2.0148072E0,9.951617E-1,9.951617E-1,9.951617E-1,2.0148072E0,2.0148072E0,2.0148072E0,9.951617E-1,9.951617E-1,-5.244988E-1,-5.244988E-1,2.0148072E0,2.0148072E0,2.0148072E0,2.0148072E0,9.951617E-1,9.951617E-1,9.951617E-1,9.951617E-1,9.951617E-1,9.951617E-1,1.7183171E-1,1.9133924E-1,2.2545533E-1,2.494794E-1,-1.190447E0,-1.1881507E-1,-4.794992E-1,2.0148072E0,-7.4085346E-3,-1.3911867E0,-2.3022161E-1,5.4962415E-1,-1.2331787E0,3.1574547E-1,-9.6188205E-1,2.1540454E-1,-9.8970735E-1,-6.199571E-1,-3.7332287E-1,-2.3022161E-1,3.2681108E-1,-1.2331787E0,8.5279696E-2,1.0759222E-1,1.0781995E-1,1.2628448E-1,1.5130956E-1,1.7527513E-1,-9.0369545E-2,-9.937691E-2,-8.64585E-2,-7.9469435E-2,-7.4006364E-2,-8.049782E-2,-6.482166E-2,-5.5499714E-2,-6.606322E-2,-5.962602E-2,-3.80009E-2,-5.4088242E-2,-4.796597E-2,-4.104943E-2,-3.30969E-2,-2.5039678E-2,-2.5769034E-2,-3.4757823E-2,-1.9794224E-2,-1.1851016E-2,-8.758183E-3,-1.5660776E-2,1.3073216E-3,1.1042687E-2,1.1263146E-2,3.6336277E-3,1.9284667E-2,2.6489621E-2,3.3944767E-2,2.5162965E-2,4.7277916E-2,5.6317676E-2,4.9311634E-2,5.6138355E-2,7.793682E-2,6.9710426E-2],"split_indices":[7,7,7,7,7,7,13,1,1,1,13,13,13,1,1,7,7,13,13,13,13,1,1,1,1,1,1,0,0,0,0,6,9,10,13,9,6,9,9,6,8,6,9,6,5,10,9,9,6,0,0,0,0,0,0,0,0,0,0,0,0,0,0,0,0,0,0,0,0,0,0,0,0,0,0,0,0,0,0,0,0,0,0,0,0,0,0,0,0,0,0],"split_type":[0,0,0,0,0,0,0,0,0,0,0,0,0,0,0,0,0,0,0,0,0,0,0,0,0,0,0,0,0,0,0,0,0,0,0,0,0,0,0,0,0,0,0,0,0,0,0,0,0,0,0,0,0,0,0,0,0,0,0,0,0,0,0,0,0,0,0,0,0,0,0,0,0,0,0,0,0,0,0,0,0,0,0,0,0,0,0,0,0,0,0],"sum_hessian":[2.8809E4,2.0156E4,8.653E3,1.4341E4,5.815E3,5.8E3,2.853E3,1.1424E4,2.917E3,2.929E3,2.886E3,2.932E3,2.868E3,2.304E3,5.49E2,5.724E3,5.7E3,1.399E3,1.518E3,1.457E3,1.472E3,2.314E3,5.72E2,2.357E3,5.75E2,2.278E3,5.9E2,1.168E3,1.136E3,2.63E2,2.86E2,4.253E3,1.471E3,4.31E3,1.39E3,1.122E3,2.77E2,1.195E3,3.23E2,1.188E3,2.69E2,1.191E3,2.81E2,1.133E3,1.181E3,2.78E2,2.94E2,1.202E3,1.155E3,2.87E2,2.88E2,1.111E3,1.167E3,2.88E2,3.02E2,6.9E2,3.563E3,6.65E2,8.06E2,1.548E3,2.762E3,1.109E3,2.81E2,5.45E2,5.77E2,3.2E1,2.45E2,5.02E2,6.93E2,2.07E2,1.16E2,1.58E2,1.03E3,1.52E2,1.17E2,2.45E2,9.46E2,1.42E2,1.39E2,2.58E2,8.75E2,3.36E2,8.45E2,9.9E1,1.79E2,1.01E2,1.93E2,6.84E2,5.18E2,1.77E2,9.78E2],"tree_param":{"num_deleted":"0","num_feature":"14","num_nodes":"91","size_leaf_vector":"1"}},{"base_weights":[2.1981627E-3,-1.0438008E0,2.4436803E0,-1.46929E0,-2.5520553E-3,1.8481499E0,3.6473818E0,-1.5992488E0,-9.594451E-1,-3.9090517E-1,3.8990045E-1,1.2929268E0,2.4092574E0,3.4442427E0,4.5300264E0,-1.7852856E0,-1.412555E0,-1.1545583E0,-7.785719E-1,-5.8320814E-1,-2.0099424E-1,2.874517E-1,7.9175913E-1,1.1657538E0,1.8257443E0,2.2296667E0,3.1044161E0,1.630529E-1,1.8152843E-1,2.148643E-1,2.368166E-1,-1.8588097E0,-1.5720739E0,-1.4834993E0,-1.1976591E0,-1.1939664E0,-9.9528384E-1,-8.3599955E-1,-5.7112354E-1,-6.3781416E-1,-3.2672614E-1,-2.7270156E-1,1.118279E-1,1.033135E-1,4.6079656E-1,5.430199E-1,1.0076607E0,9.900569E-1,1.3517452E0,8.078628E-2,1.0174366E-1,1.0243881E-1,2.402502E0,1.4315926E-1,1.6630603E-1,-8.687605E-2,-9.463855E-2,-8.105652E-2,-7.40686E-2,-7.761973E-2,-7.146093E-2,-6.1608084E-2,-5.2803833E-2,-6.271972E-2,-5.647725E-2,-3.673688E-2,-5.1310666E-2,-4.556575E-2,-3.8914952E-2,-1.670638E-2,-2.9704472E-2,-3.4607258E-2,-2.8277755E-2,-1.9730186E-2,-1.1732447E-2,-1.6525446E-2,-1.07991835E-2,1.70098E-2,3.7393502E-3,1.1365513E-2,3.5508168E-3,1.8922737E-2,2.5902962E-2,3.544496E-2,2.457113E-2,4.441375E-2,5.343302E-2,4.6562817E-2,5.340646E-2,7.151465E-2,6.533591E-2,1.1456894E-1,1.2254053E-1],"categories":[],"categories_nodes":[],"categories_segments":[],"categories_sizes":[],"default_left":[0,0,0,0,0,0,0,0,0,0,0,0,0,0,0,0,0,0,0,0,0,0,0,0,0,0,0,0,0,0,0,0,0,0,0,0,0,0,0,0,0,0,0,0,0,0,0,0,0,0,0,0,0,0,0,0,0,0,0,0,0,0,0,0,0,0,0,0,0,0,0,0,0,0,0,0,0,0,0,0,0,0,0,0,0,0,0,0,0,0,0,0,0],"id":2,"left_children":[1,3,5,7,9,11,13,15,17,19,21,23,25,27,29,31,33,35,37,39,41,43,45,47,49,51,53,-1,-1,-1,-1,55,57,59,61,63,65,67,69,71,73,75,77,79,81,83,85,87,89,-1,-1,-1,91,-1,-1,-1,-1,-1,-1,-1,-1,-1,-1,-1,-1,-1,-1,-1,-1,-1,-1,-1,-1,-1,-1,-1,-1,-1,-1,-1,-1,-1,-1,-1,-1,-1,-1,-1,-1,-1,-1,-1,-1],"loss_changes":[7.3625836E4,8.941727E3,6.1912305E3,9.475664E2,8.926663E2,1.7993965E3,4.9657422E2,3.936582E2,1.0170947E2,1.07320465E2,1.1959244E2,1.9482129E2,3.517207E2,6.699805E1,4.2871094E0,8.630859E1,8.490137E1,7.3739014E0,1.7430481E1,2.0171173E1,3.3312702E1,7.4044754E1,3.1036346E1,7.531909E1,2.0898804E1,6.6228516E1,2.1304688E1,0E0,0E0,0E0,0E0,1.3825195E1,3.8378906E0,1.3500977E1,5.411377E0,2.689209E0,1.358551E0,4.26709E0,1.5157013E0,4.2095337E0,1.4632263E0,3.8313675E0,2.276191E0,4.4713755E0,5.3535614E0,1.9024124E0,1.1490173E0,4.37854E0,1.8891602E0,0E0,0E0,0E0,1.640625E-1,0E0,0E0,0E0,0E0,0E0,0E0,0E0,0E0,0E0,0E0,0E0,0E0,0E0,0E0,0E0,0E0,0E0,0E0,0E0,0E0,0E0,0E0,0E0,0E0,0E0,0E0,0E0,0E0,0E0,0E0,0E0,0E0,0E0,0E0,0E0,0E0,0E0,0E0,0E0,0E0],"parents":[2147483647,0,0,1,1,2,2,3,3,4,4,5,5,6,6,7,7,8,8,9,9,10,10,11,11,12,12,13,13,14,14,15,15,16,16,17,17,18,18,19,19,20,20,21,21,22,22,23,23,24,24,25,25,26,26,31,31,32,32,33,33,34,34,35,35,36,36,37,37,38,38,39,39,40,40,41,41,42,42,43,43,44,44,45,45,46,46,47,47,48,48,52,52],"right_children":[2,4,6,8,10,12,14,16,18,20,22,24,26,28,30,32,34,36,38,40,42,44,46,48,50,52,54,-1,-1,-1,-1,56,58,60,62,64,66,68,70,72,74,76,78,80,82,84,86,88,90,-1,-1,-1,92,-1,-1,-1,-1,-1,-1,-1,-1,-1,-1,-1,-1,-1,-1,-1,-1,-1,-1,-1,-1,-1,-1,-1,-1,-1,-1,-1,-1,-1,-1,-1,-1,-1,-1,-1,-1,-1,-1,-1,-1],"split_conditions":[8.728605E-1,1.7418084E-1,1.5715401E0,-1.7515899E-1,5.2352065E-1,1.2222003E0,2.0148072E0,9.951617E-1,9.951617E-1,9.951617E-1,2.0148072E0,2.0148072E0,2.0148072E0,9.951617E-1,9.951617E-1,-5.244988E-1,-5.244988E-1,2.0148072E0,2.0148072E0,2.0148072E0,2.0148072E0,9.951617E-1,9.951617E-1,9.951617E-1,9.951617E-1,9.951617E-1,9.951617E-1,1.630529E-1,1.8152843E-1,2.148643E-1,2.368166E-1,-9.8970735E-1,5.4962415E-1,-1.1881507E-1,2.0148072E0,1.03998005E-1,-1.3911867E0,-2.3022161E-1,-1.3683302E0,2.1540454E-1,3.2681108E-1,-7.4085346E-3,-1.2182723E0,-1.053308E0,-2.3022161E-1,-1.0413829E0,-2.3022161E-1,3.2681108E-1,-4.3777335E-1,8.078628E-2,1.0174366E-1,1.0243881E-1,-5.644412E-1,1.4315926E-1,1.6630603E-1,-8.687605E-2,-9.463855E-2,-8.105652E-2,-7.40686E-2,-7.761973E-2,-7.146093E-2,-6.1608084E-2,-5.2803833E-2,-6.271972E-2,-5.647725E-2,-3.673688E-2,-5.1310666E-2,-4.556575E-2,-3.8914952E-2,-1.670638E-2,-2.9704472E-2,-3.4607258E-2,-2.8277755E-2,-1.9730186E-2,-1.1732447E-2,-1.6525446E-2,-1.07991835E-2,1.70098E-2,3.7393502E-3,1.1365513E-2,3.5508168E-3,1.8922737E-2,2.5902962E-2,3.544496E-2,2.457113E-2,4.441375E-2,5.343302E-2,4.6562817E-2,5.340646E-2,7.151465E-2,6.533591E-2,1.1456894E-1,1.2254053E-1],"split_indices":[7,7,7,7,7,7,13,1,1,1,13,13,13,1,1,7,7,13,13,13,13,1,1,1,1,1,1,0,0,0,0,6,9,9,13,9,6,9,6,9,9,9,6,6,9,6,9,9,10,0,0,0,9,0,0,0,0,0,0,0,0,0,0,0,0,0,0,0,0,0,0,0,0,0,0,0,0,0,0,0,0,0,0,0,0,0,0,0,0,0,0,0,0],"split_type":[0,0,0,0,0,0,0,0,0,0,0,0,0,0,0,0,0,0,0,0,0,0,0,0,0,0,0,0,0,0,0,0,0,0,0,0,0,0,0,0,0,0,0,0,0,0,0,0,0,0,0,0,0,0,0,0,0,0,0,0,0,0,0,0,0,0,0,0,0,0,0,0,0,0,0,0,0,0,0,0,0,0,0,0,0,0,0,0,0,0,0,0,0],"sum_hessian":[2.8828E4,2.0182E4,8.646E3,1.4327E4,5.855E3,5.786E3,2.86E3,1.1415E4,2.912E3,2.943E3,2.912E3,2.91E3,2.876E3,2.329E3,5.31E2,5.713E3,5.702E3,1.398E3,1.514E3,1.461E3,1.482E3,2.322E3,5.9E2,2.352E3,5.58E2,2.289E3,5.87E2,1.184E3,1.145E3,2.6E2,2.71E2,4.242E3,1.471E3,4.282E3,1.42E3,1.115E3,2.83E2,1.183E3,3.31E2,1.203E3,2.58E2,1.206E3,2.76E2,1.127E3,1.195E3,2.76E2,3.14E2,1.213E3,1.139E3,2.83E2,2.75E2,1.125E3,1.164E3,2.88E2,2.99E2,9.4E2,3.302E3,9.43E2,5.28E2,1.874E3,2.408E3,1.135E3,2.85E2,5.65E2,5.5E2,3.3E1,2.5E2,5.06E2,6.77E2,3.1E1,3E2,6.81E2,5.22E2,1.46E2,1.12E2,5.94E2,6.12E2,3.7E1,2.39E2,2.31E2,8.96E2,4.94E2,7.01E2,6.2E1,2.14E2,1.12E2,2.02E2,7E2,5.13E2,4.03E2,7.36E2,3.68E2,7.96E2],"tree_param":{"num_deleted":"0","num_feature":"14","num_nodes":"93","size_leaf_vector":"1"}},{"base_weights":[-1.2994495E-3,-9.925078E-1,2.317423E0,-1.3967556E0,-5.818287E-3,1.7563375E0,3.4679952E0,-1.5211215E0,-9.114924E-1,-3.6845258E-1,3.651847E-1,1.2339712E0,2.2897403E0,4.303964E0,3.2752056E0,-1.6968977E0,-1.3453385E0,-1.0966737E0,-7.391058E-1,-5.545338E-1,-1.8554528E-1,7.45344E-1,2.698617E-1,1.7465243E0,1.1083168E0,2.9640064E0,2.113967E0,2.0396672E-1,2.2503176E-1,1.550204E-1,1.7244424E-1,-1.7671676E0,-1.4932175E0,-1.412385E0,-1.1409389E0,-9.460012E-1,-1.1324795E0,-5.4139566E-1,-7.937153E-1,-3.0359465E-1,-6.075427E-1,1.07551076E-1,-2.5571054E-1,5.1885813E-1,9.568328E-1,9.598866E-2,4.3999743E-1,7.721103E-2,9.681345E-2,9.398463E-1,1.2883496E0,1.3642932E-1,1.5869716E-1,1.9389973E0,2.2763095E0,-9.177243E-2,-8.5471E-2,-7.810094E-2,-7.1665816E-2,-7.39413E-2,-6.796082E-2,-5.0132092E-2,-5.8742046E-2,-3.274755E-2,-4.866253E-2,-5.2189637E-2,-5.864492E-2,-3.1050116E-2,-2.3445955E-2,-4.3075632E-2,-3.706335E-2,-1.8460818E-2,-1.0551903E-2,-3.2370027E-2,-2.6253087E-2,1.3492819E-3,1.0187613E-2,-1.6414763E-2,-1.0627561E-2,3.1436525E-2,2.2818936E-2,4.2182814E-2,5.094831E-2,1.6812548E-3,8.016515E-3,1.8883377E-2,2.5166882E-2,4.410092E-2,5.034061E-2,6.1119426E-2,6.702598E-2,9.205831E-2,9.8980494E-2,1.161255E-1,1.0851585E-1],"categories":[],"categories_nodes":[],"categories_segments":[],"categories_sizes":[],"default_left":[0,0,0,0,0,0,0,0,0,0,0,0,0,0,0,0,0,0,0,0,0,0,0,0,0,0,0,0,0,0,0,0,0,0,0,0,0,0,0,0,0,0,0,0,0,0,0,0,0,0,0,0,0,0,0,0,0,0,0,0,0,0,0,0,0,0,0,0,0,0,0,0,0,0,0,0,0,0,0,0,0,0,0,0,0,0,0,0,0,0,0,0,0,0,0],"id":3,"left_children":[1,3,5,7,9,11,13,15,17,19,21,23,25,27,29,31,33,35,37,39,41,43,45,47,49,51,53,-1,-1,-1,-1,55,57,59,61,63,65,67,69,71,73,75,77,79,81,83,85,-1,-1,87,89,-1,-1,91,93,-1,-1,-1,-1,-1,-1,-1,-1,-1,-1,-1,-1,-1,-1,-1,-1,-1,-1,-1,-1,-1,-1,-1,-1,-1,-1,-1,-1,-1,-1,-1,-1,-1,-1,-1,-1,-1,-1,-1,-1],"loss_changes":[6.60265E4,8.027049E3,5.5472227E3,8.5993164E2,7.871845E2,1.6087051E3,4.3947266E2,3.4848242E2,9.206079E1,1.00534454E2,1.0449747E2,1.861626E2,3.3230664E2,3.9765625E0,5.832422E1,7.828613E1,7.6055664E1,6.290039E0,1.5772461E1,1.922522E1,3.07667E1,2.708963E1,6.835693E1,1.8695435E1,6.990283E1,1.9859863E1,5.9728516E1,0E0,0E0,0E0,0E0,1.3128906E1,3.4909668E0,1.281543E1,5.215332E0,1.3886871E0,2.597412E0,1.509552E0,3.4076538E0,1.4310741E0,3.5174255E0,2.2113194E0,3.6541824E0,1.5404053E0,1.0496216E0,4.5736217E0,4.3370056E0,0E0,0E0,3.6437988E0,2.0073242E0,0E0,0E0,3.4765625E-1,2.5439453E-1,0E0,0E0,0E0,0E0,0E0,0E0,0E0,0E0,0E0,0E0,0E0,0E0,0E0,0E0,0E0,0E0,0E0,0E0,0E0,0E0,0E0,0E0,0E0,0E0,0E0,0E0,0E0,0E0,0E0,0E0,0E0,0E0,0E0,0E0,0E0,0E0,0E0,0E0,0E0,0E0],"parents":[2147483647,0,0,1,1,2,2,3,3,4,4,5,5,6,6,7,7,8,8,9,9,10,10,11,11,12,12,13,13,14,14,15,15,16,16,17,17,18,18,19,19,20,20,21,21,22,22,23,23,24,24,25,25,26,26,31,31,32,32,33,33,34,34,35,35,36,36,37,37,38,38,39,39,40,40,41,41,42,42,43,43,44,44,45,45,46,46,49,49,50,50,53,53,54,54],"right_children":[2,4,6,8,10,12,14,16,18,20,22,24,26,28,30,32,34,36,38,40,42,44,46,48,50,52,54,-1,-1,-1,-1,56,58,60,62,64,66,68,70,72,74,76,78,80,82,84,86,-1,-1,88,90,-1,-1,92,94,-1,-1,-1,-1,-1,-1,-1,-1,-1,-1,-1,-1,-1,-1,-1,-1,-1,-1,-1,-1,-1,-1,-1,-1,-1,-1,-1,-1,-1,-1,-1,-1,-1,-1,-1,-1,-1,-1,-1,-1],"split_conditions":[8.728605E-1,1.7418084E-1,1.5715401E0,-1.7515899E-1,5.2352065E-1,1.2222003E0,4.9632537E-1,9.951617E-1,9.951617E-1,9.951617E-1,4.9632537E-1,4.9632537E-1,4.9632537E-1,9.951617E-1,9.951617E-1,-5.244988E-1,-5.244988E-1,4.9632537E-1,4.9632537E-1,4.9632537E-1,4.9632537E-1,9.951617E-1,9.951617E-1,9.951617E-1,9.951617E-1,9.951617E-1,9.951617E-1,2.0396672E-1,2.2503176E-1,1.550204E-1,1.7244424E-1,-1.1881507E-1,-1.1881507E-1,-1.1881507E-1,4.9632537E-1,-1.2252429E0,-5.500811E-1,-1.1881507E-1,-2.3022161E-1,3.1574547E-1,5.4962415E-1,3.2681108E-1,-3.1599817E-1,-3.906243E-1,-2.3022161E-1,1.03998005E-1,1.03998005E-1,7.721103E-2,9.681345E-2,2.1540454E-1,-1.1881507E-1,1.3642932E-1,1.5869716E-1,-5.644412E-1,3.7448478E-1,-9.177243E-2,-8.5471E-2,-7.810094E-2,-7.1665816E-2,-7.39413E-2,-6.796082E-2,-5.0132092E-2,-5.8742046E-2,-3.274755E-2,-4.866253E-2,-5.2189637E-2,-5.864492E-2,-3.1050116E-2,-2.3445955E-2,-4.3075632E-2,-3.706335E-2,-1.8460818E-2,-1.0551903E-2,-3.2370027E-2,-2.6253087E-2,1.3492819E-3,1.0187613E-2,-1.6414763E-2,-1.0627561E-2,3.1436525E-2,2.2818936E-2,4.2182814E-2,5.094831E-2,1.6812548E-3,8.016515E-3,1.8883377E-2,2.5166882E-2,4.410092E-2,5.034061E-2,6.1119426E-2,6.702598E-2,9.205831E-2,9.8980494E-2,1.161255E-1,1.0851585E-1],"split_indices":[7,7,7,7,7,7,12,1,1,1,12,12,12,1,1,7,7,12,12,12,12,1,1,1,1,1,1,0,0,0,0,9,9,9,12,10,10,9,9,8,9,9,8,10,9,9,9,0,0,9,9,0,0,9,10,0,0,0,0,0,0,0,0,0,0,0,0,0,0,0,0,0,0,0,0,0,0,0,0,0,0,0,0,0,0,0,0,0,0,0,0,0,0,0,0],"split_type":[0,0,0,0,0,0,0,0,0,0,0,0,0,0,0,0,0,0,0,0,0,0,0,0,0,0,0,0,0,0,0,0,0,0,0,0,0,0,0,0,0,0,0,0,0,0,0,0,0,0,0,0,0,0,0,0,0,0,0,0,0,0,0,0,0,0,0,0,0,0,0,0,0,0,0,0,0,0,0,0,0,0,0,0,0,0,0,0,0,0,0,0,0,0,0],"sum_hessian":[2.8726E4,2.0124E4,8.602E3,1.4275E4,5.849E3,5.784E3,2.818E3,1.1361E4,2.914E3,2.958E3,2.891E3,2.924E3,2.86E3,5.24E2,2.294E3,5.676E3,5.685E3,1.402E3,1.512E3,1.465E3,1.493E3,5.78E2,2.313E3,5.73E2,2.351E3,5.88E2,2.272E3,2.55E2,2.69E2,1.153E3,1.141E3,4.214E3,1.462E3,4.276E3,1.409E3,2.75E2,1.127E3,3.3E2,1.182E3,2.57E2,1.208E3,2.88E2,1.205E3,2.81E2,2.97E2,1.145E3,1.168E3,2.82E2,2.91E2,1.218E3,1.133E3,2.84E2,3.04E2,1.1E3,1.172E3,1.916E3,2.298E3,6.68E2,7.94E2,1.888E3,2.388E3,2.84E2,1.125E3,2.6E1,2.49E2,3.62E2,7.65E2,1.53E2,1.77E2,5.08E2,6.74E2,1.48E2,1.09E2,8.09E2,3.99E2,1.58E2,1.3E2,4.46E2,7.59E2,9.8E1,1.83E2,1.11E2,1.86E2,5.83E2,5.62E2,5.93E2,5.75E2,6.62E2,5.56E2,5.12E2,6.21E2,3.37E2,7.63E2,8.01E2,3.71E2],"tree_param":{"num_deleted":"0","num_feature":"14","num_nodes":"95","size_leaf_vector":"1"}},{"base_weights":[8.503462E-4,-9.430623E-1,2.2060964E0,-1.3265251E0,-2.6479182E-3,1.6680343E0,3.2989988E0,-1.4457698E0,-8.663283E-1,-3.5054424E-1,3.517085E-1,1.1740975E0,2.1755576E0,3.1216915E0,1.7368351E-1,-1.6117316E0,-1.2782456E0,-1.0416765E0,-7.011748E-1,-5.2677196E-1,-1.756782E-1,1.6918126E-1,5.2127075E-1,1.0063682E0,1.3467592E0,2.003561E0,2.339827E0,1.5406878E-1,1.6626425E-1,-1.6788077E0,-1.4184271E0,-1.3413272E0,-1.0842141E0,-8.430953E-1,-1.0626998E0,-5.3857833E-1,-7.250083E-1,-3.5096797E-1,-5.494672E-1,1.0182486E-2,-1.9639654E-1,2.9250503E-1,1.3210581E-1,4.1243288E-1,5.7555777E-1,1.1567758E0,9.6996707E-1,1.292615E0,1.4338363E0,1.04449235E-1,9.728559E-2,1.2433137E-1,2.2876046E0,-7.9752855E-2,-8.6269E-2,-6.342241E-2,-7.2557285E-2,-5.893573E-2,-6.817705E-2,-4.8214115E-2,-5.583284E-2,-3.2398015E-2,-4.422311E-2,-5.5377793E-2,-4.8971556E-2,-3.246334E-2,-2.3204697E-2,-3.878751E-2,-3.2920435E-2,-2.1233972E-2,-1.3774119E-2,-2.9570296E-2,-2.28525E-2,-4.860349E-3,3.320579E-3,-1.1548223E-2,-4.7631375E-3,7.4278372E-3,1.5970374E-2,2.6342403E-3,9.130041E-3,2.9472819E-2,1.881578E-2,2.4554405E-2,3.3035662E-2,4.3963965E-2,5.8813244E-2,4.5420174E-2,5.190078E-2,7.479497E-2,6.3690774E-2,7.704874E-2,6.625142E-2,1.078241E-1,1.1684865E-1],"categories":[],"categories_nodes":[],"categories_segments":[],"categories_sizes":[],"default_left":[0,0,0,0,0,0,0,0,0,0,0,0,0,0,0,0,0,0,0,0,0,0,0,0,0,0,0,0,0,0,0,0,0,0,0,0,0,0,0,0,0,0,0,0,0,0,0,0,0,0,0,0,0,0,0,0,0,0,0,0,0,0,0,0,0,0,0,0,0,0,0,0,0,0,0,0,0,0,0,0,0,0,0,0,0,0,0,0,0,0,0,0,0,0,0],"id":4,"left_children":[1,3,5,7,9,11,13,15,17,19,21,23,25,27,-1,29,31,33,35,37,39,41,43,45,47,49,51,-1,-1,53,55,57,59,61,63,65,67,69,71,73,75,77,79,81,83,85,87,89,91,-1,-1,-1,93,-1,-1,-1,-1,-1,-1,-1,-1,-1,-1,-1,-1,-1,-1,-1,-1,-1,-1,-1,-1,-1,-1,-1,-1,-1,-1,-1,-1,-1,-1,-1,-1,-1,-1,-1,-1,-1,-1,-1,-1,-1,-1],"loss_changes":[5.9911574E4,7.268039E3,5.0671016E3,7.841738E2,7.19951E2,1.4468184E3,7.660547E1,3.1373828E2,8.449634E1,9.065271E1,8.938031E1,8.335034E1,7.542871E1,7.841797E-1,0E0,7.130664E1,6.7618164E1,4.875122E0,5.3812866E0,5.5703125E0,5.723545E0,6.2972336E0,8.52063E0,6.8341064E0,4.6723633E0,2.4506836E0,4.965332E0,0E0,0E0,1.3417969E1,5.13501E0,1.355957E1,4.1429443E0,4.19899E-1,3.5135498E0,1.2280121E0,3.8201904E0,7.644634E-1,4.651886E0,9.030996E-1,4.605526E0,1.1488438E0,4.2779903E0,2.897583E0,6.7318115E0,3.015442E-1,3.9229736E0,1.2570801E0,4.001709E0,0E0,0E0,0E0,1.5283203E0,0E0,0E0,0E0,0E0,0E0,0E0,0E0,0E0,0E0,0E0,0E0,0E0,0E0,0E0,0E0,0E0,0E0,0E0,0E0,0E0,0E0,0E0,0E0,0E0,0E0,0E0,0E0,0E0,0E0,0E0,0E0,0E0,0E0,0E0,0E0,0E0,0E0,0E0,0E0,0E0,0E0,0E0],"parents":[2147483647,0,0,1,1,2,2,3,3,4,4,5,5,6,6,7,7,8,8,9,9,10,10,11,11,12,12,13,13,15,15,16,16,17,17,18,18,19,19,20,20,21,21,22,22,23,23,24,24,25,25,26,26,29,29,30,30,31,31,32,32,33,33,34,34,35,35,36,36,37,37,38,38,39,39,40,40,41,41,42,42,43,43,44,44,45,45,46,46,47,47,48,48,52,52],"right_children":[2,4,6,8,10,12,14,16,18,20,22,24,26,28,-1,30,32,34,36,38,40,42,44,46,48,50,52,-1,-1,54,56,58,60,62,64,66,68,70,72,74,76,78,80,82,84,86,88,90,92,-1,-1,-1,94,-1,-1,-1,-1,-1,-1,-1,-1,-1,-1,-1,-1,-1,-1,-1,-1,-1,-1,-1,-1,-1,-1,-1,-1,-1,-1,-1,-1,-1,-1,-1,-1,-1,-1,-1,-1,-1,-1,-1,-1,-1,-1],"split_conditions":[8.728605E-1,1.7418084E-1,1.5715401E0,-1.7515899E-1,5.2352065E-1,1.2222003E0,9.951617E-1,9.951617E-1,9.951617E-1,9.951617E-1,9.951617E-1,9.951617E-1,9.951617E-1,1.263361E0,1.7368351E-1,-5.244988E-1,-5.244988E-1,-1.3911867E0,-1.2918106E0,-1.3146671E0,-1.3683302E0,-9.8970735E-1,-3.708683E-1,-1.0026263E0,4.382176E-1,-3.2885653E-1,-6.966882E-1,1.5406878E-1,1.6626425E-1,-4.794992E-1,-1.1228713E0,-1.3017483E0,-9.8970735E-1,-1.0340933E0,5.4962415E-1,-3.1599817E-1,3.1574547E-1,1.03998005E-1,6.610307E-1,-1.7036223E-1,8.838438E-1,-8.6904585E-1,-3.4162816E-1,-1.2331787E0,1.03998005E-1,-1.3672234E0,2.1540454E-1,-1.5203756E0,-1.3069768E-1,1.04449235E-1,9.728559E-2,1.2433137E-1,-6.199571E-1,-7.9752855E-2,-8.6269E-2,-6.342241E-2,-7.2557285E-2,-5.893573E-2,-6.817705E-2,-4.8214115E-2,-5.583284E-2,-3.2398015E-2,-4.422311E-2,-5.5377793E-2,-4.8971556E-2,-3.246334E-2,-2.3204697E-2,-3.878751E-2,-3.2920435E-2,-2.1233972E-2,-1.3774119E-2,-2.9570296E-2,-2.28525E-2,-4.860349E-3,3.320579E-3,-1.1548223E-2,-4.7631375E-3,7.4278372E-3,1.5970374E-2,2.6342403E-3,9.130041E-3,2.9472819E-2,1.881578E-2,2.4554405E-2,3.3035662E-2,4.3963965E-2,5.8813244E-2,4.5420174E-2,5.190078E-2,7.479497E-2,6.3690774E-2,7.704874E-2,6.625142E-2,1.078241E-1,1.1684865E-1],"split_indices":[7,7,7,7,7,7,1,1,1,1,1,1,1,8,0,7,7,6,6,6,6,6,5,6,9,6,10,0,0,10,6,6,6,2,9,8,8,9,9,0,9,5,9,6,9,5,9,6,10,0,0,0,5,0,0,0,0,0,0,0,0,0,0,0,0,0,0,0,0,0,0,0,0,0,0,0,0,0,0,0,0,0,0,0,0,0,0,0,0,0,0,0,0,0,0],"split_type":[0,0,0,0,0,0,0,0,0,0,0,0,0,0,0,0,0,0,0,0,0,0,0,0,0,0,0,0,0,0,0,0,0,0,0,0,0,0,0,0,0,0,0,0,0,0,0,0,0,0,0,0,0,0,0,0,0,0,0,0,0,0,0,0,0,0,0,0,0,0,0,0,0,0,0,0,0,0,0,0,0,0,0,0,0,0,0,0,0,0,0,0,0,0,0],"sum_hessian":[2.878E4,2.0154E4,8.626E3,1.4316E4,5.838E3,5.782E3,2.844E3,1.1368E4,2.948E3,2.946E3,2.892E3,2.932E3,2.85E3,1.421E3,1.423E3,5.706E3,5.662E3,1.427E3,1.521E3,1.466E3,1.48E3,1.394E3,1.498E3,1.491E3,1.441E3,1.399E3,1.451E3,1.2E3,2.21E2,4.23E3,1.476E3,4.268E3,1.394E3,1.41E2,1.286E3,1.98E2,1.323E3,1.7E2,1.296E3,1.48E2,1.332E3,3.2E2,1.074E3,5.02E2,9.96E2,2.84E2,1.207E3,8.99E2,5.42E2,5.5E2,8.49E2,3.68E2,1.083E3,1.525E3,2.705E3,2.72E2,1.204E3,5.2E2,3.748E3,3.04E2,1.09E3,2.8E1,1.13E2,8.27E2,4.59E2,7.6E1,1.22E2,7.44E2,5.79E2,8.3E1,8.7E1,8.87E2,4.09E2,5E1,9.8E1,9.91E2,3.41E2,5.2E1,2.68E2,4.19E2,6.55E2,8.2E1,4.2E2,5.04E2,4.92E2,2.2E1,2.62E2,6.42E2,5.65E2,6.9E1,8.3E2,2.66E2,2.76E2,3.09E2,7.74E2],"tree_param":{"num_deleted":"0","num_feature":"14","num_nodes":"95","size_leaf_vector":"1"}},{"base_weights":[2.453542E-4,-8.976881E-1,2.09339E0,-1.2596515E0,-4.1741845E-3,1.5855575E0,3.1308365E0,-1.3712807E0,-8.234429E-1,-3.3552796E-1,3.3151233E-1,1.1152332E0,2.0733025E0,3.931831E0,2.9463534E0,-1.5304118E0,-1.2126436E0,-9.8887306E-1,-6.7055774E-1,-4.984906E-1,-1.7080997E-1,6.924669E-1,2.4030308E-1,1.6024426E0,9.952791E-1,2.697208E0,1.9078462E0,1.8523943E-1,2.0619133E-1,1.3970686E-1,1.5498842E-1,-1.5945232E0,-1.348062E0,-1.2734041E0,-1.0286734E0,-8.457291E-1,-1.0241017E0,-4.80737E-1,-7.21009E-1,-2.6200676E-1,-5.483786E-1,1.10582E-1,-2.374519E-1,4.748381E-1,8.888759E-1,8.555801E-2,3.9143533E-1,7.088881E-2,8.9220665E-2,8.4414464E-1,1.1539706E0,1.2479023E-1,1.4456013E-1,1.7527765E0,2.053659E0,-8.276107E-2,-7.6732665E-2,-6.303518E-2,-6.943665E-2,-5.9783466E-2,-6.579903E-2,-4.508538E-2,-5.296299E-2,-3.1106656E-2,-4.403135E-2,-5.5853225E-2,-4.935678E-2,-2.7788833E-2,-2.1097008E-2,-2.902757E-2,-3.7216283E-2,-1.871864E-2,-1.0442007E-2,-2.9853672E-2,-2.41603E-2,1.1213E-2,2.6460423E-3,-1.5266897E-2,-9.736097E-3,2.8892776E-2,2.065775E-2,4.731601E-2,3.9337825E-2,1.9059982E-3,7.833609E-3,1.4952989E-2,2.1451076E-2,3.9700907E-2,4.5562804E-2,5.5262454E-2,6.1196513E-2,8.2800366E-2,8.960983E-2,9.930268E-2,1.06418625E-1],"categories":[],"categories_nodes":[],"categories_segments":[],"categories_sizes":[],"default_left":[0,0,0,0,0,0,0,0,0,0,0,0,0,0,0,0,0,0,0,0,0,0,0,0,0,0,0,0,0,0,0,0,0,0,0,0,0,0,0,0,0,0,0,0,0,0,0,0,0,0,0,0,0,0,0,0,0,0,0,0,0,0,0,0,0,0,0,0,0,0,0,0,0,0,0,0,0,0,0,0,0,0,0,0,0,0,0,0,0,0,0,0,0,0,0],"id":5,"left_children":[1,3,5,7,9,11,13,15,17,19,21,23,25,27,29,31,33,35,37,39,41,43,45,47,49,51,53,-1,-1,-1,-1,55,57,59,61,63,65,67,69,71,73,75,77,79,81,83,85,-1,-1,87,89,-1,-1,91,93,-1,-1,-1,-1,-1,-1,-1,-1,-1,-1,-1,-1,-1,-1,-1,-1,-1,-1,-1,-1,-1,-1,-1,-1,-1,-1,-1,-1,-1,-1,-1,-1,-1,-1,-1,-1,-1,-1,-1,-1],"loss_changes":[5.4067824E4,6.510624E3,4.5444375E3,6.962832E2,6.4580756E2,1.3278789E3,4.0695312E2,2.8580664E2,7.307373E1,7.828281E1,9.468854E1,1.7084375E2,2.8818457E2,6.95459E0,4.469336E1,6.4075195E1,6.2364258E1,6.011841E0,1.4108887E1,1.709433E1,2.7323841E1,2.427597E1,5.38024E1,1.6707397E1,5.5763428E1,1.5453613E1,4.696289E1,0E0,0E0,0E0,0E0,1.2418945E1,3.267334E0,1.2384277E1,4.3826904E0,1.5101166E0,2.5323486E0,1.0928345E0,3.3654175E0,1.4048195E0,3.4466553E0,1.7892039E0,3.3047333E0,1.4286957E0,8.654938E-1,3.8203583E0,3.8438263E0,0E0,0E0,3.210144E0,2.3513184E0,0E0,0E0,8.796387E-1,1.1953125E0,0E0,0E0,0E0,0E0,0E0,0E0,0E0,0E0,0E0,0E0,0E0,0E0,0E0,0E0,0E0,0E0,0E0,0E0,0E0,0E0,0E0,0E0,0E0,0E0,0E0,0E0,0E0,0E0,0E0,0E0,0E0,0E0,0E0,0E0,0E0,0E0,0E0,0E0,0E0,0E0],"parents":[2147483647,0,0,1,1,2,2,3,3,4,4,5,5,6,6,7,7,8,8,9,9,10,10,11,11,12,12,13,13,14,14,15,15,16,16,17,17,18,18,19,19,20,20,21,21,22,22,23,23,24,24,25,25,26,26,31,31,32,32,33,33,34,34,35,35,36,36,37,37,38,38,39,39,40,40,41,41,42,42,43,43,44,44,45,45,46,46,49,49,50,50,53,53,54,54],"right_children":[2,4,6,8,10,12,14,16,18,20,22,24,26,28,30,32,34,36,38,40,42,44,46,48,50,52,54,-1,-1,-1,-1,56,58,60,62,64,66,68,70,72,74,76,78,80,82,84,86,-1,-1,88,90,-1,-1,92,94,-1,-1,-1,-1,-1,-1,-1,-1,-1,-1,-1,-1,-1,-1,-1,-1,-1,-1,-1,-1,-1,-1,-1,-1,-1,-1,-1,-1,-1,-1,-1,-1,-1,-1,-1,-1,-1,-1,-1,-1],"split_conditions":[8.728605E-1,1.7418084E-1,1.5715401E0,-1.7515899E-1,5.2352065E-1,1.2222003E0,4.9632537E-1,9.951617E-1,9.951617E-1,9.951617E-1,4.9632537E-1,4.9632537E-1,4.9632537E-1,9.951617E-1,9.951617E-1,-5.244988E-1,-5.244988E-1,4.9632537E-1,4.9632537E-1,4.9632537E-1,4.9632537E-1,9.951617E-1,9.951617E-1,9.951617E-1,9.951617E-1,9.951617E-1,9.951617E-1,1.8523943E-1,2.0619133E-1,1.3970686E-1,1.5498842E-1,-7.4085346E-3,-5.9753364E-1,-4.794992E-1,4.9632537E-1,-9.230237E-1,-6.199571E-1,-2.3022161E-1,-1.0203571E0,-6.7584777E-1,2.1540454E-1,-4.5952663E-1,-3.1599817E-1,-3.7332287E-1,2.096656E-1,4.382176E-1,-6.199571E-1,7.088881E-2,8.9220665E-2,3.2681108E-1,5.2616656E-1,1.2479023E-1,1.4456013E-1,-5.644412E-1,2.1540454E-1,-8.276107E-2,-7.6732665E-2,-6.303518E-2,-6.943665E-2,-5.9783466E-2,-6.579903E-2,-4.508538E-2,-5.296299E-2,-3.1106656E-2,-4.403135E-2,-5.5853225E-2,-4.935678E-2,-2.7788833E-2,-2.1097008E-2,-2.902757E-2,-3.7216283E-2,-1.871864E-2,-1.0442007E-2,-2.9853672E-2,-2.41603E-2,1.1213E-2,2.6460423E-3,-1.5266897E-2,-9.736097E-3,2.8892776E-2,2.065775E-2,4.731601E-2,3.9337825E-2,1.9059982E-3,7.833609E-3,1.4952989E-2,2.1451076E-2,3.9700907E-2,4.5562804E-2,5.5262454E-2,6.1196513E-2,8.2800366E-2,8.960983E-2,9.930268E-2,1.06418625E-1],"split_indices":[7,7,7,7,7,7,12,1,1,1,12,12,12,1,1,7,7,12,12,12,12,1,1,1,1,1,1,0,0,0,0,9,10,10,12,10,5,9,10,9,9,10,8,10,10,9,5,0,0,9,0,0,0,9,9,0,0,0,0,0,0,0,0,0,0,0,0,0,0,0,0,0,0,0,0,0,0,0,0,0,0,0,0,0,0,0,0,0,0,0,0,0,0,0,0],"split_type":[0,0,0,0,0,0,0,0,0,0,0,0,0,0,0,0,0,0,0,0,0,0,0,0,0,0,0,0,0,0,0,0,0,0,0,0,0,0,0,0,0,0,0,0,0,0,0,0,0,0,0,0,0,0,0,0,0,0,0,0,0,0,0,0,0,0,0,0,0,0,0,0,0,0,0,0,0,0,0,0,0,0,0,0,0,0,0,0,0,0,0,0,0,0,0],"sum_hessian":[2.8765E4,2.013E4,8.635E3,1.4326E4,5.804E3,5.799E3,2.836E3,1.1405E4,2.921E3,2.921E3,2.883E3,2.954E3,2.845E3,5.27E2,2.309E3,5.689E3,5.716E3,1.4E3,1.521E3,1.467E3,1.454E3,5.8E2,2.303E3,5.81E2,2.373E3,5.93E2,2.252E3,2.51E2,2.76E2,1.169E3,1.14E3,4.203E3,1.486E3,4.292E3,1.424E3,2.82E2,1.118E3,3.22E2,1.199E3,2.57E2,1.21E3,2.78E2,1.176E3,2.77E2,3.03E2,1.139E3,1.164E3,2.93E2,2.88E2,1.219E3,1.154E3,2.98E2,2.95E2,1.098E3,1.154E3,2.073E3,2.13E3,4.83E2,1.003E3,1.53E3,2.762E3,2.83E2,1.141E3,4.1E1,2.41E2,3.09E2,8.09E2,1.37E2,1.85E2,1.75E2,1.024E3,8E1,1.77E2,6.87E2,5.23E2,9.2E1,1.86E2,4.51E2,7.25E2,1E2,1.77E2,1.88E2,1.15E2,6.85E2,4.54E2,3.4E2,8.24E2,7.06E2,5.13E2,6.91E2,4.63E2,3.31E2,7.67E2,6.21E2,5.33E2],"tree_param":{"num_deleted":"0","num_feature":"14","num_nodes":"95","size_leaf_vector":"1"}},{"base_weights":[1.0301563E-3,-8.5089946E-1,1.993585E0,-1.1988175E0,-3.627445E-3,1.5057356E0,2.9806948E0,-1.303567E0,-7.8469807E-1,-3.195235E-1,3.1515262E-1,1.0571795E0,1.9679267E0,3.7384384E0,2.80043E0,-1.4539157E0,-1.1535515E0,-9.427144E-1,-6.3428456E-1,-4.7469923E-1,-1.6636148E-1,6.572896E-1,2.2889173E-1,1.5147529E0,9.456392E-1,2.5677645E0,1.8120095E0,1.768583E-1,1.9553018E-1,1.3249709E-1,1.4763668E-1,-1.5151515E0,-1.2798162E0,-1.2097127E0,-9.765674E-1,-8.0261064E-1,-9.7625965E-1,-4.5916235E-1,-6.82716E-1,-2.5245577E-1,-5.216894E-1,1.008387E-1,-2.2824036E-1,4.5084304E-1,8.496541E-1,8.270617E-2,3.6988276E-1,1.3365194E0,8.4429346E-2,8.002791E-1,1.0979267E0,1.1882936E-1,1.3708538E-1,1.6671573E0,1.95227E0,-6.795273E-2,-7.6908685E-2,-5.746284E-2,-6.53531E-2,-5.4616578E-2,-6.191636E-2,-4.2294625E-2,-5.0400015E-2,-2.9705107E-2,-4.178765E-2,-4.449541E-2,-5.0800063E-2,-1.0107743E-2,-2.3706645E-2,-2.8548941E-2,-3.560278E-2,-1.8060548E-2,-1.0225369E-2,-1.8414557E-2,-2.714151E-2,1.5100089E-2,3.3794974E-3,-6.389723E-3,-1.2691016E-2,3.0461371E-2,2.0916319E-2,3.622886E-2,4.469318E-2,-6.070063E-4,5.8025434E-3,2.5260812E-2,1.6900731E-2,7.04734E-2,6.101176E-2,4.7269784E-2,3.8836673E-2,5.0948728E-2,5.6794625E-2,8.9114934E-2,8.1762545E-2,9.343861E-2,1.00734375E-1],"categories":[],"categories_nodes":[],"categories_segments":[],"categories_sizes":[],"default_left":[0,0,0,0,0,0,0,0,0,0,0,0,0,0,0,0,0,0,0,0,0,0,0,0,0,0,0,0,0,0,0,0,0,0,0,0,0,0,0,0,0,0,0,0,0,0,0,0,0,0,0,0,0,0,0,0,0,0,0,0,0,0,0,0,0,0,0,0,0,0,0,0,0,0,0,0,0,0,0,0,0,0,0,0,0,0,0,0,0,0,0,0,0,0,0,0,0],"id":6,"left_children":[1,3,5,7,9,11,13,15,17,19,21,23,25,27,29,31,33,35,37,39,41,43,45,47,49,51,53,-1,-1,-1,-1,55,57,59,61,63,65,67,69,71,73,75,77,79,81,83,85,87,-1,89,91,-1,-1,93,95,-1,-1,-1,-1,-1,-1,-1,-1,-1,-1,-1,-1,-1,-1,-1,-1,-1,-1,-1,-1,-1,-1,-1,-1,-1,-1,-1,-1,-1,-1,-1,-1,-1,-1,-1,-1,-1,-1,-1,-1,-1,-1],"loss_changes":[4.889029E4,5.947088E3,4.149004E3,6.191738E2,5.9162103E2,1.1948818E3,3.784453E2,2.5547656E2,6.793335E1,6.999341E1,8.605707E1,1.4801562E2,2.6080176E2,4.3085938E0,4.4515625E1,5.8506836E1,5.543506E1,5.651123E0,1.2158752E1,1.5090271E1,2.4621883E1,2.283812E1,4.8091713E1,1.519397E1,5.11958E1,1.2392822E1,4.2299316E1,0E0,0E0,0E0,0E0,1.27421875E1,3.5490723E0,1.2978027E1,4.642578E0,1.281601E0,2.7832031E0,1.0869675E0,3.2679443E0,1.2149353E0,3.6264648E0,1.8153868E0,3.0332336E0,1.1153221E0,8.659668E-1,3.6456518E0,4.8728333E0,4.6020508E-1,0E0,3.2346802E0,2.0743408E0,0E0,0E0,8.547363E-1,1.7983398E0,0E0,0E0,0E0,0E0,0E0,0E0,0E0,0E0,0E0,0E0,0E0,0E0,0E0,0E0,0E0,0E0,0E0,0E0,0E0,0E0,0E0,0E0,0E0,0E0,0E0,0E0,0E0,0E0,0E0,0E0,0E0,0E0,0E0,0E0,0E0,0E0,0E0,0E0,0E0,0E0,0E0,0E0],"parents":[2147483647,0,0,1,1,2,2,3,3,4,4,5,5,6,6,7,7,8,8,9,9,10,10,11,11,12,12,13,13,14,14,15,15,16,16,17,17,18,18,19,19,20,20,21,21,22,22,23,23,24,24,25,25,26,26,31,31,32,32,33,33,34,34,35,35,36,36,37,37,38,38,39,39,40,40,41,41,42,42,43,43,44,44,45,45,46,46,47,47,49,49,50,50,53,53,54,54],"right_children":[2,4,6,8,10,12,14,16,18,20,22,24,26,28,30,32,34,36,38,40,42,44,46,48,50,52,54,-1,-1,-1,-1,56,58,60,62,64,66,68,70,72,74,76,78,80,82,84,86,88,-1,90,92,-1,-1,94,96,-1,-1,-1,-1,-1,-1,-1,-1,-1,-1,-1,-1,-1,-1,-1,-1,-1,-1,-1,-1,-1,-1,-1,-1,-1,-1,-1,-1,-1,-1,-1,-1,-1,-1,-1,-1,-1,-1,-1,-1,-1,-1],"split_conditions":[8.728605E-1,1.7418084E-1,1.5715401E0,-1.7515899E-1,5.2352065E-1,1.2222003E0,4.9632537E-1,9.951617E-1,9.951617E-1,9.951617E-1,4.9632537E-1,4.9632537E-1,4.9632537E-1,9.951617E-1,9.951617E-1,-5.244988E-1,-5.244988E-1,4.9632537E-1,4.9632537E-1,4.9632537E-1,4.9632537E-1,9.951617E-1,9.951617E-1,9.951617E-1,9.951617E-1,9.951617E-1,9.951617E-1,1.768583E-1,1.9553018E-1,1.3249709E-1,1.4763668E-1,-1.3017483E0,-1.1228713E0,4.9632537E-1,4.9632537E-1,-9.230237E-1,-5.500811E-1,-1.4915565E0,-9.509507E-1,-6.199571E-1,-1.277898E0,-1.2182723E0,-9.509507E-1,-1.2918106E0,-3.708683E-1,-6.199571E-1,-1.1357902E0,3.777073E-1,8.4429346E-2,-1.2619978E0,-3.708683E-1,1.1882936E-1,1.3708538E-1,-1.0026263E0,-1.2177951E-1,-6.795273E-2,-7.6908685E-2,-5.746284E-2,-6.53531E-2,-5.4616578E-2,-6.191636E-2,-4.2294625E-2,-5.0400015E-2,-2.9705107E-2,-4.178765E-2,-4.449541E-2,-5.0800063E-2,-1.0107743E-2,-2.3706645E-2,-2.8548941E-2,-3.560278E-2,-1.8060548E-2,-1.0225369E-2,-1.8414557E-2,-2.714151E-2,1.5100089E-2,3.3794974E-3,-6.389723E-3,-1.2691016E-2,3.0461371E-2,2.0916319E-2,3.622886E-2,4.469318E-2,-6.070063E-4,5.8025434E-3,2.5260812E-2,1.6900731E-2,7.04734E-2,6.101176E-2,4.7269784E-2,3.8836673E-2,5.0948728E-2,5.6794625E-2,8.9114934E-2,8.1762545E-2,9.343861E-2,1.00734375E-1],"split_indices":[7,7,7,7,7,7,12,1,1,1,12,12,12,1,1,7,7,12,12,12,12,1,1,1,1,1,1,0,0,0,0,6,6,12,12,10,10,6,6,5,6,6,6,6,5,5,6,6,0,6,5,0,0,6,5,0,0,0,0,0,0,0,0,0,0,0,0,0,0,0,0,0,0,0,0,0,0,0,0,0,0,0,0,0,0,0,0,0,0,0,0,0,0,0,0,0,0],"split_type":[0,0,0,0,0,0,0,0,0,0,0,0,0,0,0,0,0,0,0,0,0,0,0,0,0,0,0,0,0,0,0,0,0,0,0,0,0,0,0,0,0,0,0,0,0,0,0,0,0,0,0,0,0,0,0,0,0,0,0,0,0,0,0,0,0,0,0,0,0,0,0,0,0,0,0,0,0,0,0,0,0,0,0,0,0,0,0,0,0,0,0,0,0,0,0,0,0],"sum_hessian":[2.8799E4,2.0174E4,8.625E3,1.4301E4,5.873E3,5.774E3,2.851E3,1.1412E4,2.889E3,2.95E3,2.923E3,2.932E3,2.842E3,5.44E2,2.307E3,5.695E3,5.717E3,1.406E3,1.483E3,1.464E3,1.486E3,5.87E2,2.336E3,5.72E2,2.36E3,5.83E2,2.259E3,2.61E2,2.83E2,1.17E3,1.137E3,4.207E3,1.488E3,4.335E3,1.382E3,2.77E2,1.129E3,3.24E2,1.159E3,2.57E2,1.207E3,2.79E2,1.207E3,2.85E2,3.02E2,1.148E3,1.188E3,2.87E2,2.85E2,1.211E3,1.149E3,2.85E2,2.98E2,1.118E3,1.141E3,5.49E2,3.658E3,2.65E2,1.223E3,8.58E2,3.477E3,2.74E2,1.108E3,4.1E1,2.36E2,3.64E2,7.65E2,1.9E1,3.05E2,2.46E2,9.13E2,7.6E1,1.81E2,1.49E2,1.058E3,3.8E1,2.41E2,2.47E2,9.6E2,4.5E1,2.4E2,8.4E1,2.18E2,2.98E2,8.5E2,2.23E2,9.65E2,1.69E2,1.18E2,1.63E2,1.048E3,3.83E2,7.66E2,2.3E2,8.88E2,5.02E2,6.39E2],"tree_param":{"num_deleted":"0","num_feature":"14","num_nodes":"97","size_leaf_vector":"1"}},{"base_weights":[-6.299062E-3,-8.1148213E-1,1.8871657E0,-1.1386667E0,-5.0096815E-3,1.4300423E0,2.822061E0,-1.2392923E0,-7.4439394E-1,-3.010374E-1,2.9619664E-1,1.0054718E0,1.8658328E0,3.54715E0,2.6585143E0,-1.3817878E0,-1.0962895E0,-8.931901E-1,-6.058037E-1,-4.50972E-1,-1.5415229E-1,6.2021536E-1,2.1460117E-1,1.4396962E0,8.9842844E-1,2.4305084E0,1.7184387E0,1.6756772E-1,1.8580931E-1,1.259496E-1,1.4010715E-1,-1.4401003E0,-1.2160023E0,-1.1502564E0,-9.304869E-1,-7.5305647E-1,-9.257543E-1,-4.3682984E-1,-6.514511E-1,-2.3710126E-1,-4.9710664E-1,1.02179654E-1,-2.1515903E-1,4.2267564E-1,8.028931E-1,7.356007E-2,3.5141337E-1,1.2740679E0,8.019974E-2,7.6621664E-1,1.0397784E0,1.1291569E-1,1.2956421E-1,1.5785009E0,1.852066E0,-6.780669E-2,-7.4096225E-2,-5.6804776E-2,-6.311211E-2,-4.9475227E-2,-5.8569927E-2,-4.394427E-2,-4.981165E-2,-2.8065985E-2,-3.9508447E-2,-4.1288253E-2,-4.8026156E-2,-2.4172785E-2,-1.7631415E-2,-2.6904663E-2,-3.3926774E-2,-1.6968466E-2,-9.5555335E-3,-2.0910617E-2,-2.6844783E-2,3.1015737E-4,8.727046E-3,-1.405922E-2,-8.8749295E-3,2.5953708E-2,1.8099625E-2,3.201098E-2,4.2057753E-2,9.761087E-3,2.4253204E-3,2.3420664E-2,1.599898E-2,6.723978E-2,5.776627E-2,3.2874677E-2,3.9685484E-2,5.587257E-2,4.9734086E-2,8.434074E-2,7.7391334E-2,8.813644E-2,9.50263E-2],"categories":[],"categories_nodes":[],"categories_segments":[],"categories_sizes":[],"default_left":[0,0,0,0,0,0,0,0,0,0,0,0,0,0,0,0,0,0,0,0,0,0,0,0,0,0,0,0,0,0,0,0,0,0,0,0,0,0,0,0,0,0,0,0,0,0,0,0,0,0,0,0,0,0,0,0,0,0,0,0,0,0,0,0,0,0,0,0,0,0,0,0,0,0,0,0,0,0,0,0,0,0,0,0,0,0,0,0,0,0,0,0,0,0,0,0,0],"id":7,"left_children":[1,3,5,7,9,11,13,15,17,19,21,23,25,27,29,31,33,35,37,39,41,43,45,47,49,51,53,-1,-1,-1,-1,55,57,59,61,63,65,67,69,71,73,75,77,79,81,83,85,87,-1,89,91,-1,-1,93,95,-1,-1,-1,-1,-1,-1,-1,-1,-1,-1,-1,-1,-1,-1,-1,-1,-1,-1,-1,-1,-1,-1,-1,-1,-1,-1,-1,-1,-1,-1,-1,-1,-1,-1,-1,-1,-1,-1,-1,-1,-1,-1],"loss_changes":[4.3990297E4,5.341835E3,3.6747031E3,5.702637E2,5.2117236E2,1.0680137E3,3.2507422E2,2.3200586E2,5.975122E1,6.479428E1,7.6375656E1,1.3475464E2,2.3286328E2,3.9501953E0,3.870117E1,5.3493164E1,5.0001953E1,5.5738525E0,1.1338379E1,1.419455E1,2.3349499E1,2.0540176E1,4.462152E1,1.3397461E1,4.3033203E1,9.941895E0,3.9106934E1,0E0,0E0,0E0,0E0,1.2603516E1,3.8720703E0,1.3303223E1,3.7305908E0,1.3568115E0,2.991394E0,1.029705E0,3.18219E0,1.1096745E0,3.4406128E0,1.9740522E0,2.9005127E0,1.3736267E0,1.1868286E0,3.447053E0,4.092621E0,6.5701294E-1,0E0,2.982727E0,2.652954E0,0E0,0E0,7.6660156E-1,1.2749023E0,0E0,0E0,0E0,0E0,0E0,0E0,0E0,0E0,0E0,0E0,0E0,0E0,0E0,0E0,0E0,0E0,0E0,0E0,0E0,0E0,0E0,0E0,0E0,0E0,0E0,0E0,0E0,0E0,0E0,0E0,0E0,0E0,0E0,0E0,0E0,0E0,0E0,0E0,0E0,0E0,0E0,0E0],"parents":[2147483647,0,0,1,1,2,2,3,3,4,4,5,5,6,6,7,7,8,8,9,9,10,10,11,11,12,12,13,13,14,14,15,15,16,16,17,17,18,18,19,19,20,20,21,21,22,22,23,23,24,24,25,25,26,26,31,31,32,32,33,33,34,34,35,35,36,36,37,37,38,38,39,39,40,40,41,41,42,42,43,43,44,44,45,45,46,46,47,47,49,49,50,50,53,53,54,54],"right_children":[2,4,6,8,10,12,14,16,18,20,22,24,26,28,30,32,34,36,38,40,42,44,46,48,50,52,54,-1,-1,-1,-1,56,58,60,62,64,66,68,70,72,74,76,78,80,82,84,86,88,-1,90,92,-1,-1,94,96,-1,-1,-1,-1,-1,-1,-1,-1,-1,-1,-1,-1,-1,-1,-1,-1,-1,-1,-1,-1,-1,-1,-1,-1,-1,-1,-1,-1,-1,-1,-1,-1,-1,-1,-1,-1,-1,-1,-1,-1,-1,-1],"split_conditions":[8.728605E-1,1.7418084E-1,1.5715401E0,-1.7515899E-1,5.2352065E-1,1.2222003E0,4.9632537E-1,9.951617E-1,9.951617E-1,9.951617E-1,4.9632537E-1,4.9632537E-1,4.9632537E-1,9.951617E-1,9.951617E-1,-5.244988E-1,-5.244988E-1,4.9632537E-1,4.9632537E-1,4.9632537E-1,4.9632537E-1,9.951617E-1,9.951617E-1,9.951617E-1,9.951617E-1,9.951617E-1,9.951617E-1,1.6756772E-1,1.8580931E-1,1.259496E-1,1.4010715E-1,-5.3035134E-1,-4.6997055E-1,-1.3146671E0,4.312637E-2,-1.148709E0,-8.3269316E-1,6.316173E-1,-1.0145514E0,-6.199571E-1,-5.3854E-1,-1.2177951E-1,-3.708683E-1,-3.6421683E-1,-6.199571E-1,-1.161628E0,-1.0294578E0,3.777073E-1,8.019974E-2,-8.6904585E-1,-4.3777335E-1,1.1291569E-1,1.2956421E-1,-9.7678846E-1,-3.708683E-1,-6.780669E-2,-7.4096225E-2,-5.6804776E-2,-6.311211E-2,-4.9475227E-2,-5.8569927E-2,-4.394427E-2,-4.981165E-2,-2.8065985E-2,-3.9508447E-2,-4.1288253E-2,-4.8026156E-2,-2.4172785E-2,-1.7631415E-2,-2.6904663E-2,-3.3926774E-2,-1.6968466E-2,-9.5555335E-3,-2.0910617E-2,-2.6844783E-2,3.1015737E-4,8.727046E-3,-1.405922E-2,-8.8749295E-3,2.5953708E-2,1.8099625E-2,3.201098E-2,4.2057753E-2,9.761087E-3,2.4253204E-3,2.3420664E-2,1.599898E-2,6.723978E-2,5.776627E-2,3.2874677E-2,3.9685484E-2,5.587257E-2,4.9734086E-2,8.434074E-2,7.7391334E-2,8.813644E-2,9.50263E-2],"split_indices":[7,7,7,7,7,7,12,1,1,1,12,12,12,1,1,7,7,12,12,12,12,1,1,1,1,1,1,0,0,0,0,10,6,6,10,6,6,8,6,5,6,5,5,10,5,6,6,6,0,5,10,0,0,6,5,0,0,0,0,0,0,0,0,0,0,0,0,0,0,0,0,0,0,0,0,0,0,0,0,0,0,0,0,0,0,0,0,0,0,0,0,0,0,0,0,0,0],"split_type":[0,0,0,0,0,0,0,0,0,0,0,0,0,0,0,0,0,0,0,0,0,0,0,0,0,0,0,0,0,0,0,0,0,0,0,0,0,0,0,0,0,0,0,0,0,0,0,0,0,0,0,0,0,0,0,0,0,0,0,0,0,0,0,0,0,0,0,0,0,0,0,0,0,0,0,0,0,0,0,0,0,0,0,0,0,0,0,0,0,0,0,0,0,0,0,0,0],"sum_hessian":[2.8852E4,2.0244E4,8.608E3,1.4401E4,5.843E3,5.783E3,2.825E3,1.1471E4,2.93E3,2.947E3,2.896E3,2.931E3,2.852E3,5.16E2,2.309E3,5.741E3,5.73E3,1.41E3,1.52E3,1.457E3,1.49E3,5.81E2,2.315E3,5.77E2,2.354E3,5.87E2,2.265E3,2.49E2,2.67E2,1.181E3,1.128E3,4.241E3,1.5E3,4.318E3,1.412E3,2.71E2,1.139E3,3.26E2,1.194E3,2.6E2,1.197E3,2.86E2,1.204E3,2.81E2,3E2,1.141E3,1.174E3,2.92E2,2.85E2,1.22E3,1.134E3,2.91E2,2.96E2,1.113E3,1.152E3,1.422E3,2.819E3,5.6E2,9.4E2,5.08E2,3.81E3,8E2,6.12E2,4.7E1,2.24E2,3.01E2,8.38E2,2.06E2,1.2E2,2.35E2,9.59E2,7.8E1,1.82E2,4.06E2,7.91E2,1.24E2,1.62E2,4.34E2,7.7E2,1.05E2,1.76E2,6.1E1,2.39E2,1.93E2,9.48E2,2.45E2,9.29E2,1.76E2,1.16E2,2.52E2,9.68E2,4.07E2,7.27E2,2.33E2,8.8E2,4.19E2,7.33E2],"tree_param":{"num_deleted":"0","num_feature":"14","num_nodes":"97","size_leaf_vector":"1"}},{"base_weights":[-1.7715074E-4,-7.6993644E-1,1.7988293E0,-1.081203E0,-2.9761065E-3,1.3615386E0,2.683161E0,-1.1768174E0,-7.0520175E-1,-2.8470588E-1,2.8577054E-1,9.5252556E-1,1.7764618E0,3.380076E0,2.5220594E0,-1.3129551E0,-1.0398836E0,-8.4857196E-1,-5.730995E-1,-4.2666575E-1,-1.4113012E-1,5.936623E-1,2.0738855E-1,1.363864E0,8.5439867E-1,2.3098307E0,1.6369052E0,1.5998097E-1,1.770552E-1,2.392046E0,1.3277422E-1,-1.3677657E0,-1.1557835E0,-1.0911278E0,-8.8430166E-1,-9.131214E-1,-7.863874E-1,-4.143842E-1,-6.1688775E-1,-2.299262E-1,-4.7002357E-1,1.00645356E-1,-1.9878723E-1,4.1696444E-1,7.5524133E-1,7.165471E-2,3.3527663E-1,1.2118245E0,1.5117464E0,7.26868E-1,9.9063915E-1,1.07146524E-1,1.231336E-1,1.5030948E0,1.7622474E0,1.1641204E-1,1.2419426E-1,-5.9683092E-2,-6.9322444E-2,-6.0963422E-2,-5.5039544E-2,-5.7930984E-2,-5.2232604E-2,-4.7240455E-2,-4.1037507E-2,-4.790152E-2,-4.1558497E-2,-3.2406684E-2,-4.1033484E-2,-1.3193279E-2,-2.2051906E-2,-3.427988E-2,-2.8237877E-2,-1.4633833E-2,-7.225585E-3,-1.8522253E-2,-2.5040036E-2,1.5278481E-2,3.4567935E-3,-1.3080795E-2,-7.945239E-3,2.7500996E-2,1.8816382E-2,3.2212507E-2,4.055923E-2,-2.0931938E-3,4.962212E-3,1.21627515E-2,1.8688913E-2,6.375028E-2,5.5360425E-2,7.142711E-2,8.146666E-2,3.930741E-2,3.325716E-2,4.723649E-2,5.2948173E-2,7.1924195E-2,7.788087E-2,8.485832E-2,9.185292E-2],"categories":[],"categories_nodes":[],"categories_segments":[],"categories_sizes":[],"default_left":[0,0,0,0,0,0,0,0,0,0,0,0,0,0,0,0,0,0,0,0,0,0,0,0,0,0,0,0,0,0,0,0,0,0,0,0,0,0,0,0,0,0,0,0,0,0,0,0,0,0,0,0,0,0,0,0,0,0,0,0,0,0,0,0,0,0,0,0,0,0,0,0,0,0,0,0,0,0,0,0,0,0,0,0,0,0,0,0,0,0,0,0,0,0,0,0,0,0,0,0,0],"id":8,"left_children":[1,3,5,7,9,11,13,15,17,19,21,23,25,27,29,31,33,35,37,39,41,43,45,47,49,51,53,-1,-1,55,-1,57,59,61,63,65,67,69,71,73,75,77,79,81,83,85,87,89,91,93,95,-1,-1,97,99,-1,-1,-1,-1,-1,-1,-1,-1,-1,-1,-1,-1,-1,-1,-1,-1,-1,-1,-1,-1,-1,-1,-1,-1,-1,-1,-1,-1,-1,-1,-1,-1,-1,-1,-1,-1,-1,-1,-1,-1,-1,-1,-1,-1,-1,-1],"loss_changes":[3.9890504E4,4.816007E3,3.3340215E3,5.148828E2,4.7393643E2,9.7861426E2,3.114297E2,2.1164258E2,5.4523315E1,5.9989517E1,6.9227905E1,1.1615088E2,2.0922949E2,3.4833984E0,3.344043E1,4.754492E1,4.434619E1,4.7074585E0,1.019809E1,1.2463684E1,2.0493853E1,1.6212921E1,3.9773598E1,1.0464233E1,4.0008667E1,9.363525E0,3.5197266E1,0E0,0E0,6.9140625E-1,0E0,1.189209E1,3.6242676E0,1.2022949E1,4.508301E0,1.5164185E0,2.7243042E0,1.1450882E0,3.7430115E0,1.3611317E0,3.4448853E0,1.7687511E0,2.8882103E0,1.2197304E0,1.2132416E0,3.5019875E0,4.0316315E0,2.0739746E-1,9.631348E-2,3.7960815E0,2.359375E0,0E0,0E0,1.3630371E0,2.2207031E0,0E0,0E0,0E0,0E0,0E0,0E0,0E0,0E0,0E0,0E0,0E0,0E0,0E0,0E0,0E0,0E0,0E0,0E0,0E0,0E0,0E0,0E0,0E0,0E0,0E0,0E0,0E0,0E0,0E0,0E0,0E0,0E0,0E0,0E0,0E0,0E0,0E0,0E0,0E0,0E0,0E0,0E0,0E0,0E0,0E0,0E0],"parents":[2147483647,0,0,1,1,2,2,3,3,4,4,5,5,6,6,7,7,8,8,9,9,10,10,11,11,12,12,13,13,14,14,15,15,16,16,17,17,18,18,19,19,20,20,21,21,22,22,23,23,24,24,25,25,26,26,29,29,31,31,32,32,33,33,34,34,35,35,36,36,37,37,38,38,39,39,40,40,41,41,42,42,43,43,44,44,45,45,46,46,47,47,48,48,49,49,50,50,53,53,54,54],"right_children":[2,4,6,8,10,12,14,16,18,20,22,24,26,28,30,32,34,36,38,40,42,44,46,48,50,52,54,-1,-1,56,-1,58,60,62,64,66,68,70,72,74,76,78,80,82,84,86,88,90,92,94,96,-1,-1,98,100,-1,-1,-1,-1,-1,-1,-1,-1,-1,-1,-1,-1,-1,-1,-1,-1,-1,-1,-1,-1,-1,-1,-1,-1,-1,-1,-1,-1,-1,-1,-1,-1,-1,-1,-1,-1,-1,-1,-1,-1,-1,-1,-1,-1,-1,-1],"split_conditions":[8.728605E-1,1.7418084E-1,1.5715401E0,-1.7515899E-1,5.2352065E-1,1.2222003E0,4.9632537E-1,9.951617E-1,9.951617E-1,9.951617E-1,4.9632537E-1,4.9632537E-1,4.9632537E-1,9.951617E-1,9.951617E-1,-5.244988E-1,-5.244988E-1,-7.4085346E-3,4.9632537E-1,4.9632537E-1,4.9632537E-1,9.951617E-1,9.951617E-1,9.951617E-1,9.951617E-1,9.951617E-1,9.951617E-1,1.5998097E-1,1.770552E-1,3.2681108E-1,1.3277422E-1,-1.4200058E0,-1.1881507E-1,-2.3022161E-1,1.03998005E-1,6.316173E-1,4.9632537E-1,-1.1775281E0,-2.3022161E-1,3.1574547E-1,-9.380318E-1,-1.2182723E0,-3.1599817E-1,-1.0413829E0,-2.3022161E-1,-8.6904585E-1,-6.7584777E-1,3.777073E-1,5.4962415E-1,-1.5781341E-1,5.2616656E-1,1.07146524E-1,1.231336E-1,-7.4085346E-3,2.1540454E-1,1.1641204E-1,1.2419426E-1,-5.9683092E-2,-6.9322444E-2,-6.0963422E-2,-5.5039544E-2,-5.7930984E-2,-5.2232604E-2,-4.7240455E-2,-4.1037507E-2,-4.790152E-2,-4.1558497E-2,-3.2406684E-2,-4.1033484E-2,-1.3193279E-2,-2.2051906E-2,-3.427988E-2,-2.8237877E-2,-1.4633833E-2,-7.225585E-3,-1.8522253E-2,-2.5040036E-2,1.5278481E-2,3.4567935E-3,-1.3080795E-2,-7.945239E-3,2.7500996E-2,1.8816382E-2,3.2212507E-2,4.055923E-2,-2.0931938E-3,4.962212E-3,1.21627515E-2,1.8688913E-2,6.375028E-2,5.5360425E-2,7.142711E-2,8.146666E-2,3.930741E-2,3.325716E-2,4.723649E-2,5.2948173E-2,7.1924195E-2,7.788087E-2,8.485832E-2,9.185292E-2],"split_indices":[7,7,7,7,7,7,12,1,1,1,12,12,12,1,1,7,7,9,12,12,12,1,1,1,1,1,1,0,0,9,0,6,9,9,9,8,12,6,9,8,6,6,8,6,9,5,9,6,9,10,0,0,0,9,9,0,0,0,0,0,0,0,0,0,0,0,0,0,0,0,0,0,0,0,0,0,0,0,0,0,0,0,0,0,0,0,0,0,0,0,0,0,0,0,0,0,0,0,0,0,0],"split_type":[0,0,0,0,0,0,0,0,0,0,0,0,0,0,0,0,0,0,0,0,0,0,0,0,0,0,0,0,0,0,0,0,0,0,0,0,0,0,0,0,0,0,0,0,0,0,0,0,0,0,0,0,0,0,0,0,0,0,0,0,0,0,0,0,0,0,0,0,0,0,0,0,0,0,0,0,0,0,0,0,0,0,0,0,0,0,0,0,0,0,0,0,0,0,0,0,0,0,0,0,0],"sum_hessian":[2.8804E4,2.0173E4,8.631E3,1.4349E4,5.824E3,5.777E3,2.854E3,1.1438E4,2.911E3,2.948E3,2.876E3,2.911E3,2.866E3,5.32E2,2.322E3,5.731E3,5.707E3,1.393E3,1.518E3,1.481E3,1.467E3,5.82E2,2.294E3,5.58E2,2.353E3,5.91E2,2.275E3,2.61E2,2.71E2,1.186E3,1.136E3,4.243E3,1.488E3,4.288E3,1.419E3,6.76E2,7.17E2,3.31E2,1.187E3,2.69E2,1.212E3,2.82E2,1.185E3,2.8E2,3.02E2,1.114E3,1.18E3,2.8E2,2.78E2,1.219E3,1.134E3,2.9E2,3.01E2,1.107E3,1.168E3,7.16E2,4.7E2,4.18E2,3.825E3,6.8E2,8.08E2,1.738E3,2.55E3,7.19E2,7E2,4.29E2,2.47E2,1.47E2,5.7E2,5.2E1,2.79E2,5.06E2,6.81E2,1.53E2,1.16E2,2.9E2,9.22E2,3.6E1,2.46E2,4.57E2,7.28E2,6.2E1,2.18E2,1.06E2,1.96E2,2.17E2,8.97E2,3.51E2,8.29E2,1.67E2,1.13E2,1.71E2,1.07E2,6.15E2,6.04E2,6.88E2,4.46E2,5.2E2,5.87E2,6.38E2,5.3E2],"tree_param":{"num_deleted":"0","num_feature":"14","num_nodes":"101","size_leaf_vector":"1"}},{"base_weights":[3.2788058E-4,-7.3084825E-1,1.7082769E0,-1.027187E0,-3.0621646E-3,1.2908369E0,2.5536246E0,-1.1194359E0,-6.694571E-1,-2.7256346E-1,2.6807004E-1,9.075315E-1,1.686709E0,3.1947215E0,2.4028537E0,-1.2471654E0,-9.9011874E-1,-8.079223E-1,-5.429667E-1,-4.078366E-1,-1.3758902E-1,5.595433E-1,1.9444922E-1,1.3034848E0,8.1066674E-1,2.1978061E0,1.5515729E0,1.5156E-1,1.6685282E-1,1.1390056E-1,1.2642269E-1,-1.2999481E0,-1.0941197E0,-1.0374823E0,-8.4128106E-1,-6.111534E-1,-8.250916E-1,-3.9455196E-1,-5.837154E-1,-2.155096E-1,-4.4891307E-1,8.835025E-2,-1.9137962E-1,3.8768342E-1,7.168443E-1,7.04214E-2,3.1424773E-1,1.1557416E0,1.4473809E0,6.902616E-1,9.3717957E-1,1.0148352E-1,1.17638305E-1,1.4262944E0,1.6698836E0,-6.1330922E-2,-6.712776E-2,-5.732085E-2,-5.1881667E-2,-5.4977853E-2,-4.9283944E-2,-3.9142687E-2,-4.489617E-2,-2.1368537E-2,-3.2768104E-2,-3.5603162E-2,-4.2563185E-2,-1.6114708E-2,-2.2778487E-2,-3.1801727E-2,-2.6595086E-2,-1.3723037E-2,-6.775357E-3,-1.704338E-2,-2.3711106E-2,1.2671667E-2,2.6135582E-3,-1.1718957E-2,-6.7366115E-3,2.4109116E-2,1.6723882E-2,4.1011795E-2,3.2857355E-2,4.8361058E-4,5.913993E-3,1.2546985E-2,1.8224744E-2,5.205372E-2,6.0460117E-2,7.860598E-2,6.886586E-2,3.239734E-2,3.818225E-2,5.0399996E-2,4.4797488E-2,7.73542E-2,7.00159E-2,8.620227E-2,7.9473525E-2],"categories":[],"categories_nodes":[],"categories_segments":[],"categories_sizes":[],"default_left":[0,0,0,0,0,0,0,0,0,0,0,0,0,0,0,0,0,0,0,0,0,0,0,0,0,0,0,0,0,0,0,0,0,0,0,0,0,0,0,0,0,0,0,0,0,0,0,0,0,0,0,0,0,0,0,0,0,0,0,0,0,0,0,0,0,0,0,0,0,0,0,0,0,0,0,0,0,0,0,0,0,0,0,0,0,0,0,0,0,0,0,0,0,0,0,0,0,0,0],"id":9,"left_children":[1,3,5,7,9,11,13,15,17,19,21,23,25,27,29,31,33,35,37,39,41,43,45,47,49,51,53,-1,-1,-1,-1,55,57,59,61,63,65,67,69,71,73,75,77,79,81,83,85,87,89,91,93,-1,-1,95,97,-1,-1,-1,-1,-1,-1,-1,-1,-1,-1,-1,-1,-1,-1,-1,-1,-1,-1,-1,-1,-1,-1,-1,-1,-1,-1,-1,-1,-1,-1,-1,-1,-1,-1,-1,-1,-1,-1,-1,-1,-1,-1,-1,-1],"loss_changes":[3.603081E4,4.3570986E3,3.0483965E3,4.728545E2,4.273166E2,8.770879E2,2.6801367E2,1.8704102E2,5.1023926E1,5.344127E1,6.2367325E1,1.1168408E2,1.9291992E2,1.8393555E0,3.0106445E1,4.4682617E1,3.895215E1,4.095337E0,9.0034485E0,1.1402573E1,1.7892717E1,1.5480438E1,3.4544495E1,1.0333801E1,3.5276733E1,1.0236572E1,3.0746094E1,0E0,0E0,0E0,0E0,1.140625E1,2.958252E0,1.2538574E1,3.6828003E0,5.622444E-1,3.0476685E0,1.256813E0,2.8196106E0,1.1480341E0,3.0519562E0,1.6417439E0,2.8252525E0,1.1799469E0,1.195755E0,3.3178988E0,3.61335E0,2.9385376E-1,5.6762695E-2,3.1461792E0,2.2702637E0,0E0,0E0,9.9975586E-1,1.9543457E0,0E0,0E0,0E0,0E0,0E0,0E0,0E0,0E0,0E0,0E0,0E0,0E0,0E0,0E0,0E0,0E0,0E0,0E0,0E0,0E0,0E0,0E0,0E0,0E0,0E0,0E0,0E0,0E0,0E0,0E0,0E0,0E0,0E0,0E0,0E0,0E0,0E0,0E0,0E0,0E0,0E0,0E0,0E0,0E0],"parents":[2147483647,0,0,1,1,2,2,3,3,4,4,5,5,6,6,7,7,8,8,9,9,10,10,11,11,12,12,13,13,14,14,15,15,16,16,17,17,18,18,19,19,20,20,21,21,22,22,23,23,24,24,25,25,26,26,31,31,32,32,33,33,34,34,35,35,36,36,37,37,38,38,39,39,40,40,41,41,42,42,43,43,44,44,45,45,46,46,47,47,48,48,49,49,50,50,53,53,54,54],"right_children":[2,4,6,8,10,12,14,16,18,20,22,24,26,28,30,32,34,36,38,40,42,44,46,48,50,52,54,-1,-1,-1,-1,56,58,60,62,64,66,68,70,72,74,76,78,80,82,84,86,88,90,92,94,-1,-1,96,98,-1,-1,-1,-1,-1,-1,-1,-1,-1,-1,-1,-1,-1,-1,-1,-1,-1,-1,-1,-1,-1,-1,-1,-1,-1,-1,-1,-1,-1,-1,-1,-1,-1,-1,-1,-1,-1,-1,-1,-1,-1,-1,-1,-1],"split_conditions":[8.728605E-1,1.7418084E-1,1.5715401E0,-1.7515899E-1,5.2352065E-1,1.2222003E0,4.9632537E-1,9.951617E-1,9.951617E-1,9.951617E-1,4.9632537E-1,4.9632537E-1,4.9632537E-1,9.951617E-1,9.951617E-1,-5.244988E-1,-5.244988E-1,-1.2252429E0,4.9632537E-1,4.9632537E-1,4.9632537E-1,9.951617E-1,9.951617E-1,9.951617E-1,9.951617E-1,9.951617E-1,9.951617E-1,1.5156E-1,1.6685282E-1,1.1390056E-1,1.2642269E-1,-4.5952663E-1,3.1574547E-1,-1.2634874E-4,-1.3069768E-1,4.9632537E-1,4.9632537E-1,-2.0587304E-1,1.2730928E-1,3.1574547E-1,-9.030916E-1,-8.499731E-1,3.1574547E-1,-3.906243E-1,-5.3996325E-1,-1.2634874E-4,-1.2634874E-4,-3.708683E-1,-5.3035134E-1,6.316173E-1,-4.3777335E-1,1.0148352E-1,1.17638305E-1,-9.436641E-1,1.003932E-1,-6.1330922E-2,-6.712776E-2,-5.732085E-2,-5.1881667E-2,-5.4977853E-2,-4.9283944E-2,-3.9142687E-2,-4.489617E-2,-2.1368537E-2,-3.2768104E-2,-3.5603162E-2,-4.2563185E-2,-1.6114708E-2,-2.2778487E-2,-3.1801727E-2,-2.6595086E-2,-1.3723037E-2,-6.775357E-3,-1.704338E-2,-2.3711106E-2,1.2671667E-2,2.6135582E-3,-1.1718957E-2,-6.7366115E-3,2.4109116E-2,1.6723882E-2,4.1011795E-2,3.2857355E-2,4.8361058E-4,5.913993E-3,1.2546985E-2,1.8224744E-2,5.205372E-2,6.0460117E-2,7.860598E-2,6.886586E-2,3.239734E-2,3.818225E-2,5.0399996E-2,4.4797488E-2,7.73542E-2,7.00159E-2,8.620227E-2,7.9473525E-2],"split_indices":[7,7,7,7,7,7,12,1,1,1,12,12,12,1,1,7,7,10,12,12,12,1,1,1,1,1,1,0,0,0,0,10,8,8,10,12,12,10,5,8,10,10,8,10,10,8,8,5,10,8,10,0,0,10,10,0,0,0,0,0,0,0,0,0,0,0,0,0,0,0,0,0,0,0,0,0,0,0,0,0,0,0,0,0,0,0,0,0,0,0,0,0,0,0,0,0,0,0,0],"split_type":[0,0,0,0,0,0,0,0,0,0,0,0,0,0,0,0,0,0,0,0,0,0,0,0,0,0,0,0,0,0,0,0,0,0,0,0,0,0,0,0,0,0,0,0,0,0,0,0,0,0,0,0,0,0,0,0,0,0,0,0,0,0,0,0,0,0,0,0,0,0,0,0,0,0,0,0,0,0,0,0,0,0,0,0,0,0,0,0,0,0,0,0,0,0,0,0,0,0,0],"sum_hessian":[2.885E4,2.0202E4,8.648E3,1.4356E4,5.846E3,5.791E3,2.857E3,1.1411E4,2.945E3,2.932E3,2.914E3,2.944E3,2.847E3,5.4E2,2.317E3,5.736E3,5.675E3,1.403E3,1.542E3,1.463E3,1.469E3,5.86E2,2.328E3,5.76E2,2.368E3,5.92E2,2.255E3,2.62E2,2.78E2,1.172E3,1.145E3,4.259E3,1.477E3,4.3E3,1.375E3,1.16E2,1.287E3,3.35E2,1.207E3,2.59E2,1.204E3,2.82E2,1.187E3,2.82E2,3.04E2,1.145E3,1.183E3,2.89E2,2.87E2,1.217E3,1.151E3,2.91E2,3.01E2,1.102E3,1.153E3,1.577E3,2.682E3,7.56E2,7.21E2,1.946E3,2.354E3,6.85E2,6.9E2,2.5E1,9.1E1,2.48E2,1.039E3,1.57E2,1.78E2,5.94E2,6.13E2,1.47E2,1.12E2,2.32E2,9.72E2,4.9E1,2.33E2,6.72E2,5.15E2,9.8E1,1.84E2,1.06E2,1.98E2,5.06E2,6.39E2,5.27E2,6.56E2,9.9E1,1.9E2,9.5E1,1.92E2,7.79E2,4.38E2,4.14E2,7.37E2,1.84E2,9.18E2,6.76E2,4.77E2],"tree_param":{"num_deleted":"0","num_feature":"14","num_nodes":"99","size_leaf_vector":"1"}},{"base_weights":[-4.304762E-3,-6.952164E-1,1.6215007E0,-9.7678614E-1,-5.3236806E-3,1.227808E0,2.4243195E0,-1.0626528E0,-6.401918E-1,-2.5985903E-1,2.542732E-1,8.607547E-1,1.6000476E0,3.0436773E0,2.2797282E0,-1.1848522E0,-9.39498E-1,-7.6814455E-1,-5.1824045E-1,-3.87249E-1,-1.2899418E-1,5.3515005E-1,1.8402237E-1,1.2429869E0,7.683797E-1,2.080898E0,1.4737294E0,1.4448898E-1,1.5890838E-1,2.1573477E0,1.2020066E-1,-1.2342352E0,-1.0415243E0,-9.856415E-1,-7.9705924E-1,-8.5805213E-1,-7.24251E-1,-3.7461054E-1,-5.571973E-1,-2.0605208E-1,-4.2597556E-1,9.1134585E-2,-1.8231706E-1,3.6723372E-1,6.886833E-1,6.294179E-2,3.0268902E-1,1.0999445E0,1.385315E0,6.5323424E-1,8.912211E-1,9.633719E-2,1.1106204E-1,1.3510513E0,1.5883241E0,1.0532763E-1,1.1380526E-1,-6.4485125E-2,-5.8982033E-2,-4.7370095E-2,-5.378458E-2,-4.346654E-2,-5.063797E-2,-4.2748313E-2,-3.6834396E-2,-4.676127E-2,-4.0672116E-2,-3.0077899E-2,-3.7736457E-2,-6.502744E-3,-1.9542715E-2,-3.104266E-2,-2.5440542E-2,-1.41003905E-2,-6.9024074E-3,-2.4520053E-2,-1.9058127E-2,-3.6499303E-4,7.6810406E-3,-1.1645812E-2,-6.540219E-3,1.5126392E-2,2.260538E-2,2.910978E-2,3.7112486E-2,-7.39822E-4,5.1031127E-3,1.7635651E-2,1.2013667E-2,6.358712E-2,5.274893E-2,6.03605E-2,7.1948476E-2,3.010573E-2,3.5604373E-2,5.1161297E-2,4.3316122E-2,7.3016785E-2,6.604583E-2,7.3606476E-2,8.129366E-2],"categories":[],"categories_nodes":[],"categories_segments":[],"categories_sizes":[],"default_left":[0,0,0,0,0,0,0,0,0,0,0,0,0,0,0,0,0,0,0,0,0,0,0,0,0,0,0,0,0,0,0,0,0,0,0,0,0,0,0,0,0,0,0,0,0,0,0,0,0,0,0,0,0,0,0,0,0,0,0,0,0,0,0,0,0,0,0,0,0,0,0,0,0,0,0,0,0,0,0,0,0,0,0,0,0,0,0,0,0,0,0,0,0,0,0,0,0,0,0,0,0],"id":10,"left_children":[1,3,5,7,9,11,13,15,17,19,21,23,25,27,29,31,33,35,37,39,41,43,45,47,49,51,53,-1,-1,55,-1,57,59,61,63,65,67,69,71,73,75,77,79,81,83,85,87,89,91,93,95,-1,-1,97,99,-1,-1,-1,-1,-1,-1,-1,-1,-1,-1,-1,-1,-1,-1,-1,-1,-1,-1,-1,-1,-1,-1,-1,-1,-1,-1,-1,-1,-1,-1,-1,-1,-1,-1,-1,-1,-1,-1,-1,-1,-1,-1,-1,-1,-1,-1],"loss_changes":[3.2316904E4,3.9218633E3,2.7084863E3,4.135498E2,3.8681284E2,7.8523926E2,2.4525E2,1.7056934E2,4.4990112E1,4.9177505E1,5.701245E1,1.0130957E2,1.7017236E2,1.199707E0,2.9219727E1,3.9036133E1,3.646045E1,4.828186E0,8.074341E0,1.0353683E1,1.7163067E1,1.4568558E1,3.3278664E1,9.689819E0,3.2361816E1,8.113037E0,2.9430664E1,0E0,0E0,1.7944336E0,0E0,1.1116699E1,3.5219727E0,1.2481445E1,4.1018066E0,6.4797974E-1,3.0076904E0,1.180191E0,3.1902466E0,1.2930298E0,3.2828217E0,1.7687311E0,2.9984055E0,1.3199806E0,1.1523743E0,3.5075655E0,3.5121536E0,6.350403E-1,6.548462E-1,3.0861816E0,2.635315E0,0E0,0E0,1.4221191E0,2.383789E0,0E0,0E0,0E0,0E0,0E0,0E0,0E0,0E0,0E0,0E0,0E0,0E0,0E0,0E0,0E0,0E0,0E0,0E0,0E0,0E0,0E0,0E0,0E0,0E0,0E0,0E0,0E0,0E0,0E0,0E0,0E0,0E0,0E0,0E0,0E0,0E0,0E0,0E0,0E0,0E0,0E0,0E0,0E0,0E0,0E0,0E0],"parents":[2147483647,0,0,1,1,2,2,3,3,4,4,5,5,6,6,7,7,8,8,9,9,10,10,11,11,12,12,13,13,14,14,15,15,16,16,17,17,18,18,19,19,20,20,21,21,22,22,23,23,24,24,25,25,26,26,29,29,31,31,32,32,33,33,34,34,35,35,36,36,37,37,38,38,39,39,40,40,41,41,42,42,43,43,44,44,45,45,46,46,47,47,48,48,49,49,50,50,53,53,54,54],"right_children":[2,4,6,8,10,12,14,16,18,20,22,24,26,28,30,32,34,36,38,40,42,44,46,48,50,52,54,-1,-1,56,-1,58,60,62,64,66,68,70,72,74,76,78,80,82,84,86,88,90,92,94,96,-1,-1,98,100,-1,-1,-1,-1,-1,-1,-1,-1,-1,-1,-1,-1,-1,-1,-1,-1,-1,-1,-1,-1,-1,-1,-1,-1,-1,-1,-1,-1,-1,-1,-1,-1,-1,-1,-1,-1,-1,-1,-1,-1,-1,-1,-1,-1,-1,-1],"split_conditions":[8.728605E-1,1.7418084E-1,1.5715401E0,-1.7515899E-1,5.2352065E-1,1.2222003E0,4.9632537E-1,9.951617E-1,9.951617E-1,9.951617E-1,4.9632537E-1,4.9632537E-1,4.9632537E-1,9.951617E-1,9.951617E-1,-5.244988E-1,-5.244988E-1,-5.644412E-1,4.9632537E-1,4.9632537E-1,4.9632537E-1,9.951617E-1,9.951617E-1,9.951617E-1,9.951617E-1,9.951617E-1,9.951617E-1,1.4448898E-1,1.5890838E-1,7.724372E-1,1.2020066E-1,-7.4085346E-3,-8.446183E-1,-1.053308E0,1.03998005E-1,-6.199571E-1,4.9632537E-1,-1.5054692E0,-2.3022161E-1,-7.4085346E-3,-3.4162816E-1,-3.708683E-1,-7.4085346E-3,2.1540454E-1,-2.3022161E-1,-5.644412E-1,1.6111808E-2,-1.0801396E0,-8.9866084E-1,2.1540454E-1,-1.2331787E0,9.633719E-2,1.1106204E-1,-9.7678846E-1,-7.8725433E-1,1.0532763E-1,1.1380526E-1,-6.4485125E-2,-5.8982033E-2,-4.7370095E-2,-5.378458E-2,-4.346654E-2,-5.063797E-2,-4.2748313E-2,-3.6834396E-2,-4.676127E-2,-4.0672116E-2,-3.0077899E-2,-3.7736457E-2,-6.502744E-3,-1.9542715E-2,-3.104266E-2,-2.5440542E-2,-1.41003905E-2,-6.9024074E-3,-2.4520053E-2,-1.9058127E-2,-3.6499303E-4,7.6810406E-3,-1.1645812E-2,-6.540219E-3,1.5126392E-2,2.260538E-2,2.910978E-2,3.7112486E-2,-7.39822E-4,5.1031127E-3,1.7635651E-2,1.2013667E-2,6.358712E-2,5.274893E-2,6.03605E-2,7.1948476E-2,3.010573E-2,3.5604373E-2,5.1161297E-2,4.3316122E-2,7.3016785E-2,6.604583E-2,7.3606476E-2,8.129366E-2],"split_indices":[7,7,7,7,7,7,12,1,1,1,12,12,12,1,1,7,7,9,12,12,12,1,1,1,1,1,1,0,0,9,0,9,6,6,9,5,12,6,9,9,9,5,9,9,9,9,10,6,9,9,6,0,0,6,9,0,0,0,0,0,0,0,0,0,0,0,0,0,0,0,0,0,0,0,0,0,0,0,0,0,0,0,0,0,0,0,0,0,0,0,0,0,0,0,0,0,0,0,0,0,0],"split_type":[0,0,0,0,0,0,0,0,0,0,0,0,0,0,0,0,0,0,0,0,0,0,0,0,0,0,0,0,0,0,0,0,0,0,0,0,0,0,0,0,0,0,0,0,0,0,0,0,0,0,0,0,0,0,0,0,0,0,0,0,0,0,0,0,0,0,0,0,0,0,0,0,0,0,0,0,0,0,0,0,0,0,0,0,0,0,0,0,0,0,0,0,0,0,0,0,0,0,0,0,0],"sum_hessian":[2.8768E4,2.0189E4,8.579E3,1.4337E4,5.852E3,5.758E3,2.821E3,1.1421E4,2.916E3,2.955E3,2.897E3,2.901E3,2.857E3,5.3E2,2.291E3,5.728E3,5.693E3,1.42E3,1.496E3,1.496E3,1.459E3,5.78E2,2.319E3,5.62E2,2.339E3,5.91E2,2.266E3,2.58E2,2.72E2,1.164E3,1.127E3,4.254E3,1.474E3,4.295E3,1.398E3,4.59E2,9.61E2,3.22E2,1.174E3,2.65E2,1.231E3,2.84E2,1.175E3,2.78E2,3E2,1.149E3,1.17E3,2.85E2,2.77E2,1.211E3,1.128E3,2.89E2,3.02E2,1.101E3,1.165E3,8.29E2,3.35E2,2.098E3,2.156E3,4.01E2,1.073E3,8.19E2,3.476E3,7.06E2,6.92E2,1.6E2,2.99E2,1.96E2,7.65E2,2.1E1,3.01E2,5.01E2,6.73E2,1.23E2,1.42E2,5E2,7.31E2,1.1E2,1.74E2,5.9E2,5.85E2,1.61E2,1.17E2,1.05E2,1.95E2,3.84E2,7.65E2,6.46E2,5.24E2,5.3E1,2.32E2,7E1,2.07E2,6.55E2,5.56E2,1.72E2,9.56E2,2.27E2,8.74E2,2.95E2,8.7E2],"tree_param":{"num_deleted":"0","num_feature":"14","num_nodes":"101","size_leaf_vector":"1"}},{"base_weights":[1.6568486E-3,-6.5939987E-1,1.5442107E0,-9.2688733E-1,-0E0,1.1689681E0,2.301743E0,-1.008762E0,-6.056758E-1,-2.4390234E-1,2.4460015E-1,8.223773E-1,1.5220319E0,2.8961065E0,2.1655934E0,-1.0543388E0,-8.741548E-1,-6.604363E-1,-5.242855E-1,-4.699445E-2,-2.897685E-1,5.09212E-1,1.7718278E-1,1.1713421E0,7.3712456E-1,1.9849162E0,1.3998156E0,1.3786696E-1,1.5180975E-1,2.0915968E0,2.2432456E0,-1.1197069E0,-9.835341E-1,-9.5089823E-1,-8.0453175E-1,-5.77913E-1,-7.367759E-1,-4.2501137E-1,-5.829208E-1,-1.7160307E-1,1.167947E-2,-3.4774148E-1,-2.1195129E-1,3.9111912E-1,5.8263993E-1,9.950285E-2,2.3650604E-1,9.7253156E-1,1.223649E0,6.460092E-1,7.8836936E-1,2.0920148E0,1.9018167E0,1.3464105E0,1.4916773E0,1.0724398E-1,9.751341E-2,1.1733287E-1,1.09066725E-1,-5.0917216E-2,-5.8805685E-2,-4.4174623E-2,-5.17729E-2,-4.270905E-2,-5.0997306E-2,-3.4682497E-2,-4.2716887E-2,-3.304921E-2,-2.5601247E-2,-3.0896991E-2,-3.840607E-2,-1.4782031E-2,-2.3138499E-2,-2.3005232E-2,-3.0776218E-2,-9.1727066E-5,-1.102136E-2,5.439491E-3,-2.838957E-3,-1.4265536E-2,-2.2042325E-2,-3.943465E-3,-1.192408E-2,2.5908155E-2,1.6004412E-2,3.3803124E-2,2.225676E-2,9.136852E-3,1.9456119E-3,1.5683629E-2,8.788124E-3,5.510019E-2,4.2411543E-2,6.9128014E-2,5.8005948E-2,3.6391962E-2,2.8674489E-2,4.3116156E-2,3.618925E-2,9.591942E-2,1.1141361E-1,9.0727426E-2,1.02413476E-1,7.062628E-2,6.351539E-2,7.938347E-2,7.167858E-2],"categories":[],"categories_nodes":[],"categories_segments":[],"categories_sizes":[],"default_left":[0,0,0,0,0,0,0,0,0,0,0,0,0,0,0,0,0,0,0,0,0,0,0,0,0,0,0,0,0,0,0,0,0,0,0,0,0,0,0,0,0,0,0,0,0,0,0,0,0,0,0,0,0,0,0,0,0,0,0,0,0,0,0,0,0,0,0,0,0,0,0,0,0,0,0,0,0,0,0,0,0,0,0,0,0,0,0,0,0,0,0,0,0,0,0,0,0,0,0,0,0,0,0,0,0,0,0],"id":11,"left_children":[1,3,5,7,9,11,13,15,17,19,21,23,25,27,29,31,33,35,37,39,41,43,45,47,49,51,53,-1,-1,55,57,59,61,63,65,67,69,71,73,75,77,79,81,83,85,87,89,91,93,95,97,99,101,103,105,-1,-1,-1,-1,-1,-1,-1,-1,-1,-1,-1,-1,-1,-1,-1,-1,-1,-1,-1,-1,-1,-1,-1,-1,-1,-1,-1,-1,-1,-1,-1,-1,-1,-1,-1,-1,-1,-1,-1,-1,-1,-1,-1,-1,-1,-1,-1,-1,-1,-1,-1,-1],"loss_changes":[2.9307734E4,3.5486816E3,2.447836E3,3.756455E2,3.464969E2,7.043364E2,2.2425586E2,6.884863E1,1.2505005E1,2.6216034E1,5.1575485E1,8.560803E1,1.5845215E2,1.3325195E0,8.246094E0,3.8094727E1,1.4506348E1,1.0372864E1,6.4969177E0,4.0465097E0,1.050795E1,4.7734833E0,1.06017E1,4.517761E0,1.0291748E1,9.0844727E-1,8.80957E0,0E0,0E0,4.4960938E0,1.6054688E0,2.3848633E1,2.017041E1,8.083618E0,7.663452E0,4.136444E0,2.7280884E0,1.9415741E0,2.556366E0,1.4444876E0,2.5043926E0,7.6428375E0,3.5154724E0,1.8168259E0,4.2115097E0,5.034107E0,6.036377E0,8.658142E-1,2.654663E0,4.496582E0,6.357666E0,1.201416E0,3.190918E-1,5.193115E0,2.0065918E0,0E0,0E0,0E0,0E0,0E0,0E0,0E0,0E0,0E0,0E0,0E0,0E0,0E0,0E0,0E0,0E0,0E0,0E0,0E0,0E0,0E0,0E0,0E0,0E0,0E0,0E0,0E0,0E0,0E0,0E0,0E0,0E0,0E0,0E0,0E0,0E0,0E0,0E0,0E0,0E0,0E0,0E0,0E0,0E0,0E0,0E0,0E0,0E0,0E0,0E0,0E0,0E0],"parents":[2147483647,0,0,1,1,2,2,3,3,4,4,5,5,6,6,7,7,8,8,9,9,10,10,11,11,12,12,13,13,14,14,15,15,16,16,17,17,18,18,19,19,20,20,21,21,22,22,23,23,24,24,25,25,26,26,29,29,30,30,31,31,32,32,33,33,34,34,35,35,36,36,37,37,38,38,39,39,40,40,41,41,42,42,43,43,44,44,45,45,46,46,47,47,48,48,49,49,50,50,51,51,52,52,53,53,54,54],"right_children":[2,4,6,8,10,12,14,16,18,20,22,24,26,28,30,32,34,36,38,40,42,44,46,48,50,52,54,-1,-1,56,58,60,62,64,66,68,70,72,74,76,78,80,82,84,86,88,90,92,94,96,98,100,102,104,106,-1,-1,-1,-1,-1,-1,-1,-1,-1,-1,-1,-1,-1,-1,-1,-1,-1,-1,-1,-1,-1,-1,-1,-1,-1,-1,-1,-1,-1,-1,-1,-1,-1,-1,-1,-1,-1,-1,-1,-1,-1,-1,-1,-1,-1,-1,-1,-1,-1,-1,-1,-1],"split_conditions":[8.728605E-1,1.7418084E-1,1.5715401E0,-1.7515899E-1,5.2352065E-1,1.2222003E0,4.9632537E-1,-5.244988E-1,3.4860885E-1,4.9632537E-1,4.9632537E-1,4.9632537E-1,4.9632537E-1,1.03998005E-1,-9.7341126E-1,8.073716E-1,2.4744542E-1,-4.2806023E-1,6.2975273E-3,-4.6156693E-1,1.1756673E-2,-5.06584E-1,-4.6156693E-1,-1.1266191E0,-8.272394E-1,-3.551108E-1,-4.6156693E-1,1.3786696E-1,1.5180975E-1,1.003932E-1,-1.0388547E-1,-7.35743E-1,-1.8539459E-1,-6.662336E-1,-2.8691673E-1,-5.06584E-1,4.9632537E-1,4.9632537E-1,4.9632537E-1,-9.87373E-1,-2.1656157E-1,-1.741031E-1,-9.251129E-1,-7.674117E-1,3.7448478E-1,-6.248922E-1,6.2975273E-3,-5.083957E-1,-5.3035134E-1,-6.5524566E-1,3.402034E-2,-1.0580184E0,-1.5329513E-1,-2.1497907E-1,-3.862557E-2,1.0724398E-1,9.751341E-2,1.1733287E-1,1.09066725E-1,-5.0917216E-2,-5.8805685E-2,-4.4174623E-2,-5.17729E-2,-4.270905E-2,-5.0997306E-2,-3.4682497E-2,-4.2716887E-2,-3.304921E-2,-2.5601247E-2,-3.0896991E-2,-3.840607E-2,-1.4782031E-2,-2.3138499E-2,-2.3005232E-2,-3.0776218E-2,-9.1727066E-5,-1.102136E-2,5.439491E-3,-2.838957E-3,-1.4265536E-2,-2.2042325E-2,-3.943465E-3,-1.192408E-2,2.5908155E-2,1.6004412E-2,3.3803124E-2,2.225676E-2,9.136852E-3,1.9456119E-3,1.5683629E-2,8.788124E-3,5.510019E-2,4.2411543E-2,6.9128014E-2,5.8005948E-2,3.6391962E-2,2.8674489E-2,4.3116156E-2,3.618925E-2,9.591942E-2,1.1141361E-1,9.0727426E-2,1.02413476E-1,7.062628E-2,6.351539E-2,7.938347E-2,7.167858E-2],"split_indices":[7,7,7,7,7,7,12,7,11,12,12,12,12,9,11,11,11,10,10,11,11,11,11,11,11,10,11,0,0,10,10,10,10,10,10,11,12,12,12,10,6,10,6,10,10,10,10,10,10,10,10,11,11,10,10,0,0,0,0,0,0,0,0,0,0,0,0,0,0,0,0,0,0,0,0,0,0,0,0,0,0,0,0,0,0,0,0,0,0,0,0,0,0,0,0,0,0,0,0,0,0,0,0,0,0,0,0],"split_type":[0,0,0,0,0,0,0,0,0,0,0,0,0,0,0,0,0,0,0,0,0,0,0,0,0,0,0,0,0,0,0,0,0,0,0,0,0,0,0,0,0,0,0,0,0,0,0,0,0,0,0,0,0,0,0,0,0,0,0,0,0,0,0,0,0,0,0,0,0,0,0,0,0,0,0,0,0,0,0,0,0,0,0,0,0,0,0,0,0,0,0,0,0,0,0,0,0,0,0,0,0,0,0,0,0,0,0],"sum_hessian":[2.8739E4,2.0118E4,8.621E3,1.4312E4,5.806E3,5.767E3,2.854E3,1.1403E4,2.909E3,2.907E3,2.899E3,2.912E3,2.855E3,5.28E2,2.326E3,8.513E3,2.89E3,1.734E3,1.175E3,5.5E2,2.357E3,5.87E2,2.312E3,5.69E2,2.343E3,5.93E2,2.262E3,2.76E2,2.52E2,1.206E3,1.12E3,4.418E3,4.095E3,1.368E3,1.522E3,8.38E2,8.96E2,4.4E2,7.35E2,1.76E2,3.74E2,1.348E3,1.009E3,2.28E2,3.59E2,1.003E3,1.309E3,1.23E2,4.46E2,8.49E2,1.494E3,2.48E2,3.45E2,1.441E3,8.21E2,8.65E2,3.41E2,4.05E2,7.15E2,1.587E3,2.831E3,1.406E3,2.689E3,5.76E2,7.92E2,4.77E2,1.045E3,3.66E2,4.72E2,1.92E2,7.04E2,1.02E2,3.38E2,1.58E2,5.77E2,4E1,1.36E2,1.55E2,2.19E2,8.1E2,5.38E2,1.69E2,8.4E2,7.9E1,1.49E2,2.11E2,1.48E2,4.21E2,5.82E2,5.74E2,7.35E2,5.6E1,6.7E1,1.21E2,3.25E2,3.94E2,4.55E2,6.9E2,8.04E2,1.16E2,1.32E2,2.25E2,1.2E2,7.61E2,6.8E2,2.99E2,5.22E2],"tree_param":{"num_deleted":"0","num_feature":"14","num_nodes":"107","size_leaf_vector":"1"}},{"base_weights":[-1.3813144E-3,-6.272224E-1,1.4631088E0,-8.8174564E-1,-1.4875479E-3,1.1083782E0,2.1841152E0,-9.5927685E-1,-5.752111E-1,-2.3270483E-1,2.3112513E-1,7.782774E-1,1.4454385E0,2.750053E0,2.0527148E0,-1.0014251E0,-8.3418447E-1,-6.1645013E-1,-4.7300458E-1,-4.6658814E-2,-2.758296E-1,4.8804525E-1,1.6600679E-1,1.1223949E0,6.952296E-1,1.8835167E0,1.3329848E0,1.3101368E-1,1.4419864E-1,1.9810116E0,2.1293523E0,-1.0797708E0,-9.450751E-1,-9.024597E-1,-7.655004E-1,-5.5294603E-1,-6.960372E-1,-3.5982803E-1,-5.1524794E-1,-9.62053E-2,6.686264E-2,-3.5456637E-1,-2.2164105E-1,3.649226E-1,5.4842055E-1,9.599299E-2,2.3025069E-1,1.0039368E0,1.2065804E0,6.3110566E-1,7.589506E-1,1.988942E0,1.794321E0,1.2874986E0,1.4296743E0,1.03023104E-1,1.9046848E0,1.1616727E-1,2.097258E0,-5.009265E-2,-5.745218E-2,-4.3022726E-2,-5.0051358E-2,-4.0619493E-2,-4.8321433E-2,-3.383478E-2,-4.1123524E-2,-2.0634891E-2,-2.9433662E-2,-3.735162E-2,-3.162478E-2,-1.1185361E-2,-1.972534E-2,-1.9663857E-2,-2.7534043E-2,-1.8433323E-4,-8.99832E-3,1.1219936E-2,5.8880117E-4,-1.2528663E-2,-2.0178339E-2,-5.555597E-3,-1.3084873E-2,2.4050431E-2,1.4114012E-2,2.3624744E-2,3.138814E-2,1.2438614E-2,3.2908288E-3,1.5393766E-2,8.669316E-3,5.5833872E-2,4.527835E-2,6.934334E-2,5.7887025E-2,3.4563925E-2,2.7409285E-2,4.688838E-2,3.6721032E-2,8.92755E-2,1.0502441E-1,8.562844E-2,9.671712E-2,7.308066E-2,6.291986E-2,7.604035E-2,6.871613E-2,9.539331E-2,4.5202434E-2,1.07135855E-1,9.913019E-2],"categories":[],"categories_nodes":[],"categories_segments":[],"categories_sizes":[],"default_left":[0,0,0,0,0,0,0,0,0,0,0,0,0,0,0,0,0,0,0,0,0,0,0,0,0,0,0,0,0,0,0,0,0,0,0,0,0,0,0,0,0,0,0,0,0,0,0,0,0,0,0,0,0,0,0,0,0,0,0,0,0,0,0,0,0,0,0,0,0,0,0,0,0,0,0,0,0,0,0,0,0,0,0,0,0,0,0,0,0,0,0,0,0,0,0,0,0,0,0,0,0,0,0,0,0,0,0,0,0,0,0],"id":12,"left_children":[1,3,5,7,9,11,13,15,17,19,21,23,25,27,29,31,33,35,37,39,41,43,45,47,49,51,53,-1,-1,55,57,59,61,63,65,67,69,71,73,75,77,79,81,83,85,87,89,91,93,95,97,99,101,103,105,-1,107,-1,109,-1,-1,-1,-1,-1,-1,-1,-1,-1,-1,-1,-1,-1,-1,-1,-1,-1,-1,-1,-1,-1,-1,-1,-1,-1,-1,-1,-1,-1,-1,-1,-1,-1,-1,-1,-1,-1,-1,-1,-1,-1,-1,-1,-1,-1,-1,-1,-1,-1,-1,-1,-1],"loss_changes":[2.6421877E4,3.216567E3,2.2047422E3,3.4050293E2,3.1420667E2,6.425366E2,2.0544043E2,5.9387695E1,1.1826965E1,2.3462845E1,4.857196E1,8.2657715E1,1.3816016E2,1.1560059E0,8.081055E0,3.658496E1,1.2713623E1,9.916809E0,3.7383118E0,3.119765E0,1.0009857E1,4.079483E0,1.040303E1,4.221985E0,9.0251465E0,1.5258789E0,7.9196777E0,0E0,0E0,3.0161133E0,1.5585938E0,1.7930176E1,2.2578613E1,7.362671E0,6.6294556E0,5.4342346E0,2.3414917E0,9.450817E-1,2.316681E0,2.9722636E0,1.4316658E0,4.760994E0,6.1851196E0,1.6778374E0,1.9548111E0,5.0926886E0,5.2439423E0,1.470398E0,1.010376E0,5.3996887E0,4.3112183E0,1.69281E0,5.432129E-2,5.8032227E0,1.2521973E0,0E0,2.9296875E-3,0E0,3.3251953E-1,0E0,0E0,0E0,0E0,0E0,0E0,0E0,0E0,0E0,0E0,0E0,0E0,0E0,0E0,0E0,0E0,0E0,0E0,0E0,0E0,0E0,0E0,0E0,0E0,0E0,0E0,0E0,0E0,0E0,0E0,0E0,0E0,0E0,0E0,0E0,0E0,0E0,0E0,0E0,0E0,0E0,0E0,0E0,0E0,0E0,0E0,0E0,0E0,0E0,0E0,0E0,0E0],"parents":[2147483647,0,0,1,1,2,2,3,3,4,4,5,5,6,6,7,7,8,8,9,9,10,10,11,11,12,12,13,13,14,14,15,15,16,16,17,17,18,18,19,19,20,20,21,21,22,22,23,23,24,24,25,25,26,26,29,29,30,30,31,31,32,32,33,33,34,34,35,35,36,36,37,37,38,38,39,39,40,40,41,41,42,42,43,43,44,44,45,45,46,46,47,47,48,48,49,49,50,50,51,51,52,52,53,53,54,54,56,56,58,58],"right_children":[2,4,6,8,10,12,14,16,18,20,22,24,26,28,30,32,34,36,38,40,42,44,46,48,50,52,54,-1,-1,56,58,60,62,64,66,68,70,72,74,76,78,80,82,84,86,88,90,92,94,96,98,100,102,104,106,-1,108,-1,110,-1,-1,-1,-1,-1,-1,-1,-1,-1,-1,-1,-1,-1,-1,-1,-1,-1,-1,-1,-1,-1,-1,-1,-1,-1,-1,-1,-1,-1,-1,-1,-1,-1,-1,-1,-1,-1,-1,-1,-1,-1,-1,-1,-1,-1,-1,-1,-1,-1,-1,-1,-1],"split_conditions":[8.728605E-1,1.7418084E-1,1.5715401E0,-1.7515899E-1,5.2352065E-1,1.2222003E0,4.9632537E-1,-5.244988E-1,5.937777E-1,4.9632537E-1,4.9632537E-1,4.9632537E-1,4.9632537E-1,1.03998005E-1,-9.7341126E-1,5.937777E-1,3.049175E-1,-1.5781341E-1,-2.1497907E-1,3.8130927E-1,-3.263399E-1,-3.708683E-1,-3.4924307E-1,-6.6736484E-1,-5.627335E-1,-3.2623455E-1,-3.4924307E-1,1.3101368E-1,1.4419864E-1,-4.3777335E-1,-1.1357902E0,-5.3035134E-1,-1.2159164E-1,-6.5524566E-1,-5.6938812E-2,4.9632537E-1,7.366385E-2,4.9632537E-1,4.9632537E-1,-2.4438687E-1,-2.0587304E-1,-8.1719136E-1,-3.7332287E-1,-2.1497907E-1,2.1540454E-1,-1.277898E0,6.2975273E-3,-5.6086665E-1,-1.0801396E0,-2.9794514E-1,-1.2182723E0,-1.2001204E0,-1.5329513E-1,-1.1095963E0,-3.862557E-2,1.03023104E-1,2.8701448E0,1.1616727E-1,8.0004007E-1,-5.009265E-2,-5.745218E-2,-4.3022726E-2,-5.0051358E-2,-4.0619493E-2,-4.8321433E-2,-3.383478E-2,-4.1123524E-2,-2.0634891E-2,-2.9433662E-2,-3.735162E-2,-3.162478E-2,-1.1185361E-2,-1.972534E-2,-1.9663857E-2,-2.7534043E-2,-1.8433323E-4,-8.99832E-3,1.1219936E-2,5.8880117E-4,-1.2528663E-2,-2.0178339E-2,-5.555597E-3,-1.3084873E-2,2.4050431E-2,1.4114012E-2,2.3624744E-2,3.138814E-2,1.2438614E-2,3.2908288E-3,1.5393766E-2,8.669316E-3,5.5833872E-2,4.527835E-2,6.934334E-2,5.7887025E-2,3.4563925E-2,2.7409285E-2,4.688838E-2,3.6721032E-2,8.92755E-2,1.0502441E-1,8.562844E-2,9.671712E-2,7.308066E-2,6.291986E-2,7.604035E-2,6.871613E-2,9.539331E-2,4.5202434E-2,1.07135855E-1,9.913019E-2],"split_indices":[7,7,7,7,7,7,12,7,11,12,12,12,12,9,11,11,11,10,10,11,11,5,11,11,11,10,11,0,0,10,6,10,10,10,10,12,11,12,12,6,10,10,10,10,9,6,10,10,6,10,6,11,11,10,10,0,10,0,10,0,0,0,0,0,0,0,0,0,0,0,0,0,0,0,0,0,0,0,0,0,0,0,0,0,0,0,0,0,0,0,0,0,0,0,0,0,0,0,0,0,0,0,0,0,0,0,0,0,0,0,0],"split_type":[0,0,0,0,0,0,0,0,0,0,0,0,0,0,0,0,0,0,0,0,0,0,0,0,0,0,0,0,0,0,0,0,0,0,0,0,0,0,0,0,0,0,0,0,0,0,0,0,0,0,0,0,0,0,0,0,0,0,0,0,0,0,0,0,0,0,0,0,0,0,0,0,0,0,0,0,0,0,0,0,0,0,0,0,0,0,0,0,0,0,0,0,0,0,0,0,0,0,0,0,0,0,0,0,0,0,0,0,0,0,0],"sum_hessian":[2.8826E4,2.0196E4,8.63E3,1.4356E4,5.84E3,5.786E3,2.844E3,1.1456E4,2.9E3,2.929E3,2.911E3,2.925E3,2.861E3,5.32E2,2.312E3,8.563E3,2.893E3,2.062E3,8.38E2,5.52E2,2.377E3,5.87E2,2.324E3,5.66E2,2.359E3,5.81E2,2.28E3,2.81E2,2.51E2,1.209E3,1.103E3,3.574E3,4.989E3,1.444E3,1.449E3,1.152E3,9.1E2,2.31E2,6.07E2,3.85E2,1.67E2,9.66E2,1.411E3,1.96E2,3.91E2,1.114E3,1.21E3,2.41E2,3.25E2,1.182E3,1.177E3,2.56E2,3.25E2,1.561E3,7.19E2,5.79E2,6.3E2,1.46E2,9.57E2,1.69E3,1.884E3,1.993E3,2.996E3,6.06E2,8.38E2,5.72E2,8.77E2,2.37E2,9.15E2,4.98E2,4.12E2,4.9E1,1.82E2,1.4E2,4.67E2,1.84E2,2.01E2,4.2E1,1.25E2,3.12E2,6.54E2,3.77E2,1.034E3,7.9E1,1.17E2,2.04E2,1.87E2,1.82E2,9.32E2,5.09E2,7.01E2,1.07E2,1.34E2,6.3E1,2.62E2,6.8E2,5.02E2,1.37E2,1.04E3,9.7E1,1.59E2,2.14E2,1.11E2,2.16E2,1.345E3,2.61E2,4.58E2,6.27E2,3E0,6.72E2,2.85E2],"tree_param":{"num_deleted":"0","num_feature":"14","num_nodes":"111","size_leaf_vector":"1"}},{"base_weights":[2.239797E-3,-5.95495E-1,1.3930434E0,-8.3796144E-1,4.5211468E-4,1.0542426E0,2.0829904E0,-9.11776E-1,-5.4812866E-1,-2.1916771E-1,2.2399424E-1,7.38734E-1,1.3758392E0,2.6227713E0,1.9595616E0,-1.0239401E0,-7.994538E-1,-6.636238E-1,-4.3877065E-1,-3.354831E-1,-1.0584474E-1,4.6386015E-1,1.6432895E-1,1.0561559E0,6.609774E-1,1.7971311E0,1.2647237E0,1.2299376E-1,1.3799801E-1,1.850178E0,2.0680144E0,-1.0665432E0,-9.011524E-1,-8.3876675E-1,-6.77801E-1,-5.36506E-1,-6.899647E-1,-3.0953938E-1,-4.7463107E-1,-1.7971617E-1,-3.6875758E-1,7.996522E-2,-1.5062642E-1,3.099556E-1,6.015747E-1,5.326151E-2,2.6918522E-1,9.3068856E-1,1.1806449E0,5.5531967E-1,7.7234775E-1,8.281647E-2,9.6285574E-2,1.1563507E0,1.3674407E0,1.8012705E0,9.8108426E-2,1.0779579E-1,1.0066791E-1,-4.5051865E-2,-5.41641E-2,-4.7100957E-2,-4.146203E-2,-3.639638E-2,-4.3280944E-2,-2.349001E-2,-3.467917E-2,-3.0715195E-2,-2.3387847E-2,-3.8947295E-2,-3.2712884E-2,-1.870135E-2,-1.2694137E-2,-2.7384281E-2,-2.187065E-2,-1.2509405E-2,-5.5164234E-3,-2.129413E-2,-1.6151138E-2,2.6043525E-4,7.884345E-3,-8.902716E-3,-3.35688E-3,2.4793623E-2,1.3914137E-2,2.7528426E-2,3.5432883E-2,2.3031687E-5,5.3463164E-3,8.894325E-3,1.5186158E-2,5.452258E-2,4.437758E-2,5.117466E-2,6.158317E-2,3.462286E-2,2.6624626E-2,3.4028348E-2,4.0233646E-2,5.467386E-2,6.0444392E-2,5.9318908E-2,6.957049E-2,8.859765E-2,9.8190956E-2],"categories":[],"categories_nodes":[],"categories_segments":[],"categories_sizes":[],"default_left":[0,0,0,0,0,0,0,0,0,0,0,0,0,0,0,0,0,0,0,0,0,0,0,0,0,0,0,0,0,0,0,0,0,0,0,0,0,0,0,0,0,0,0,0,0,0,0,0,0,0,0,0,0,0,0,0,0,0,0,0,0,0,0,0,0,0,0,0,0,0,0,0,0,0,0,0,0,0,0,0,0,0,0,0,0,0,0,0,0,0,0,0,0,0,0,0,0,0,0,0,0,0,0,0,0],"id":13,"left_children":[1,3,5,7,9,11,13,15,17,19,21,23,25,27,29,31,33,35,37,39,41,43,45,47,49,51,53,-1,-1,55,57,59,61,63,65,67,69,71,73,75,77,79,81,83,85,87,89,91,93,95,97,-1,-1,99,101,103,-1,-1,-1,-1,-1,-1,-1,-1,-1,-1,-1,-1,-1,-1,-1,-1,-1,-1,-1,-1,-1,-1,-1,-1,-1,-1,-1,-1,-1,-1,-1,-1,-1,-1,-1,-1,-1,-1,-1,-1,-1,-1,-1,-1,-1,-1,-1,-1,-1],"loss_changes":[2.3884236E4,2.9036104E3,2.0161973E3,3.0492383E2,2.8538553E2,5.8666846E2,1.8381445E2,1.4239453E2,3.625183E1,3.8567657E1,4.1092865E1,7.137341E1,1.3167822E2,4.4438477E0,2.328125E1,2.8612793E1,2.6502197E1,4.2250977E0,6.6982727E0,7.373596E0,1.2392263E1,1.1867073E1,2.6844307E1,7.6555176E0,2.7138184E1,7.2423096E0,2.346875E1,0E0,0E0,2.4648438E0,7.910156E-1,1.0513184E1,3.3704834E0,1.1999512E1,4.140564E0,9.255371E-1,3.0421753E0,1.019495E0,2.834961E0,1.1930456E0,2.8965454E0,1.6620373E0,2.7091427E0,1.3921585E0,1.1279297E0,3.1712883E0,3.6407318E0,8.3984375E-1,7.9089355E-1,3.302887E0,2.6950073E0,0E0,0E0,2.1243896E0,3.130127E0,6.8359375E-2,0E0,0E0,0E0,0E0,0E0,0E0,0E0,0E0,0E0,0E0,0E0,0E0,0E0,0E0,0E0,0E0,0E0,0E0,0E0,0E0,0E0,0E0,0E0,0E0,0E0,0E0,0E0,0E0,0E0,0E0,0E0,0E0,0E0,0E0,0E0,0E0,0E0,0E0,0E0,0E0,0E0,0E0,0E0,0E0,0E0,0E0,0E0,0E0,0E0],"parents":[2147483647,0,0,1,1,2,2,3,3,4,4,5,5,6,6,7,7,8,8,9,9,10,10,11,11,12,12,13,13,14,14,15,15,16,16,17,17,18,18,19,19,20,20,21,21,22,22,23,23,24,24,25,25,26,26,29,29,30,30,31,31,32,32,33,33,34,34,35,35,36,36,37,37,38,38,39,39,40,40,41,41,42,42,43,43,44,44,45,45,46,46,47,47,48,48,49,49,50,50,53,53,54,54,55,55],"right_children":[2,4,6,8,10,12,14,16,18,20,22,24,26,28,30,32,34,36,38,40,42,44,46,48,50,52,54,-1,-1,56,58,60,62,64,66,68,70,72,74,76,78,80,82,84,86,88,90,92,94,96,98,-1,-1,100,102,104,-1,-1,-1,-1,-1,-1,-1,-1,-1,-1,-1,-1,-1,-1,-1,-1,-1,-1,-1,-1,-1,-1,-1,-1,-1,-1,-1,-1,-1,-1,-1,-1,-1,-1,-1,-1,-1,-1,-1,-1,-1,-1,-1,-1,-1,-1,-1,-1,-1],"split_conditions":[8.728605E-1,1.7418084E-1,1.5715401E0,-1.7515899E-1,5.2352065E-1,1.2222003E0,4.9632537E-1,9.951617E-1,9.951617E-1,9.951617E-1,4.9632537E-1,4.9632537E-1,4.9632537E-1,9.951617E-1,9.951617E-1,-5.244988E-1,-5.244988E-1,-1.148709E0,4.9632537E-1,4.9632537E-1,4.9632537E-1,9.951617E-1,9.951617E-1,9.951617E-1,9.951617E-1,9.951617E-1,9.951617E-1,1.2299376E-1,1.3799801E-1,7.724372E-1,-3.9983153E-1,-1.4349122E0,5.4962415E-1,4.9632537E-1,-1.464725E0,1.2730928E-1,-6.199571E-1,-1.1881507E-1,-5.644412E-1,1.03998005E-1,-1.2634874E-4,2.1540454E-1,8.838438E-1,-1.3295735E0,8.7443095E-1,1.03998005E-1,-6.199571E-1,-1.0801396E0,-6.199571E-1,-1.2619978E0,-6.199571E-1,8.281647E-2,9.6285574E-2,-7.4085346E-3,-1.2328805E0,1.263361E0,9.8108426E-2,1.0779579E-1,1.0066791E-1,-4.5051865E-2,-5.41641E-2,-4.7100957E-2,-4.146203E-2,-3.639638E-2,-4.3280944E-2,-2.349001E-2,-3.467917E-2,-3.0715195E-2,-2.3387847E-2,-3.8947295E-2,-3.2712884E-2,-1.870135E-2,-1.2694137E-2,-2.7384281E-2,-2.187065E-2,-1.2509405E-2,-5.5164234E-3,-2.129413E-2,-1.6151138E-2,2.6043525E-4,7.884345E-3,-8.902716E-3,-3.35688E-3,2.4793623E-2,1.3914137E-2,2.7528426E-2,3.5432883E-2,2.3031687E-5,5.3463164E-3,8.894325E-3,1.5186158E-2,5.452258E-2,4.437758E-2,5.117466E-2,6.158317E-2,3.462286E-2,2.6624626E-2,3.4028348E-2,4.0233646E-2,5.467386E-2,6.0444392E-2,5.9318908E-2,6.957049E-2,8.859765E-2,9.8190956E-2],"split_indices":[7,7,7,7,7,7,12,1,1,1,12,12,12,1,1,7,7,6,12,12,12,1,1,1,1,1,1,0,0,9,10,6,9,12,6,5,5,9,9,9,8,9,9,6,0,9,5,6,5,6,5,0,0,9,9,8,0,0,0,0,0,0,0,0,0,0,0,0,0,0,0,0,0,0,0,0,0,0,0,0,0,0,0,0,0,0,0,0,0,0,0,0,0,0,0,0,0,0,0,0,0,0,0,0,0],"split_type":[0,0,0,0,0,0,0,0,0,0,0,0,0,0,0,0,0,0,0,0,0,0,0,0,0,0,0,0,0,0,0,0,0,0,0,0,0,0,0,0,0,0,0,0,0,0,0,0,0,0,0,0,0,0,0,0,0,0,0,0,0,0,0,0,0,0,0,0,0,0,0,0,0,0,0,0,0,0,0,0,0,0,0,0,0,0,0,0,0,0,0,0,0,0,0,0,0,0,0,0,0,0,0,0,0],"sum_hessian":[2.8728E4,2.0093E4,8.635E3,1.4282E4,5.811E3,5.793E3,2.842E3,1.1381E4,2.901E3,2.931E3,2.88E3,2.926E3,2.867E3,5.25E2,2.317E3,5.69E3,5.691E3,1.408E3,1.493E3,1.445E3,1.486E3,5.72E2,2.308E3,5.73E2,2.353E3,5.95E2,2.272E3,2.49E2,2.76E2,1.163E3,1.154E3,4.218E3,1.472E3,4.296E3,1.395E3,2.46E2,1.162E3,3.27E2,1.166E3,2.56E2,1.189E3,2.88E2,1.198E3,2.72E2,3E2,1.122E3,1.186E3,2.9E2,2.83E2,1.211E3,1.142E3,2.91E2,3.04E2,1.112E3,1.16E3,8.22E2,3.41E2,4.27E2,7.27E2,3.93E2,3.825E3,9.3E2,5.42E2,8.44E2,3.452E3,1.01E2,1.294E3,1.11E2,1.35E2,3.26E2,8.36E2,1.48E2,1.79E2,3.88E2,7.78E2,1.25E2,1.31E2,5.24E2,6.65E2,1.48E2,1.4E2,9E2,2.98E2,3.7E1,2.35E2,2.08E2,9.2E1,5.67E2,5.55E2,3.28E2,8.58E2,5.6E1,2.34E2,7.5E1,2.08E2,1.68E2,1.043E3,3.04E2,8.38E2,5.17E2,5.95E2,1.42E2,1.018E3,7.07E2,1.15E2],"tree_param":{"num_deleted":"0","num_feature":"14","num_nodes":"105","size_leaf_vector":"1"}},{"base_weights":[-9.825182E-4,-5.667533E-1,1.3226037E0,-7.958395E-1,-7.376124E-4,1.0003567E0,1.9803078E0,-8.6623794E-1,-5.2088505E-1,-2.08408E-1,2.1019939E-1,7.023413E-1,1.3090624E0,2.4818356E0,1.8605629E0,-9.7283036E-1,-7.597557E-1,-6.305028E-1,-4.19111E-1,-3.1924418E-1,-9.788894E-2,4.4007602E-1,1.5272036E-1,1.00596E0,6.281407E-1,1.7084793E0,1.2034127E0,1.1665996E-1,1.3084294E-1,1.759311E0,1.9616055E0,-1.0132676E0,-8.5472685E-1,-7.966228E-1,-6.467818E-1,-6.8806446E-1,-5.764847E-1,-3.0127075E-1,-4.50118E-1,-1.7067339E-1,-3.513229E-1,8.099552E-2,-1.3943614E-1,2.9701704E-1,5.7132065E-1,4.7646377E-2,2.5471765E-1,8.865686E-1,1.1273499E0,5.2749866E-1,7.336251E-1,7.919522E-2,9.093445E-2,1.0978303E0,1.3011831E0,8.4825456E-2,9.229817E-2,9.530879E-2,1.0228995E-1,-5.373959E-2,-4.8343495E-2,-3.728056E-2,-4.4060823E-2,-4.2963758E-2,-3.7648458E-2,-3.0109713E-2,-3.5466526E-2,-3.818208E-2,-3.254302E-2,-2.2803104E-2,-3.0343771E-2,-1.9047862E-2,-1.2968793E-2,-2.5446901E-2,-2.0317625E-2,-1.3299659E-2,-6.4253085E-3,-2.1796754E-2,-1.6038686E-2,4.3477886E-4,8.0070095E-3,-9.280288E-3,-4.7418373E-3,2.13613E-2,1.3207423E-2,3.3385545E-2,2.5851334E-2,-2.746825E-3,3.6829214E-3,1.0148621E-2,1.5455435E-2,4.017435E-2,4.742183E-2,5.229016E-2,6.2259197E-2,2.1254394E-2,2.7738309E-2,3.485989E-2,4.0677603E-2,5.181386E-2,5.7486355E-2,5.7633873E-2,6.630593E-2],"categories":[],"categories_nodes":[],"categories_segments":[],"categories_sizes":[],"default_left":[0,0,0,0,0,0,0,0,0,0,0,0,0,0,0,0,0,0,0,0,0,0,0,0,0,0,0,0,0,0,0,0,0,0,0,0,0,0,0,0,0,0,0,0,0,0,0,0,0,0,0,0,0,0,0,0,0,0,0,0,0,0,0,0,0,0,0,0,0,0,0,0,0,0,0,0,0,0,0,0,0,0,0,0,0,0,0,0,0,0,0,0,0,0,0,0,0,0,0,0,0,0,0],"id":14,"left_children":[1,3,5,7,9,11,13,15,17,19,21,23,25,27,29,31,33,35,37,39,41,43,45,47,49,51,53,-1,-1,55,57,59,61,63,65,67,69,71,73,75,77,79,81,83,85,87,89,91,93,95,97,-1,-1,99,101,-1,-1,-1,-1,-1,-1,-1,-1,-1,-1,-1,-1,-1,-1,-1,-1,-1,-1,-1,-1,-1,-1,-1,-1,-1,-1,-1,-1,-1,-1,-1,-1,-1,-1,-1,-1,-1,-1,-1,-1,-1,-1,-1,-1,-1,-1,-1,-1],"loss_changes":[2.1636344E4,2.624497E3,1.8314531E3,2.7831543E2,2.5556032E2,5.3330225E2,1.657461E2,1.2927441E2,3.2430176E1,3.594059E1,3.811219E1,6.5844604E1,1.1800244E2,4.337158E0,1.970752E1,2.6303223E1,2.326001E1,3.8704834E0,5.3723755E0,6.8795013E0,1.0972123E1,1.0595833E1,2.4789528E1,7.1904907E0,2.4753357E1,4.934326E0,2.1650879E1,0E0,0E0,2.821289E0,1.034668E0,1.0919434E1,3.423462E0,1.1020752E1,3.39917E0,1.2679138E0,2.3104858E0,9.12138E-1,2.808838E0,9.834628E-1,2.8992157E0,1.5724828E0,2.419138E0,1.0120697E0,1.1063232E0,3.0558891E0,3.1930542E0,5.893707E-1,1.1880493E0,3.0786438E0,2.656189E0,0E0,0E0,2.081543E0,2.545044E0,0E0,0E0,0E0,0E0,0E0,0E0,0E0,0E0,0E0,0E0,0E0,0E0,0E0,0E0,0E0,0E0,0E0,0E0,0E0,0E0,0E0,0E0,0E0,0E0,0E0,0E0,0E0,0E0,0E0,0E0,0E0,0E0,0E0,0E0,0E0,0E0,0E0,0E0,0E0,0E0,0E0,0E0,0E0,0E0,0E0,0E0,0E0,0E0],"parents":[2147483647,0,0,1,1,2,2,3,3,4,4,5,5,6,6,7,7,8,8,9,9,10,10,11,11,12,12,13,13,14,14,15,15,16,16,17,17,18,18,19,19,20,20,21,21,22,22,23,23,24,24,25,25,26,26,29,29,30,30,31,31,32,32,33,33,34,34,35,35,36,36,37,37,38,38,39,39,40,40,41,41,42,42,43,43,44,44,45,45,46,46,47,47,48,48,49,49,50,50,53,53,54,54],"right_children":[2,4,6,8,10,12,14,16,18,20,22,24,26,28,30,32,34,36,38,40,42,44,46,48,50,52,54,-1,-1,56,58,60,62,64,66,68,70,72,74,76,78,80,82,84,86,88,90,92,94,96,98,-1,-1,100,102,-1,-1,-1,-1,-1,-1,-1,-1,-1,-1,-1,-1,-1,-1,-1,-1,-1,-1,-1,-1,-1,-1,-1,-1,-1,-1,-1,-1,-1,-1,-1,-1,-1,-1,-1,-1,-1,-1,-1,-1,-1,-1,-1,-1,-1,-1,-1,-1],"split_conditions":[8.728605E-1,1.7418084E-1,1.5715401E0,-1.7515899E-1,5.2352065E-1,1.2222003E0,4.9632537E-1,9.951617E-1,9.951617E-1,9.951617E-1,4.9632537E-1,4.9632537E-1,4.9632537E-1,9.951617E-1,9.951617E-1,-5.244988E-1,-5.244988E-1,-7.4085346E-3,4.9632537E-1,4.9632537E-1,4.9632537E-1,9.951617E-1,9.951617E-1,9.951617E-1,9.951617E-1,9.951617E-1,9.951617E-1,1.1665996E-1,1.3084294E-1,3.2681108E-1,4.382176E-1,-2.3022161E-1,4.9632537E-1,-2.3022161E-1,1.003932E-1,-6.199571E-1,4.9632537E-1,-3.708683E-1,-1.2177951E-1,-6.199571E-1,-6.199571E-1,3.2681108E-1,1.2730928E-1,-8.1719136E-1,-5.3996325E-1,-8.6904585E-1,1.03998005E-1,-1.1881507E-1,5.4962415E-1,-8.6904585E-1,8.7443095E-1,7.919522E-2,9.093445E-2,-7.4085346E-3,-1.1181346E0,8.4825456E-2,9.229817E-2,9.530879E-2,1.0228995E-1,-5.373959E-2,-4.8343495E-2,-3.728056E-2,-4.4060823E-2,-4.2963758E-2,-3.7648458E-2,-3.0109713E-2,-3.5466526E-2,-3.818208E-2,-3.254302E-2,-2.2803104E-2,-3.0343771E-2,-1.9047862E-2,-1.2968793E-2,-2.5446901E-2,-2.0317625E-2,-1.3299659E-2,-6.4253085E-3,-2.1796754E-2,-1.6038686E-2,4.3477886E-4,8.0070095E-3,-9.280288E-3,-4.7418373E-3,2.13613E-2,1.3207423E-2,3.3385545E-2,2.5851334E-2,-2.746825E-3,3.6829214E-3,1.0148621E-2,1.5455435E-2,4.017435E-2,4.742183E-2,5.229016E-2,6.2259197E-2,2.1254394E-2,2.7738309E-2,3.485989E-2,4.0677603E-2,5.181386E-2,5.7486355E-2,5.7633873E-2,6.630593E-2],"split_indices":[7,7,7,7,7,7,12,1,1,1,12,12,12,1,1,7,7,9,12,12,12,1,1,1,1,1,1,0,0,9,9,9,12,9,10,5,12,5,5,5,5,9,5,10,10,5,9,9,9,5,0,0,0,9,5,0,0,0,0,0,0,0,0,0,0,0,0,0,0,0,0,0,0,0,0,0,0,0,0,0,0,0,0,0,0,0,0,0,0,0,0,0,0,0,0,0,0,0,0,0,0,0,0],"split_type":[0,0,0,0,0,0,0,0,0,0,0,0,0,0,0,0,0,0,0,0,0,0,0,0,0,0,0,0,0,0,0,0,0,0,0,0,0,0,0,0,0,0,0,0,0,0,0,0,0,0,0,0,0,0,0,0,0,0,0,0,0,0,0,0,0,0,0,0,0,0,0,0,0,0,0,0,0,0,0,0,0,0,0,0,0,0,0,0,0,0,0,0,0,0,0,0,0,0,0,0,0,0,0],"sum_hessian":[2.8891E4,2.024E4,8.651E3,1.4408E4,5.832E3,5.808E3,2.843E3,1.1469E4,2.939E3,2.939E3,2.893E3,2.957E3,2.851E3,5.44E2,2.299E3,5.727E3,5.742E3,1.412E3,1.527E3,1.466E3,1.473E3,5.77E2,2.316E3,5.78E2,2.379E3,5.93E2,2.258E3,2.68E2,2.76E2,1.158E3,1.141E3,4.26E3,1.467E3,4.324E3,1.418E3,6.77E2,7.35E2,3.21E2,1.206E3,2.62E2,1.204E3,2.77E2,1.196E3,2.78E2,2.99E2,1.142E3,1.174E3,2.96E2,2.82E2,1.221E3,1.158E3,2.86E2,3.07E2,1.092E3,1.166E3,6.84E2,4.74E2,7.03E2,4.38E2,1.821E3,2.439E3,2.93E2,1.174E3,1.767E3,2.557E3,8.35E2,5.83E2,2.16E2,4.61E2,1.52E2,5.83E2,1.07E2,2.14E2,5.09E2,6.97E2,7.8E1,1.84E2,3.15E2,8.89E2,1.46E2,1.31E2,5.85E2,6.11E2,5.3E1,2.25E2,1.03E2,1.96E2,2.3E2,9.12E2,6.05E2,5.69E2,1.33E2,1.63E2,1.73E2,1.09E2,2.61E2,9.6E2,8.03E2,3.55E2,5.1E2,5.82E2,1.75E2,9.91E2],"tree_param":{"num_deleted":"0","num_feature":"14","num_nodes":"103","size_leaf_vector":"1"}},{"base_weights":[-4.206225E-4,-5.3861994E-1,1.2552624E0,-7.555481E-1,-2.962691E-3,9.5219123E-1,1.8740535E0,-8.2308817E-1,-4.9409863E-1,-1.9922522E-1,1.9735917E-1,6.6775954E-1,1.2419988E0,2.3548682E0,1.7652265E0,-9.2302614E-1,-7.225312E-1,-5.9899294E-1,-3.9569306E-1,-3.0579486E-1,-9.375099E-2,4.1369614E-1,1.421551E-1,9.600145E-1,5.952083E-1,1.6238899E0,1.1419176E0,1.1058523E-1,1.24019526E-1,1.6652985E0,1.8653574E0,-9.609051E-1,-8.1271774E-1,-7.5814545E-1,-6.128114E-1,-6.529284E-1,-5.449855E-1,-2.8208753E-1,-4.261428E-1,-1.6987307E-1,-3.348822E-1,7.7231824E-2,-1.3421452E-1,2.836601E-1,5.3385013E-1,4.298845E-2,2.378002E-1,8.4629947E-1,1.0708586E0,4.9802604E-1,6.9844604E-1,7.47843E-2,8.688778E-2,1.0432377E0,1.2347234E0,1.6091486E0,8.671156E-2,9.051777E-2,9.742566E-2,-5.1002115E-2,-4.554976E-2,-3.5030883E-2,-4.1854315E-2,-4.0789586E-2,-3.5492565E-2,-2.4977615E-2,-3.2048482E-2,-3.468674E-2,-2.885134E-2,-1.7781993E-2,-2.8076673E-2,-4.128547E-3,-1.5084601E-2,-1.472421E-2,-2.2264682E-2,-1.0538462E-2,-3.6986058E-3,-9.12419E-3,-1.7592587E-2,1.1485289E-2,2.074069E-3,-4.0770294E-3,-8.662174E-3,2.0362003E-2,1.2261463E-2,1.8909108E-2,2.8069256E-2,7.801355E-3,8.7274204E-4,1.717071E-2,1.0477261E-2,4.5201123E-2,3.7298854E-2,4.5528214E-2,5.595821E-2,2.3038948E-2,2.8211916E-2,3.8302913E-2,3.3007193E-2,5.036086E-2,5.670411E-2,6.9357656E-2,6.046274E-2,7.162288E-2,8.202828E-2],"categories":[],"categories_nodes":[],"categories_segments":[],"categories_sizes":[],"default_left":[0,0,0,0,0,0,0,0,0,0,0,0,0,0,0,0,0,0,0,0,0,0,0,0,0,0,0,0,0,0,0,0,0,0,0,0,0,0,0,0,0,0,0,0,0,0,0,0,0,0,0,0,0,0,0,0,0,0,0,0,0,0,0,0,0,0,0,0,0,0,0,0,0,0,0,0,0,0,0,0,0,0,0,0,0,0,0,0,0,0,0,0,0,0,0,0,0,0,0,0,0,0,0,0,0],"id":15,"left_children":[1,3,5,7,9,11,13,15,17,19,21,23,25,27,29,31,33,35,37,39,41,43,45,47,49,51,53,-1,-1,55,57,59,61,63,65,67,69,71,73,75,77,79,81,83,85,87,89,91,93,95,97,-1,-1,99,101,103,-1,-1,-1,-1,-1,-1,-1,-1,-1,-1,-1,-1,-1,-1,-1,-1,-1,-1,-1,-1,-1,-1,-1,-1,-1,-1,-1,-1,-1,-1,-1,-1,-1,-1,-1,-1,-1,-1,-1,-1,-1,-1,-1,-1,-1,-1,-1,-1,-1],"loss_changes":[1.9466568E4,2.3428457E3,1.6186338E3,2.52875E2,2.2858154E2,4.7732324E2,1.4403613E2,1.13762695E2,3.0103638E1,3.2944283E1,3.4244705E1,6.1420532E1,1.0767578E2,3.4074707E0,1.9754395E1,2.2921387E1,2.1628418E1,3.6752625E0,5.08432E0,5.6649017E0,1.0241708E1,8.891441E0,2.171983E1,6.225342E0,2.3119751E1,5.7487793E0,1.9364502E1,0E0,0E0,1.4074707E0,1.355957E0,1.14157715E1,3.2698975E0,1.1211426E1,4.0305786E0,1.6624146E0,1.9613953E0,1.2117863E0,2.8205566E0,9.7564936E-1,2.9882965E0,1.5059887E0,2.4191456E0,1.1789322E0,9.881973E-1,3.235658E0,3.355217E0,8.5154724E-1,1.023468E0,2.6339417E0,2.2962036E0,0E0,0E0,2.2823486E0,2.6013184E0,1.0063477E0,0E0,0E0,0E0,0E0,0E0,0E0,0E0,0E0,0E0,0E0,0E0,0E0,0E0,0E0,0E0,0E0,0E0,0E0,0E0,0E0,0E0,0E0,0E0,0E0,0E0,0E0,0E0,0E0,0E0,0E0,0E0,0E0,0E0,0E0,0E0,0E0,0E0,0E0,0E0,0E0,0E0,0E0,0E0,0E0,0E0,0E0,0E0,0E0,0E0],"parents":[2147483647,0,0,1,1,2,2,3,3,4,4,5,5,6,6,7,7,8,8,9,9,10,10,11,11,12,12,13,13,14,14,15,15,16,16,17,17,18,18,19,19,20,20,21,21,22,22,23,23,24,24,25,25,26,26,29,29,30,30,31,31,32,32,33,33,34,34,35,35,36,36,37,37,38,38,39,39,40,40,41,41,42,42,43,43,44,44,45,45,46,46,47,47,48,48,49,49,50,50,53,53,54,54,55,55],"right_children":[2,4,6,8,10,12,14,16,18,20,22,24,26,28,30,32,34,36,38,40,42,44,46,48,50,52,54,-1,-1,56,58,60,62,64,66,68,70,72,74,76,78,80,82,84,86,88,90,92,94,96,98,-1,-1,100,102,104,-1,-1,-1,-1,-1,-1,-1,-1,-1,-1,-1,-1,-1,-1,-1,-1,-1,-1,-1,-1,-1,-1,-1,-1,-1,-1,-1,-1,-1,-1,-1,-1,-1,-1,-1,-1,-1,-1,-1,-1,-1,-1,-1,-1,-1,-1,-1,-1,-1],"split_conditions":[8.728605E-1,1.7418084E-1,1.5715401E0,-1.7515899E-1,5.2352065E-1,1.2222003E0,4.9632537E-1,9.951617E-1,9.951617E-1,9.951617E-1,4.9632537E-1,4.9632537E-1,4.9632537E-1,9.951617E-1,9.951617E-1,-5.244988E-1,-5.244988E-1,1.03998005E-1,4.9632537E-1,4.9632537E-1,4.9632537E-1,9.951617E-1,9.951617E-1,9.951617E-1,9.951617E-1,9.951617E-1,9.951617E-1,1.1058523E-1,1.24019526E-1,3.1574547E-1,4.382176E-1,-1.2634874E-4,-1.1228713E0,-1.2634874E-4,4.9632537E-1,6.316173E-1,-1.464725E0,-1.3683302E0,-1.2331787E0,8.838438E-1,-1.3434862E0,-8.499731E-1,-2.1656157E-1,-1.0413829E0,-8.6904585E-1,-1.1228713E0,-1.0294578E0,3.777073E-1,-8.9866084E-1,6.316173E-1,-4.3777335E-1,7.47843E-2,8.688778E-2,8.745756E-1,-1.148709E0,-1.1181346E0,8.671156E-2,9.051777E-2,9.742566E-2,-5.1002115E-2,-4.554976E-2,-3.5030883E-2,-4.1854315E-2,-4.0789586E-2,-3.5492565E-2,-2.4977615E-2,-3.2048482E-2,-3.468674E-2,-2.885134E-2,-1.7781993E-2,-2.8076673E-2,-4.128547E-3,-1.5084601E-2,-1.472421E-2,-2.2264682E-2,-1.0538462E-2,-3.6986058E-3,-9.12419E-3,-1.7592587E-2,1.1485289E-2,2.074069E-3,-4.0770294E-3,-8.662174E-3,2.0362003E-2,1.2261463E-2,1.8909108E-2,2.8069256E-2,7.801355E-3,8.7274204E-4,1.717071E-2,1.0477261E-2,4.5201123E-2,3.7298854E-2,4.5528214E-2,5.595821E-2,2.3038948E-2,2.8211916E-2,3.8302913E-2,3.3007193E-2,5.036086E-2,5.670411E-2,6.9357656E-2,6.046274E-2,7.162288E-2,8.202828E-2],"split_indices":[7,7,7,7,7,7,12,1,1,1,12,12,12,1,1,7,7,9,12,12,12,1,1,1,1,1,1,0,0,8,9,8,6,8,12,8,6,6,6,9,6,10,6,6,5,6,6,6,9,8,10,0,0,5,6,5,0,0,0,0,0,0,0,0,0,0,0,0,0,0,0,0,0,0,0,0,0,0,0,0,0,0,0,0,0,0,0,0,0,0,0,0,0,0,0,0,0,0,0,0,0,0,0,0,0],"split_type":[0,0,0,0,0,0,0,0,0,0,0,0,0,0,0,0,0,0,0,0,0,0,0,0,0,0,0,0,0,0,0,0,0,0,0,0,0,0,0,0,0,0,0,0,0,0,0,0,0,0,0,0,0,0,0,0,0,0,0,0,0,0,0,0,0,0,0,0,0,0,0,0,0,0,0,0,0,0,0,0,0,0,0,0,0,0,0,0,0,0,0,0,0,0,0,0,0,0,0,0,0,0,0,0,0],"sum_hessian":[2.8803E4,2.0162E4,8.641E3,1.435E4,5.812E3,5.802E3,2.839E3,1.1402E4,2.948E3,2.936E3,2.876E3,2.93E3,2.872E3,5.2E2,2.319E3,5.714E3,5.688E3,1.424E3,1.524E3,1.459E3,1.477E3,5.83E2,2.293E3,5.8E2,2.35E3,5.93E2,2.279E3,2.52E2,2.68E2,1.17E3,1.149E3,4.247E3,1.467E3,4.289E3,1.399E3,7.06E2,7.18E2,3.25E2,1.199E3,2.59E2,1.2E3,2.82E2,1.195E3,2.82E2,3.01E2,1.127E3,1.166E3,2.91E2,2.89E2,1.214E3,1.136E3,2.86E2,3.07E2,1.111E3,1.168E3,6.59E2,5.11E2,7.06E2,4.43E2,1.934E3,2.313E3,2.68E2,1.199E3,1.947E3,2.342E3,2.83E2,1.116E3,4.53E2,2.53E2,6E1,6.58E2,3E1,2.95E2,1.55E2,1.044E3,1.8E2,7.9E1,1.22E2,1.078E3,5.2E1,2.3E2,5.11E2,6.84E2,6.4E1,2.18E2,4.8E1,2.53E2,2.06E2,9.21E2,2.43E2,9.23E2,1.79E2,1.12E2,7.2E1,2.17E2,7.83E2,4.31E2,4.03E2,7.33E2,8.05E2,3.06E2,1.59E2,1.009E3,1.07E2,5.52E2],"tree_param":{"num_deleted":"0","num_feature":"14","num_nodes":"105","size_leaf_vector":"1"}},{"base_weights":[-6.503247E-4,5.3243643E-1,-2.80397E-1,3.6441457E-1,1.0530635E0,-6.0534334E-1,-9.582264E-2,7.959638E-1,7.236329E-2,1.3269241E0,8.896478E-1,-4.3753245E-1,-7.72019E-1,3.1751445E-1,-4.332998E-1,1.0925536E0,6.331776E-1,-3.1215975E-1,5.936517E-1,1.7345345E0,1.2254428E0,7.7252674E-1,1.4039558E0,-7.7848786E-1,-2.0030734E-1,-8.7756735E-1,-7.0429367E-1,-5.5296224E-2,8.2771003E-1,-2.4121444E-1,-5.6432456E-1,1.4928762E0,9.952628E-1,4.6228564E-1,1.1826559E0,-4.6939301E-1,-3.840301E-2,3.8229328E-1,8.54232E-1,1.0602924E0,1.8130348E0,1.0975941E0,1.462107E0,5.715191E-1,1.0590945E0,1.2294681E0,1.5922704E0,-8.5494554E-1,-6.429234E-1,-4.1962287E-1,3.0277114E-2,-9.537523E-1,-8.1249297E-1,-5.509614E-1,-7.6525295E-1,2.1764131E-1,-2.936329E-1,1.0295682E0,5.497162E-1,-5.733287E-1,1.0348041E-2,-6.691408E-1,-4.9075717E-1,8.378952E-2,6.509187E-2,4.3526087E-2,5.9857246E-2,1.0305985E-2,3.644481E-2,7.9222344E-2,5.399201E-2,-3.0592162E-2,-1.1328508E-2,9.145548E-3,-2.019502E-2,3.9375316E-2,1.1214075E-2,5.385476E-2,2.8604371E-2,3.4396775E-2,6.9554575E-2,6.1213423E-2,9.352266E-2,6.844384E-2,4.869715E-2,6.253647E-2,7.621505E-2,1.1694961E-2,4.065127E-2,3.9818887E-2,6.256315E-2,5.094412E-2,6.998724E-2,5.447626E-2,8.2593694E-2,-4.655465E-2,-3.8952164E-2,-3.7743915E-2,-2.328394E-2,-3.1925645E-2,-1.2354572E-2,-1.240768E-2,1.5991399E-2,-5.0967474E-2,-4.459045E-2,-3.6157273E-2,-4.4205125E-2,-4.0255744E-2,-2.1639576E-2,-4.1752394E-2,-3.3994794E-2,-2.1940817E-3,2.3631755E-2,-1.9783817E-2,1.9477723E-3,4.29986E-2,6.5031715E-2,1.0452601E-2,3.9182127E-2,-3.3756144E-2,-2.2627266E-2,-1.0577447E-2,1.4515305E-2,-3.6954205E-2,-2.9273624E-2,-1.8607935E-2,-2.8396828E-2],"categories":[],"categories_nodes":[],"categories_segments":[],"categories_sizes":[],"default_left":[0,0,0,0,0,0,0,0,0,0,0,0,0,0,0,0,0,0,0,0,0,0,0,0,0,0,0,0,0,0,0,0,0,0,0,0,0,0,0,0,0,0,0,0,0,0,0,0,0,0,0,0,0,0,0,0,0,0,0,0,0,0,0,0,0,0,0,0,0,0,0,0,0,0,0,0,0,0,0,0,0,0,0,0,0,0,0,0,0,0,0,0,0,0,0,0,0,0,0,0,0,0,0,0,0,0,0,0,0,0,0,0,0,0,0,0,0,0,0,0,0,0,0,0,0,0,0],"id":16,"left_children":[1,3,5,7,9,11,13,15,17,19,21,23,25,27,29,31,33,35,37,39,41,43,45,47,49,51,53,55,57,59,61,63,65,67,69,71,73,75,77,79,81,83,85,87,89,91,93,95,97,99,101,103,105,107,109,111,113,115,117,119,121,123,125,-1,-1,-1,-1,-1,-1,-1,-1,-1,-1,-1,-1,-1,-1,-1,-1,-1,-1,-1,-1,-1,-1,-1,-1,-1,-1,-1,-1,-1,-1,-1,-1,-1,-1,-1,-1,